{"layer_sizes": [256, 64, 5], "learning_rate": 0.1, "weights": [[[0.005182066079751101, -0.04635252821378907, -0.023005472012017143, -0.00014868787879396384, 0.03228223872045732, -0.022392523674219986, 0.03320206860023919, -0.05307701570109245, -0.005638932879066093, -0.07684293927927298, -0.0182899822337253, 0.006274140986047104, -0.014385482724542658, -0.0229043650350398, 0.042779523971239006, 0.058343812581804363, -0.008003520463380561, 0.03340051698826937, 0.041385605240239036, -0.11200858422588614, 0.06734184988580286, 0.04410270519628605, -0.01163588307869449, 0.0014080547188101027, 0.09767013688357089, -0.04493836671878279, -0.07526008402093472, -0.06350039883042134, 0.04382652222506217, 0.013646641395370694, 0.09644244499647489, 0.03961343525624396, 0.032736569369220994, 0.08696431015155322, -0.0416796280305846, 0.08180602124713061, 0.012963148450065878, 0.015638997242413546, 0.07020151188890945, 0.041087581291629836, 0.049152193230254146, -0.03603747921083142, -0.011309826169686382, 0.04791685137318647, -0.04788925228884681, 0.015448543306388528, -0.06698703602439407, 0.02737265993238823, 0.04585943666057905, 0.00036341648379104843, -0.017109649642230433, -0.09244205201958743, 0.08326043547630099, 0.08234871736966803, 0.0764838834064143, 0.1071586898623579, -0.02012175553701583, 0.034051199433645235, 0.009180240289014678, 0.15852503035710733, 0.1638299199395285, 0.004847652924667854, 0.010748051761083257, 0.10258055142299603, 0.048224202003051664, -0.021259850979960908, -0.13153578890183087, -0.042592691280527714, -0.0822306496090638, -0.12864062075610705, -0.2648445640066053, 0.07637112964166547, 0.15583330210069538, -0.07848876534267978, -0.132458270771452, -0.017165033178316674, -0.049403377196878005, 0.06302016827402797, -0.09909330527711525, -0.07679756319980126, 0.03823514516650575, -0.031633694222519625, 0.03184658916046406, 0.0026640589859425723, 0.2507396905648781, 0.07987836736304249, 0.1256319576947601, -0.08340379261655305, 0.1503207155192166, -0.3387840874680094, 0.011634789229246571, 0.36454369316590807, 0.12683109380818186, 0.01826771031774056, -0.006929593011662829, 0.07658739243189693, 0.0591680498028861, -0.03755353034666419, 0.007682406765542489, 0.289712081002927, -0.6646165323238594, 0.022587511317618113, -0.2601891727684538, 0.10404950630824772, 0.3274266036232311, 0.22035419311662027, -0.4939923740470464, -0.11454105622860176, -0.6366245052193131, -0.03997707645006807, 0.06201973377716799, 0.05723849971643573, -0.009237852744645917, -0.06550783794963168, 0.04331640988198554, 0.04360952263510531, -0.22936786591387426, 0.152882816568611, 0.29434524843370746, 0.4485848858111698, 0.4794886511242992, 0.3446247895929291, -0.059190762526024315, -0.09783574856691157, -0.04439879422355906, -0.02739783930917132, 0.018206739671103513, 0.08138316138914409, 0.04936433555328903, -0.008099433862914583, -0.07562956242744599, -0.12523493240829517, -0.15577307802950602, -0.18071646844022776, 0.3991911057426828, -0.051793662914036934, 0.2060202273803174, 0.07568614974829765, 0.11232596145927065, -0.35453142066171955, 0.12704160193029626, -0.0770090256211464, -0.12026557801367849, 0.09821088958093392, -0.01825279103169412, -0.029604871230572462, -0.04743524850049221, 0.15754480884166544, -0.06629408172165785, -0.07315419909493634, -0.07853520744919426, -0.09606538975025938, -0.17979753394133893, -0.03720341840359077, -0.028066077559930437, 0.013731297562338967, 0.035652730832166475, 0.08710468133565702, -0.002277428608531334, 0.08046325766772502, -0.07495348845271228, -0.03454425634729623, -0.08548533548631054, 0.14827822650165848, 0.11894272635969819, 0.03090285549216662, -0.2758443583709006, -0.2179949223337239, -0.45481540228487655, -0.4838559524838515, -0.06662834414947963, 0.13335590988746593, 0.1331953133954464, 0.050345848994820974, 0.08303740204518838, 0.023268135195346706, -0.07510708516962053, -0.028226797438254157, -0.04910928041947549, 0.05637631492682303, 0.0658558424925497, 0.22848226463328844, 0.15892622473525136, 0.11244317162838814, 0.22610446304318785, 0.018157810051105137, 0.3085422760082929, 0.3481850152060383, -0.019185297496207464, -0.09238719980908812, 0.08271675239191728, 0.1339048306885297, -0.05580216287365259, 0.009362091035785048, -0.11514769522576505, 0.09160184820715218, 0.13597531650368677, 0.3082628488278564, 0.3510736671821575, 0.3703016569269135, 0.31321114937165856, 0.30269231052019513, 0.1449671267012591, 0.1307457566862528, -0.022028101482151372, 0.06330845254718696, 0.054700790133722844, -0.06234212759600524, -0.004487282706530453, 0.054977053970122376, -0.012424530048784787, -0.051751315901595124, 0.04659110519203745, 0.1402865112565792, 0.29090451492058594, 0.6174204447537203, 0.5576700645077091, 0.4228462735354686, 0.2791378760076979, 0.05309941369011311, 0.1730838980473546, 0.07641036021925027, 0.07408220683562215, 0.037514445760867446, -0.0479865566883898, 0.00863534397408083, -0.05747321963681081, 0.004933038264005194, -0.09490352990647236, 0.12197961307834329, 0.16489653448110586, 0.14847283933984912, 0.2343832607670885, 0.1935935172319688, 0.18312683357743995, 0.16309097688930285, 0.1743133835542947, -0.029856188134026525, -0.05219608854198293, -0.011117242589778106, -0.02763881349028769, 0.014126602204868933, -0.0067553991032844474, -0.0014187762264699269, -0.10780855999153319, -0.03351204737086436, -0.03773731610973588, -0.011080772978799489, 0.07329172824203148, -0.013628916084217674, -0.02544200245515795, -0.012777137122621966, -0.07167550964644806, -0.0862226629766464, 0.02736655495815217, 0.0803389508849728], [-0.05492875479455988, -0.03696467176465114, -0.03069908714054877, 0.053213340339154376, 0.035556720846184324, 0.03571247773633736, -0.02842608983653275, -0.0545402415550147, 0.02982814167491052, 0.014012432753439854, 0.00295112671693633, 0.059297271522801925, 0.018275546340289224, -0.06258601639837846, 0.03933113563113371, -0.025314347912670166, 0.01938958052394951, 0.053204266945402826, -0.057594325435789434, -0.05931422204814084, -0.05549313892938112, 0.0021341303984284362, -0.034861324481125944, 0.01842239829663087, 0.021686114130267404, -0.04156792880016822, 0.011481796358646759, -0.03898590359353942, -0.013481264899663687, 0.04924315988287501, 0.0414928502221736, -0.05153900784428943, -0.010671344665298553, -0.03973136917630574, -0.07507227818068264, 0.026746164605261018, 0.00827703304697169, -0.034843576186937494, 0.03608032252151602, 0.007874354909884619, -0.005283708502381332, -0.06151970992944662, -0.05225723324485867, 0.051990574784660876, 0.04386918192353899, -0.005891222415723294, 0.04067258720855891, 0.01018038858626412, -0.04518171838039688, -0.058774366513037815, -0.04044751655290124, 0.04144566777691356, 0.03851308356486157, 0.0379350437710925, 0.050409169290934884, -0.026114381455359947, -0.035241840939574456, -0.06007076011059764, 0.041783908839417294, 0.05313998990952479, -0.0154576520203965, 0.01007069868596824, -0.04427351326233026, 0.051930272501549433, 0.034807686573185476, 0.0425505793059475, 0.035235779294814584, 0.04447353174630387, -0.052245848432725055, 0.028933341938965587, -0.025455365683726933, 0.05811130757602155, 0.038108888514061585, 0.029243524869622554, 0.045420466084512806, -0.03576717281139803, 0.040577960799911876, -0.052545725539355284, 0.04270756630640521, 0.04412631468809991, -0.046768106117885164, 0.024031875351559605, -0.0035257086397274717, -0.012151286506187613, 0.04568550392648371, -0.017083449538479935, -0.05496643225553208, -0.033040700426204724, -0.023125029756866523, 0.03962323931168358, 0.07044735024034866, -0.005733762162916399, 0.017554174018966574, -0.017116851685219203, 0.05912470304395983, 0.007933919251764517, 0.033378406647849156, -0.06368065253922664, 0.07521203337800723, -0.032847591241550365, 0.03499715773622982, -0.02179186277799544, -0.04198640740378516, -0.0028572644996064473, 0.04084441882002832, -0.02794903554816656, 0.00482686862437283, -0.0069536668491382864, -0.012522084717428049, 0.004672348572678833, -0.0342704855134068, 0.030197595039315153, -0.08475116044998322, 0.04707189800510217, 0.01562572030218515, 0.029384540938094488, 0.03126569298502286, 0.03498369374188095, -0.013338405316375559, -0.049493773524960046, 0.028544726865085433, -0.00958859127406865, -0.03607769515788213, 0.04739961529614998, 0.026529467335370406, -0.02001121154350235, -0.0280115261076018, -0.008173281839635742, -0.03361806783970311, -0.04084776884405919, -0.02966623832645779, -0.0031763011110444526, 0.05587332376514424, 0.014027238482910149, 0.04683919502589707, 0.00018732734444272764, -0.033037574880580435, -0.0032676542330452147, -0.0563390397530549, -0.04020271462206422, -0.0039510857800450815, 0.001565117747147203, 0.01027309135540243, -0.0012347892812064288, -0.029581101855786468, -0.04317517364951721, 0.010481652070521905, 0.054378232926061434, 0.03356805844776176, -0.05017299220797336, -0.06577571564451072, -0.009120620074219935, 0.00414318240621061, -0.03248526357443398, 0.034663413045880914, 0.02995775922829857, 0.02650266834288092, -0.03502116380872113, -0.04243306380780217, -0.05551090203604221, -0.05344120135354449, -0.01864149489928044, 0.060623817822375886, -0.043274674184032594, -0.008412239837903568, 0.004267875722335812, -0.050671626178123715, 0.014035223984411696, -0.012145648178572893, -0.04474990479754472, 0.024126789797920083, -0.06432067945283582, 0.03594691575582358, 0.02933907802171349, -0.05346575285821828, -0.006321070051072388, -0.05270836743457709, 0.03393114288767174, 0.0026766519348731706, -0.03829639607688078, -0.03033379255362332, 0.043406734641213265, 0.0024808390603672597, 0.04965872011694645, 0.030483358019895577, 0.06802646097913463, 0.02366171906511794, 0.06534763678449639, 0.04426719423671103, 0.0053641433817172455, 0.03217236037646001, 0.004408008754626166, 0.0318422524252408, -0.016107327106909698, 0.042273924858015156, 0.03140801527507519, 0.0123708684267755, -0.021166015000138892, -0.02900947729892331, 0.015596549275866099, 0.032848749723675824, 0.003379752145212312, 0.03102220623586047, -0.02537090530234605, -0.05910627078864859, -0.03278856077627146, -0.026982489666236942, -0.023772135953182137, 0.004451737644809019, -0.05538925333372532, -0.05620330989320992, 0.01871100243870611, 0.03010119526385461, -0.05385882760416774, -0.015660225599268867, 0.013495314477555162, -0.018869472625295088, -0.042829076524502, -0.003589593131156896, 0.04878259753352856, 0.004701665381909851, 0.023322830440902664, 0.043749878734845, 0.0325913946565167, -0.016356616139744953, -0.07230938474316743, -0.02939494407201306, 0.020303195098892425, 0.03716513564135743, 0.0502078530555825, -0.011233481385443939, 0.03040607230860361, -0.001491675225317068, 0.010980895107005777, -0.032582181268003094, -0.030116349267107666, -0.007949160039540005, -0.0694291385119594, -0.02212246637161472, 0.02123291208338309, -0.01283792863149594, -0.04292844919090637, -0.01459676469621294, -0.05750347911426581, 0.003296118674590776, -0.06524482315723396, -0.019198095087499936, 0.011583102831176207, -0.06456628087738987, 0.012730705760026498, -0.051465660090010856, -0.009045329446061833, -0.06686543543226428, -0.017524771435081233, -0.038403705772991834, -0.02276483132076172], [0.014565309429124797, -0.02083715618326286, 0.011848719516261671, 0.03209985162686279, -0.04487261781324965, -0.061524327040331304, -0.09661779984472879, -0.03911333972653993, 0.019093719698850844, -0.060562534605687925, -0.027772462322473705, -0.009509322561304332, -0.03480891803475047, 0.019841098827808174, 0.03839973232090508, -0.04920126732795023, -0.07896279208833575, -0.0688872404919732, -0.06884812756411735, 0.023707215454800257, -0.03438274005718708, -0.06945116555851112, -0.06448331016158984, -0.06269688587555312, -0.13216660117873447, -0.03168959392938595, -0.05104917622608313, -0.14557814624424895, -0.06103425584835557, 0.0018928868136135594, -0.09495894988572147, -0.07375472476801041, -0.0447003123279713, 1.3041144688761893e-05, 0.05659288621672896, -0.018751617523912304, 0.0317041095427292, -0.11329046939398217, -0.003238630703314621, -0.02148183263146805, -0.08479380382353477, 0.04044073688689333, 0.016508707967211683, -0.06922937968892175, -0.10576323663978289, -0.014727745627897372, -0.016252571533580135, -0.0818845346069609, -0.01815510787262151, -0.03847517609304788, 0.04761836486911951, -0.014268703138037755, -0.10664257836209148, -0.04887975643119513, 0.037940143351864235, 0.11358730607872705, 0.12416357166449185, 0.14479644496129063, 0.09552517323414485, 0.010248173859428545, 0.035535686872465194, -0.05567425751867961, -0.09522473819732066, -0.04160836488194249, -0.0032158249531186794, 0.02391124776464752, 0.001772239416547252, -0.03478088720399893, 0.12786856869434876, -0.025674547750990668, 0.3627032914392272, 0.06497670712134679, 0.11583449795266218, 0.08473472483973529, 0.311176930032062, -0.006773514750124079, 0.07931397175432488, -0.07349369098790837, -0.03625501590483123, -0.12584124066228186, -0.048215769792886214, 0.10190980466721093, -0.05431251502315186, -0.09465702512625616, 0.24158211425075582, 0.13275849958700284, -0.3015149732163654, 0.1970215171766136, -0.3606552535855257, 0.22169379345503729, -0.14542854531962104, 0.018814394530086688, 0.20639475160155168, 0.22531906695598952, -0.01361577423101437, -0.05970802867127912, -0.054242532923852074, 0.03687954677308488, 0.01139973166638494, -0.10657542743826351, 0.09054284304394113, 0.06561314919967644, -0.22866811224193573, -0.10015838231198605, -0.45902931571652067, -0.21945562570559926, -0.11987817837688389, -0.05163958194623885, 0.1370673830850168, 0.002232939433290488, -0.04658432692442239, -0.08244841152890686, 0.015678286150821733, 0.10472308921860711, -0.08562584145702516, -0.04945114200058539, 0.11983292856350752, 0.19640584781485823, 0.057314830670512136, -0.167084963839747, -0.08890895609383989, -0.23030897132708272, 0.06608917544848028, -0.2125686710090478, 0.06614470880210398, 0.00238076326147584, 0.029052753490506667, -0.02307074208459366, 0.063506617483684, 0.08208789407849507, -0.06069661180163849, -0.09951208940888825, 0.059062177869855334, 0.11516559769990144, 0.08661645265458878, 0.00550443996918458, 0.009562297235060207, 0.004119202919097119, -0.0020425186008259447, 0.11364447701233663, 0.07738509570006874, 0.022326489346838993, 0.043956285197995465, -0.02584851609966468, -0.05797164662140921, 0.06967031681379014, -0.06693318269460673, -0.12590387229296307, 0.009749700168348164, 0.036794278940208716, 0.0956449606240317, -0.010946625771442895, 0.06319290955516432, 0.053275142393854585, 0.07192135125365437, 0.020820506458504896, 0.06392144063544287, 0.015852205847068864, -0.0651903276608483, 0.013633473667119396, 0.07163509017750588, 0.04413130925436688, -0.018677345430987844, -0.06334325429824747, 0.005745056953099377, -0.10439301067025594, -0.3111569689205912, -0.350244907547806, -0.3671658728327781, -0.3557563098062913, -0.34517620711683455, -0.20183022591485061, -0.04711724434406447, 0.019660956498009273, 0.011129004914239049, -0.06226141129681857, -0.027819546908237243, 0.08316466361894036, 0.06507865123677908, -0.041997014780858426, -0.02954018868355368, 0.008152688086764398, -0.09534361172446114, 0.20865110550014246, 0.23932881495028221, 0.2951361042087892, -0.029921612528173325, -0.2394160600665017, 0.03613145381299228, 0.03919114599711592, 0.018554802627062376, -0.07352344160132616, -0.03621897131805185, -0.0242885155525654, 0.08635502948984784, 0.06597275662159781, -0.08171657733684669, -0.146621095410631, 0.02758071223386322, 0.13385814361421694, 0.26454659756477034, 0.1546312013657981, 0.05330488458754729, -0.08812693228613537, -0.0792623358014794, -0.08144271531961556, -0.019626947663404462, -0.05747296807582989, -0.05656429287067755, 0.07113045401550581, 0.0615849863838382, 0.05416648087412658, 0.11111335553852186, 0.04082788594482563, -0.06954028523183682, -0.114375529373848, -0.0988286625115807, 0.06549492430555834, -0.06528971026137886, -0.047151668415212684, -0.02810775397935897, -0.039582907646565496, 0.03496366752063669, -0.006438666840448896, -0.0161902941631946, -0.04644925737757822, -0.02024370064942675, 0.006987185590657787, 0.05436169077090473, 0.12455171630344578, -0.014701516896216503, 0.03055540234320851, -0.04337601465513886, 0.04008408231463879, 0.047897551706970805, 0.013397263806672405, -0.002434178683171279, 0.022018721744677693, -0.0510122362224119, 0.06101137027672631, -0.020738787793470163, -0.01056896036977228, 0.06107261926685929, 0.02222752407386963, 0.018776928581647263, 0.033560782814335124, 0.04656698282642593, 0.04542929173215795, 0.11722731271069912, 0.08062089420763094, 0.10948204850798775, 0.03276553774611612, 0.0508872183173529, 0.04756105851203621, -0.004003535496291296, 0.014010929316999005], [-0.03590785667695976, 0.0665303791684181, 0.021699625893686545, -0.026695807043569286, -0.029699835918525614, 0.013757956984079743, 0.014803417938444838, -0.04098217626906985, 0.07099013526293871, 0.061836481776182055, -2.4132315675445123e-05, -0.03686719465821983, 0.05044407767057065, 0.007436362708638048, 0.031350972729880786, 0.005012673161486211, -0.022678755742411624, 0.04960214295729655, 0.0695576586765975, -0.018482816284074, -0.0024477322066149263, -0.01346186663954704, 0.06094621792508379, 0.005972153793627619, 0.059584251826861646, 0.054969198084109896, -0.014294957653472941, 0.061863531789338545, 0.002738749036506649, 0.062247984183870696, 0.010964511875691281, 0.045495222417929616, -0.018045323918058253, -0.021009657779100376, 0.026944980474681756, 0.06055460955535844, 0.02694705019675497, -0.02433378909511626, 0.0336527259279748, 0.03303937431570067, 0.021387257609961994, 0.03038447652469285, 0.024178149224374015, -0.018080023579416845, 0.0025848271692045072, 0.050050370452832685, 0.02146005495420538, -0.024012991943097563, 0.035068652257723966, -0.047589342869273236, 0.02811406270992369, 0.03435851588785379, 0.04607679001355534, -0.03289401545219197, 0.015955506139037186, 0.009384927115686595, 0.07141377345239083, -0.021391279419426968, -0.06820486245556638, -0.026532204187556547, 0.015134987789676226, 0.06279270110159207, 0.07624771284870947, 0.0022649233593259412, 0.009838116851965834, -0.009687786045458517, 0.031369346501363325, -0.0018030779461335853, 0.04357146998123133, -0.08101752118349285, 0.06424520013578773, 0.09027235351054995, -0.03442980519512197, -0.004755797567061063, 0.06442566701342932, -0.014239923347381713, 0.11100329377402836, 0.04492009752496075, 0.0025381423866455053, 0.0026332896804050205, 0.03504212697527442, 0.0484031620892771, 0.03248433973478118, -0.05594695937146748, -0.1646933133651952, 0.13578665613973356, 0.04279819281858595, 0.11155984279367054, -0.07176710274797837, 0.08988337004995388, -0.09016474526930159, 0.019738102928759212, 0.008300802158274506, -0.008523626203744906, 0.04948681929120183, 0.08453130486212233, -0.04703786462508767, 0.002282270994697177, -0.051358069403161864, 0.012856962297694369, 0.07510649564924667, -0.16150953978131752, 0.1267802518849438, 0.04487635056738477, -0.1719788458789866, 0.01386396641427453, 0.09301221169492206, -0.029296059344471527, 0.014749406411207413, 0.06599839387819124, -0.034807518903302005, 0.008071439635570742, -0.012180272465758422, -0.056602720470868784, -0.06639185190167865, 0.08092655799549794, 0.12210876484635425, -0.08435170428282361, -0.16936993456994595, -0.08661171190796613, -0.13651362823432026, -0.045227991424042116, -0.04554301899432451, -0.00015194852708265308, -0.017805603214126497, 0.01038459584080944, -0.0392928767634802, -0.0018286550509719007, 0.012008369724759138, -0.06641246556932343, -0.04214303006392787, 0.02809485748055771, 0.10562647000511292, 0.025945396094052168, -0.07277457311656649, 0.023922429946588927, -0.1797985725826723, -0.0018337860737752747, 0.018291111770536828, 0.0409856203693238, -0.10172322136654527, -0.011901809466211012, -0.004346291984978862, 0.05499708545633604, -0.01594790958079248, -0.0007584398117896844, 0.03761178726505649, 0.0281321079730116, 0.06657440610009968, 0.04642365552233892, 0.03153012797086994, 0.03539721740435355, 0.029095628075676918, 0.042439707665660194, 0.024370167442327235, 0.06810872138474491, 0.039740486189706055, -0.01812752265245282, 0.02670260093098653, 0.021742337100928887, 0.04694725477392121, -0.08251022587740084, -0.05451049368618878, 0.07255797372319964, 0.0059035276988603684, -0.05244302907486005, -0.017660232688612804, 0.05872375388641731, -6.60287658901159e-05, 0.04158479810650199, 0.018937175240203465, -0.028952459500665263, 0.038098936517355984, -0.003681547297920925, 0.051556840729243776, 0.049442318436087214, -0.007511424456678506, -0.058666693227912785, 0.02387160198818282, -0.02556327553883276, 0.10515557590805434, 0.0700990381351188, 0.0932574083421633, 0.10901414292680195, 0.0740245008538201, 0.11219181361515287, 0.0008317035785614736, 0.007475940818223634, -0.06508456282954334, 0.018805848998547495, 0.0010198351224840344, 0.030533787200264152, 0.0376741616001788, -0.02720770757023468, 0.019547178718277873, 0.07386844567396983, -0.021534856784494134, -0.132925509739253, -0.1798089320810167, -0.047109407951473885, -0.07785328558614624, -0.05888907476862415, -0.167823568121798, -0.15423129796209487, 0.0494253568480378, 0.06061883992839762, -0.030151577726666563, -0.020097935189379284, -0.03425969177349977, 0.06939345250032619, -0.05267329830524055, -0.011731888326501624, -0.029231512022733545, 0.08107649078636527, 0.034734327132225365, 0.10348407906476573, 0.14484507985091666, 0.14205773442401728, 0.14453072599820618, 0.02384942729278016, 0.0269116997180454, -0.04623224290738655, -0.00991647518516626, -0.031961434778785686, 0.007773796011415592, 0.0008786282071648966, 0.042859630833924404, -0.07956145270257604, -0.031243316139920336, 0.011752541377188244, 0.07207677023087837, 0.08489266215890444, -0.027755039328379836, 0.03228374269326343, 0.02414465243529884, 0.06484957287427319, -0.018310159954293373, -0.01000664657170716, -0.04768240729991645, -0.0327641287955609, 0.05640716640293707, -0.001559353342831093, 0.03325170518016838, 0.006270962352020604, -0.016607293543659352, -0.09606175649070853, 0.002108920678417708, -0.06208888498908107, -0.04901082141117684, -0.02544157045226421, -0.08299409791525703, 0.025211945088907246, -0.03673772255809682, -0.04180923814890905, 0.05875218558945288, -0.012759798199357974], [0.002766104237183322, 0.08601949754146011, -0.03687294321350917, 0.09901981225027752, -0.020091410623672826, -0.0018812941692729604, -0.04181097148744757, -0.052165573994101495, -0.005261652980270111, -0.10247997163364474, -0.08123594341969255, 0.02004801393689729, -0.059916197139021556, 0.014584576625317041, -0.006506395936425772, -0.02238093796814339, 0.055340798299447165, 0.0429821695429318, 0.049289538884828274, 0.025731948977871323, 0.009359161953187966, 0.0035379839218120206, -0.005908156661740054, 0.045549976441667264, 0.08231965802970834, 0.02801065797591932, 0.08518877554020969, 0.08889754631307531, 0.008798885458632073, -0.01543051224444944, 0.061207121093657425, 0.0022953637383766887, 0.03576467689823543, 0.01629511442825613, 0.05975015495274722, -0.02813360174646629, 0.05575476761094857, -0.03162520657400448, -0.015111471668880742, 0.0734101712144987, 0.029809139685584116, 0.05293119912819958, 0.04181197106267455, 0.03555880636883189, 0.00889703356464622, 0.06424318305190976, 0.014973005852418137, -0.01152837000742036, 0.04163520678410438, -0.01196198017053274, 0.03737317302522186, 0.03051510513141179, 0.05044349898115148, -0.18223569139443205, -0.35324292794990886, -0.22388011300846214, -0.15605720034189197, -0.2867908057095096, -0.38655777186446055, -0.29613700648769936, -0.07391610968923412, -0.02545711229730678, -0.017937702843405554, -0.007147135021709377, -0.012406504329323291, -0.017175763141547444, 0.07686528452947955, -0.06816295824172428, 0.06209406532479381, -0.12003930566759015, -0.3038258470272898, -0.3390142180038137, -0.08637845722302233, -0.4444533639072422, -0.17525203401648395, -0.10787379323579707, -0.054826840578348, 0.03100286743279933, 0.06303997391961025, 0.015146279277792775, 0.04087165661045457, 0.05953311379598223, 0.09248092974068921, 0.07482745199021273, 0.14078049871526485, 0.44577506023004815, -0.045858452845531424, -0.291008632926005, -0.03826641006907552, -0.34258441278890067, -0.0060342232770002465, 0.2839775156497908, 0.2512944636221461, 0.09815581141962677, 0.10367178867379696, 0.04445630415462546, 0.04840664442645135, 0.06710191212564223, 0.015988933944857703, -0.16229148198047183, 0.33156190475726544, 0.475460943888648, 0.475176002915341, 0.19471369546472195, 0.05893567628561025, 0.02466448874232648, 0.5099125763121056, 0.6186526500062332, 0.3218685470006324, -0.003354349146285969, 0.11521345230007274, -0.009918718403575198, -0.003982180370147649, -0.010774871917686649, -0.014043145788954107, -0.02158557277594321, 0.14479127900773564, -0.06089682611381459, 0.16455949792973482, 0.013255654168228194, -0.013930136482424065, 0.006007547197643728, 0.27709667433454577, -0.15401615958839904, 0.23413439837812605, -0.011101048498446573, -0.024928280180794064, 0.05439938962998932, 0.04129650553400013, 0.009263177112631077, -0.004683489909773146, 0.0066401866104538335, 0.21543050751289397, -0.011728026309296986, -0.11536319287212465, -0.23035483603765436, -0.13905077836441196, -0.22040442066602556, -0.24394549466270865, 0.22326064328847126, 0.04557886330229766, -0.05917163438203241, 0.01536333911816988, -0.005663849065077505, -0.044276041627296536, -0.004784275467860334, -0.05347718735798049, 0.0790434933341436, 0.1500320546410112, 0.012412817436484116, -0.20359938095904814, -0.4825794023186799, -0.489004801364073, -0.5708284928883365, -0.16769077274742572, -0.052029790365748424, 0.12413918822458878, 0.16728200839361737, 0.012578685191375427, 0.08519775610592857, -0.05370672645196931, -0.029169263095931205, 0.021100557109143665, 0.0604109086045107, 0.2172544789876382, 0.05942998516452557, 0.024416365629509232, -0.6403395430937433, -0.6384620448521768, -0.5398301146897826, -0.11873888344356012, -0.048807456917815795, 0.07004863871007957, 0.0846761952469669, 0.13041309394406467, -0.0738546583295928, 0.057566488133135654, -0.01684361279338201, -0.006762670497141013, 0.005075483528297757, 0.11381127544741243, 0.09170087988026855, 0.20543184401731882, -0.8396948559839936, -0.9532124269110106, -0.45314695302412766, 0.18244847218478966, -0.15379613658227673, 0.14514408584848687, 0.05940652246969956, 0.003913253038648465, -0.011108648252511429, 0.054836136170147785, -0.02565365893329042, -0.11654300132124436, -0.12197001814825746, 0.0934932266724508, 0.016974110792126035, -0.013113577586248587, -0.8331084300852768, -0.69485332555957, -0.6720351367830572, -0.06826613941196151, -0.08974945834831348, 0.09397212532601071, 0.04639934378607769, -0.0652369801001118, -0.054503151247964864, 0.06951692470610786, 0.06502041625459168, 0.030869130743364965, -0.07474868394438829, -0.14244663244433575, -0.004510335399666444, -0.03921487573787851, -0.458025442510913, -0.4392957314424572, -0.3639917917499617, -0.09849588844577782, -0.04266305907656122, -0.07075672623712997, -0.029828047176273725, -0.12805710421399707, 0.0630300474878074, 0.07847851412583459, 0.03862879982966766, 0.008560414222276401, -0.006725072112556073, -0.04630531799199264, 0.011105428166099522, -0.050264727400690545, -0.152019718445054, -0.038417719470761946, -0.13720906374267125, -0.13100448515586044, -0.0767323825000718, -0.15033865452674303, -0.06707370155981009, -0.020916754570574177, 0.06510611971948066, 0.025835132316864764, 0.06792987448897926, 0.029414094922988653, -0.0473656307503879, -0.02270989986551872, -0.09996702012546273, -0.06932166780234823, -0.06349031805075435, -0.10104628937028273, -0.02767399924183361, -0.10518425995342703, -0.10954585751813459, -0.03264189196216903, 0.03402370157630379, 0.06038426017177973, 0.0764951023233447], [-0.05645551228860609, -0.01664899492629341, 0.02392472330873242, -0.016871209817656732, 0.032177628924551414, 0.04574401950856161, 0.01723636048107301, 0.018712636458765836, -0.06990504681292553, -0.02411522708668305, -0.0982084196941923, -0.05046668212722415, 0.029442907560544847, 0.07422295859412041, -0.013822885588971604, -0.01652567253022079, 0.048015086626919355, -0.016082841305651983, -0.026904242753806044, 0.06062740689855986, -0.03921517414507118, -0.026075787001658173, 0.045225031769891885, 0.05557357107146524, 0.05547445235409086, 0.07782928157779416, 0.0512345675365891, 0.00238167897283113, -0.0018818997504521679, -0.07887118336208997, -0.06477458457654467, -0.02888440871236983, 0.06821009648684814, -0.029372015666965328, -0.012250146080682024, -0.06125312676823637, -0.004666677380797361, 0.07906130413156483, 0.07597953876715828, 0.16283963686908703, 0.15873766810996512, 0.09631847297413919, 0.07937984618085618, 0.06661006672567776, 0.15995937551971703, -0.005004844553954403, -0.028772828947763836, -0.10338070531446437, 0.06089705619634318, 0.02872501457784698, 0.0807249929155789, 0.029577336120436542, -0.13561379072796262, 0.1553911609283293, 0.05707522699072742, -0.0037785863931994058, 0.05924735276376722, -0.026988058929527284, 0.036534593400721155, -0.04903871487259601, -0.17231645451446442, 0.07336817488380522, 0.032201535392858555, -0.03320117457615559, 0.04887669297468679, 0.050765750950212754, 0.08049645903546512, 0.032608986825480045, 0.40420614310060027, -0.3507421338251141, 0.29161334470475736, 0.10133089991439295, -0.02132131626584811, 0.21954523194856293, 0.2587205425700003, -0.352690537423184, -0.1659690596057365, -0.2133469429016014, 0.14662966636913863, -0.039560875283280596, -0.022214056213300623, 0.11244814395957066, 0.03770652956742145, 0.08268859966198307, 0.38820477480734816, 0.03771928961129444, 0.16980477235273833, 0.6613446500889261, -0.26494572394239496, 0.21525402985157066, 0.30624112575661233, -0.10541937006144979, 0.5586072068684136, 0.33433053557441106, -0.14390963119619796, 0.05327528093392557, -0.007934506521609746, 0.19063903884382535, 0.02909886146618217, -0.15258769889227053, 0.3462999354834174, 0.585230771549924, -0.8328453813564755, 0.3088682948667472, -1.1878338329705427, -0.42936507693690273, -0.1704772353853201, 0.059752300170388635, 0.6875229589114428, 0.2529086700741727, 0.04103820347144951, -0.12082959260260959, -0.0013854875761209829, 0.08974629494123496, 0.08920859910974163, 0.002392983416564175, 0.20773724659991943, 0.13716834568295963, -0.19418289795306895, -0.6374968958022663, -0.43768542032688645, -0.7731211303601692, -0.16970698348303928, -0.32521738984005766, 0.2938477656912599, 0.04266182178647801, 0.04799284015617519, -0.003685776282754538, -0.01838241485785782, 0.09375731520736795, -0.05882721305271137, -0.11355697895330708, -0.08033012046200344, 0.28510311028985547, -0.03466675772593205, -0.02076727425955594, 0.044981772664770193, -0.003048999490330392, 0.1010100455761209, 0.2995189100807488, -0.006758420458317423, 0.11700107706961999, 0.045188023040027475, -0.07921240066668418, -0.012819040758426655, 0.10499515363102381, 0.013971089014623628, -0.05893980938545199, 0.1351788117789593, 0.030893446730431543, 0.09122066237190979, 0.08809463355480186, 0.16615387310630148, 0.13650668501589705, 0.10695126078595105, 0.11309813673593838, 0.05164164380483001, -0.014714134862700371, 0.16848142866584892, 0.0491440699613491, -0.010494561848077795, 0.1279136424041659, 0.004932370899613097, -0.09209537605936283, -0.015734061972531507, -0.13761615736610044, -0.2855884807396368, -0.20242063587965023, -0.2412815046085554, -0.2451281768522713, -0.3732645647678084, -0.12385096223438753, -0.007809331513585889, 0.2019394236086831, 0.08359098165215695, -0.01856172302334258, 0.05675785266050089, 0.07292095150299721, 0.15042996360422906, -0.19852582349050207, -0.10112220424375051, -0.026932171858327678, -0.6262515848413651, -0.11747155907183783, -0.09123241022342199, -0.09804964683278476, -0.28132571869604067, -0.6643521954919654, 0.08226365469360183, 0.13810175256152207, 0.08189393072102118, -0.1319087508996888, 0.0031825207070838284, 0.1437996745417716, 0.14868036497895135, -0.08579362465521578, -0.14255997966995745, -0.11081135199426072, -0.0020372571825421583, 0.25991043678231335, 0.4959355740545453, 0.3298330069533122, 0.21143875205090074, -0.30512001032434827, -0.033582815566476, 0.1509178937064193, 0.03850873001424507, -0.18537003153952278, 0.021174856867038988, -0.03388264019190985, 0.10776472566694782, 0.15528177179918926, -0.06755902767402187, -0.15578351732383916, 0.0621782479055519, 0.1603484152301512, 0.16497606849796176, 0.19799940022874138, 0.1382627452072799, 0.12163360351612991, 0.1406303089845071, 0.11093612429521063, -0.20311998474265533, -0.012132336839214932, 0.022847213272459175, -0.020251508565254855, 0.02905796016395758, 0.07064325616161349, 0.17144662401364646, -0.07988834220274477, 0.024212453543733803, -0.0025833353280639306, -0.07344484199532224, 0.20280558963338274, 0.011033340976376834, 0.041068537317754845, 0.06115206121128996, -0.12186653294196517, 0.007741149109227819, -0.03461673834096711, -0.01666185241799944, -0.05311732843896248, 0.0502437641124614, 0.04819556355232877, 0.006346238853178066, 0.13619400424149328, -0.01181021607799257, -0.031151551790004197, -0.03446570506081203, 0.11830585678619691, -0.028169852008121353, 0.014780108691747803, -0.126056558351135, -0.054496798266089455, 0.024737390542794165, -0.024379500141223132], [0.04006451934494872, -0.017129251095695328, -0.06122982585182648, 0.013217247572866601, 0.03308758605455215, -0.030735551947717495, -0.027771900733884615, -0.06335128982529163, -0.0028706435684855928, 0.039693286676794164, 0.035397384827037914, 0.017688198081564077, 0.04283064381800321, 0.007249618943377806, 0.026979436058092787, -0.00889182634805318, -0.057512340217189685, -0.04790452175378072, -0.05560581108644298, 0.02837495296162651, -0.06307583749112049, 0.009810164108315797, -0.01361642625652748, 0.04019404722114123, 0.008576760670231805, 0.01675846796112684, -0.047971361032609745, -0.025797030269614663, 0.05415829074323001, 0.019306461704449055, -0.006945520939823844, 0.023397597615577654, 0.029920150475099633, -0.06359660876288266, 0.04933178127945683, 0.018390710777599253, 0.0017241388708755852, 0.028942292954254423, -0.012956573902744094, 0.049006565425022575, 0.034664553547293454, 0.023908670740515538, -0.03252420723564578, 0.059641791091076764, -0.010670881762568465, 0.04670282542352397, -0.06387357217284319, -0.05668792916441102, -0.05345299725338026, -0.05187332935701243, -0.020368021741797897, 0.034035052135158776, -0.010798527909008142, 0.05474365078682571, 0.046462744524264826, 0.03512839969750806, -0.03466020693241583, 0.012894651483301888, 0.006160930031670662, -0.04335908572180338, -0.023054464303085255, 0.0028905826557875563, -0.004117917218120661, -0.051584078695541005, 0.045122293391743645, -0.04504479524732181, 0.02795894454300677, 0.028778392656239157, 0.016649848994304522, 0.040947626610845896, 0.001107142419421825, 0.03108991631345225, -0.07064381333222307, -0.06082454016934729, 0.023030377101987482, 0.006621739500030562, 0.023433573879619404, 0.03496576417611055, -0.012617713297653134, 0.009385163474096774, -0.010231986281854547, 0.0221596878778732, -0.017153420731437375, 0.055071441602891576, -0.009715884683461438, 0.03956948277919365, 0.016819641600040364, -0.03042263984332054, -0.05962842225432392, -0.05626976501047089, -0.006413452135726111, -0.005023577152651919, -0.0346942482637432, 0.01720138243162644, -0.026766921238547882, 0.023153503502841597, 0.02084846535849469, 0.05080099888743476, 0.06900911244587607, -0.05216118841853618, -0.02434210230386619, -0.01125727726722609, -0.0291734068092607, -0.01776376740367509, -0.02948579414722662, -0.030400955384748077, -0.05897469689291131, -0.050473506055098365, -0.021319127925745862, 0.02085968340776743, -0.029737271755294576, 0.039938845104111526, -0.05036999060718494, -0.01660134312239547, 0.012433644917813435, -0.030690046639918825, 0.018861636691049392, -0.001185506882749603, -0.0026365385137261184, -0.002154127484319985, -0.03185710493465464, -0.05159162282273103, 0.04572117895044698, -0.002499724575827156, 0.052547989466671705, -0.03306841331578377, -0.018647380198930173, -0.06253014584676664, -0.009384990727906054, 0.05248252581060868, 0.022050750668993178, -0.009074328690764228, -0.004545306763038785, 0.03146801544165035, -0.010080592669506906, 0.03734495321009169, 0.01862438533442943, 0.022661751974438857, -0.021417628168805127, -0.02064374317427202, 0.002477599786320681, -0.03212663607870564, 0.004157171772594077, -0.0605835207790021, -0.007919733303799583, 0.035948978624596964, -0.017538692403516343, 0.05236584454380387, 0.012326191630693475, -0.05918851000844967, 0.04931073991675167, -0.023330957172997303, 0.026687511265307662, -0.029393413694215238, 0.04530496398843726, 0.021379834595650578, -0.04106443442721639, 0.0025636826721635647, 0.003154310304770017, -0.06338019656764567, -0.05358649491565593, -0.015741344730552463, 0.006475232995917113, -0.011398561812945003, -0.0003026618438065041, 0.0027012658295134905, -0.020925549199953854, 0.018296850529584182, -0.038205772604528426, 0.06556772690470322, 0.02633186317488937, -0.032708737227165816, -0.023737216547521922, 0.04578092226165421, 0.005666613875030565, 0.019655314613989994, -0.033147436705151787, 0.03873036751299206, -0.009879470857333175, 0.022800989376486284, 0.05519495095275332, 0.004673799807969147, 0.035635834745953096, 0.03755364418309802, 0.03362998916968405, -0.0495478202186072, 0.0018303205033138423, 0.06119724213156161, 0.035485876229304464, 0.03800439251969335, 0.007718859177096825, 0.019160477490357212, 0.0023795228010872137, -0.04935615606816519, 0.01766142925691862, 0.01984980871521479, 0.039917559044988546, -0.04082682949136037, 0.022018464652943742, -0.0637135389621218, 0.05707253729815456, -0.04430259259553674, -0.06575477110489117, -0.013771609490042512, -0.04514999015056277, 0.024124939973938383, -0.013106499423880223, 0.022798364593313074, 0.04354916804221754, 0.03895377219727903, 0.024801728033982305, -0.052693190341453616, -0.04048780183531002, -0.03436575120604766, -0.01698791544762807, 0.017121367102118625, 0.001511491936249886, -0.02317303690280155, -0.04544330618183244, 0.050799988077742234, -0.020306046812237445, -0.01991310749505367, 0.025821309913023935, 0.01802095304557851, 0.00785992865365556, 0.016479900225434847, 0.006010794889374599, -0.04274441545009648, -0.03204633139274757, 0.008367854113588084, -0.03243452788034264, 0.06092210309432128, -0.03027342572683929, -0.0213326757962421, -0.03685209667762117, 0.022880411758929273, -0.02562574112673488, -0.02533041014021243, 0.044649166019685715, 0.027245525710362838, -0.03814830603080031, -0.0574346338775972, 0.014421466955362883, -0.02294395738674741, 0.052272672195217786, 0.038950324681243834, 0.053582281107113404, 0.03264507622084781, -0.029534778337846932, -0.029986756418468898, 0.023728448052703802, -0.022080064574891242, -0.017644002541437265, -0.041303671676718175, -0.012960015905635612, -0.047150727639879944], [0.020664012036522867, 0.06989701403921271, 0.032677542004202885, -0.031057665176984623, 0.029560389596589326, 0.03195608709896058, -0.012611629967745652, 0.04054359815169724, 0.014324134991398724, 0.026312819059107973, -0.05081834268008789, 0.010570060844010985, 0.035665799338061965, -0.03649867564847857, 0.04574066110044706, -0.06291042560190267, 0.02093719736116213, 0.07155436175215234, -0.0007722911508464486, 0.07318730726586212, 0.06905326127319618, 0.03985585912414787, 0.03138473023032319, 0.12657110724990145, 0.038743994190617935, 0.09109931272837642, 0.12554994493504504, -0.002301349042507578, 0.04220716192427638, 0.020140413413818916, 0.050605139777418394, 0.0751907563029319, 0.07297503484002688, -0.03497272980485688, 0.06557168150994404, -0.009700478334112769, 0.06356491616582204, 0.08268733074665788, -0.012545542134423113, -0.013503730398620363, 0.046122231044741696, 0.058827435488637135, 0.052279370028124245, 0.0975050406504303, -0.02893601972553576, 0.03310149175182447, -0.017005945107062315, 0.07686463481004405, -0.016952947078824294, 0.07204079802632296, 0.03369014358285558, -0.009743280199252993, 0.02200258791250999, -0.07422083133856587, -0.19742751006936266, -0.12587511233014997, -0.1624751340212954, -0.18664414899106782, -0.20031528490727826, -0.15670004233033388, -0.05258064674047341, 0.06435623964716611, 0.06914600996196091, 0.021246462753573746, 0.03407253008884732, -0.00816150567945711, 0.046741426531755254, 0.0022006449423324997, -0.057483585659336575, -0.13270689517114775, -0.17045313157676886, -0.08198900943010701, -0.15317635075220332, -0.2539609747754949, -0.28637412909567617, -0.1512809352666016, -0.04748949382468573, -0.0038945427694110713, 0.06564227489340414, 0.08807320033182635, -0.022654200463632538, 0.00663658708939247, -0.07466898195859892, 0.1120040380604818, 0.11641792116875693, 0.16082974020481458, 0.06356037789939324, -0.07372994359024819, -0.0424485305169336, 0.05865827348989606, 0.05932383304855071, 0.18939483399279416, 0.08684930746361642, -0.023296898222549847, 0.07977805191900829, -0.0038614982166429437, 0.01690089545502558, -0.09993008257526413, -0.05536149861377507, -0.10135049814799446, 0.19943307936650495, 0.14279120601644393, 0.21706582299486707, -0.03752862593518979, -0.07328081144697905, -0.07411419089284733, 0.2659541949368438, 0.27544984483980545, 0.10286514688023049, 0.036380606127592065, 0.08932411554199575, -0.048980525528190336, -0.006560534862098967, -0.032406465616010856, -0.079555943664782, 0.06228243305711436, -0.09009802554739765, -0.2087464988261946, 0.001177848651012713, -0.08684347464619228, -0.1816135327711598, -0.24780563108884235, 0.04555436039366546, -0.11938027715616666, -0.026477451651691727, -0.035420918448121494, -0.048641666208222696, 0.011694647386428253, 0.04742980262336803, -0.06394855083681832, 0.04256361668915597, 0.03669824248242398, 0.02109075250824575, 0.01985571704470722, -0.13698948120571447, -0.032852435905811134, -0.12212301248390721, -0.04020357149477581, -0.06206983138382192, 0.13708201588638247, -0.08156017760581226, -0.06031641927700739, -0.007031234935339391, 0.05454121782649326, 0.049856603983283516, -0.11701193161101435, 0.10060637382628286, -0.00890077572800107, 0.03926054459879634, 0.059225764061095705, 0.002667847062880497, -0.1075824187234705, -0.12462563358464904, -0.20448625616933605, 0.007414512134363981, -0.020500591453614943, 0.05824682652196444, 0.03878542613326041, 0.03387567247186514, 0.03672796013664096, 0.022339492405129106, -0.04822354407694476, 0.010756527638670094, 0.030942252227364218, 0.006166591804806729, 0.013611798794151121, -0.029813430144752587, -0.2345631998530342, -0.29241425417691846, -0.22097482494579612, -0.10002812894401882, -0.04999877757001223, -0.011428867207055143, -0.005656439279543595, 0.04253934983465706, 0.03849518814290471, -0.021668961856441616, -0.10236450260957705, -0.04775420024471506, 0.12214945540408952, 0.027813828600543263, -0.069733077288865, 0.02529393714706884, -0.3418994258491327, -0.3045286027214649, -0.14356730727518657, -0.10992544612440511, -0.13399116512822942, -0.06706523235882043, -0.06790932020262562, 0.021359393459246607, -0.0026490839165209416, -0.04835075425609721, -0.005874474072835525, -0.0783556699443553, -0.028324956865661624, 0.027092123380995772, 0.015918770561316593, -0.12743520626022303, -0.26122937564764914, -0.26878632852523887, -0.14650944807938066, 0.04722624886275508, -0.08690105284578119, -0.019302725592058215, 0.015149428945994558, -0.02604963354482229, -0.031602164809665524, -0.0233900641693094, 0.030362467255022247, -0.0727915321939077, -0.06526107741574397, -0.05350889678578428, 0.036970536849544815, 0.022921576694449282, -0.056163400544931005, -0.14198889873957443, -0.13098706092810103, -0.017683301376247008, -0.019696544288094656, 0.032987160692741116, 0.02080209299465671, 0.02433794514042073, -0.00561150979955346, 0.010451072788482086, -0.03616212751944989, -0.011348175142577598, -0.007416417176819558, -0.06755540401892439, -0.005598129001161589, -0.12146821998870774, -0.04724695662564042, -0.0814589901206115, -0.06606729700933496, -0.08738227130062666, 0.02446431739311825, -0.01744315906887045, -0.04912541430261728, -0.0028377473867464433, -0.023598284682967464, 0.03243297597428016, 0.06674779328279797, 0.04732352855337213, -0.060821616851450856, -0.007011062192667938, -0.08011883711944821, -0.06490887410365213, -0.006084440615459572, -0.0113735715185403, 0.02663366113062829, -0.08120245603030438, 0.025702346012976354, 0.026756210987359207, 0.024626558073323174, 0.0175806533930842, 0.0676839579082715], [-0.019830557577524104, 0.03846882891317658, -0.07488506797018682, 0.04344134422733257, 0.07017762099718788, -0.005747031860686189, 0.06113535295753034, -0.009911612771692528, -0.05701284068305297, 0.025132341667395496, -0.08036095829415726, 0.02361359535331, -0.08700327877525699, 0.03597284680365363, -0.043393517670900675, -0.04270245611421888, 0.009161582057629429, -0.03976459247650664, 0.0022926916394071318, 0.07255259297871082, -0.23405916356991113, -0.16707369093550295, -0.12882706415423356, -0.12637851189352192, -0.07497714941129795, -0.06150462374261038, -0.10946449835831865, 0.017133876697775823, -0.005218215331954114, -0.09910676807756613, -0.08970443106046411, 0.06287164288689288, 0.0012168187413138074, -0.059330528108122005, -0.09929552924304413, -0.24259998033429694, -0.08061142349509284, -0.1854360537072726, -0.04524370887710663, 0.04737683808495669, -0.07977473706018295, -0.2136796498908101, -0.048149882422222526, -0.032245992273466875, 0.10078377180794619, -0.005629984070778499, 0.011024433464117165, -0.04750124702536528, -0.0381062147505443, -0.06291380810018521, -0.12747835573236907, 0.023400728487911332, -0.6020061425436662, -0.05540708691091706, -0.00217511018256283, -0.0008332481473300758, 0.21411125174342244, 0.0775638072459247, 0.03975314768861732, -0.2571657989667667, -0.2456446416050833, 0.11331761784545392, -0.060465163362600584, 0.014661967908550157, -0.04562418602226181, -0.04591138351856859, -0.09520806269312333, -0.40009251284364084, -0.21222111025062118, -0.18194510539012682, 0.9333677425546606, 0.3349229372624322, -0.13778784727287166, 0.2898784603245584, 0.2093828290104116, -0.15250742741711976, 0.07560213774805746, -0.1487777008840248, 0.14930625129041153, 0.036732131816657916, -0.041779279376744166, -0.035335653636180485, -0.18433893705063326, 0.16268388466025607, 0.9647849732937028, -0.3936569547627555, 0.8455122642776588, 0.3069875885587582, -0.6481400765092623, 1.101125598641484, -0.11429319517848692, 0.027852197298910468, 0.5688237411809971, 0.3613432965814755, -0.018810143124239117, 0.004432120838099304, -0.07618117483293504, -0.09987721927440278, -0.1095970499582342, 0.06073419928555355, 0.8672142111436384, -0.6248963257437522, -0.584003938661293, -0.7899666927624984, -1.8734294245862724, -0.46615858933765847, -0.6826043292570467, 0.4924751476066396, 0.9233402988174898, -0.23111425972217223, 0.08098654981982853, 0.17063005412069365, -0.11308191344321716, -0.1463281933075904, -0.1693940998967235, 0.21946045614763346, 0.7133102265151465, -0.07700909343039339, -1.1262401285188692, -0.6698493625937347, -1.3197716320715245, -0.7826873596876656, 0.37083706704463926, 0.3829544983105181, -0.23697757748280224, -0.21206546576477409, -0.014575640086553881, 0.30057561508904906, -0.04684163767484181, -0.03489549759826033, -0.09701880455638764, 0.18147247999408284, 0.30350260371350724, 0.4373089276869452, -0.2732275640493685, -0.009855331967178572, -0.12378979502886134, 0.07662127370231532, 0.19414219381252337, 0.44369923328698, -0.2667566089549938, 0.0751806059629901, 0.09894519763527204, 0.0641958267354606, -0.0512475689019367, -0.19909624429883827, -0.08283392954448107, 0.01970214068804458, 0.18843925888076027, 0.17484078331887012, 0.21307491787438843, 0.3024296849270948, 0.365193276465831, 0.3193283355352138, 0.1482342025818022, 0.12755158874634331, 0.007814441879924755, -0.3454244318364266, 0.014866443069928301, 0.1510818029306731, -0.01739271626485357, -0.11457548158365718, -0.19827661977471525, 0.13246241376795484, 0.23775465547440525, -0.2794972251208369, -0.48916392759736976, -0.31208610817769145, -0.27992733678181747, -0.22035440958378763, -0.43335678012170603, -0.2966647182519632, -0.20886883390240363, -0.28136642391690364, 0.0497976932579637, 0.12563518592298234, -0.1083697558406979, -0.20427606904271647, -0.08308428060916587, 0.12225879402750268, 0.10796277774413164, -0.7231038405762984, -0.5446366170279252, 0.08491500693955989, -0.0016011215376750428, 0.14442548301912958, -0.8951753120726822, -0.46335377908279174, -0.11327928591603441, -0.13099808818307418, -0.08760080723351374, 0.06905683203378232, 0.0979672785183906, -0.012732146139401863, 0.04411594778157443, -0.037994208719070284, 0.00036556000545342, -0.3424456238438331, -0.15654825655650312, 0.2733097667600731, 0.21725346958843975, 0.16842548901920007, -0.06415811018449906, -0.15059717289842608, -0.3668387166040461, -0.27440788167057056, 0.29697805921232207, 0.09033195683250736, 0.0162116127479589, -0.12353319098867738, -0.25448265833596667, 0.07806015978728925, 0.040453708568522276, -0.00902414834748749, -0.09771429076515925, 0.012994082815881347, 0.07114915776531008, -0.06745922786900552, -0.031147100567249477, -0.1687270107272137, -0.2081651908504039, 0.1874747180586135, -0.01215297002288392, 0.06819316315840207, -0.036716607573991186, -0.02388652246151294, 0.0464316656730318, -0.1253936860076269, 0.008438042581008671, -0.07326100554225813, -0.073345417118842, 0.10739335226836483, -0.20767189250408158, -0.18786660028573293, -0.023589139330288368, -0.1155866139004159, 0.13633099864220719, 0.09535955379381245, 0.11349199029856835, -0.046735868729209325, 0.038023384129337534, -0.019629529732740757, 0.05872456522299653, 0.0734119096935434, -0.1254681985476632, -0.05031899287449567, 0.039171711062004885, 0.0932243012280326, 0.016955299732541083, 0.12004404023201802, 0.004867917137678466, 0.24930960229426669, 0.17790171827080592, 0.04010714660706629, -0.012219869179643354, 0.016135596760934734], [0.0022929169751338715, -0.07573926679871885, 0.032366072334676796, -0.0248175302561214, -0.028101206846589937, -0.03010867415240139, 0.03576256148054242, 0.010852934525332784, -0.00014143571906327716, 0.029673644185689036, -0.019024510110353193, 0.031939678015190945, -0.0011950917425564795, 0.0008336430141042772, -0.0673093405182036, 0.01583124205992523, -0.006955942290978944, -0.04582096995672644, -0.0012851277591355791, -0.09077083704263349, 0.06986696732654682, -0.014900610540758374, -0.071392580224078, -0.030019408525328976, 0.013448097863694523, -0.09336356620889405, -0.1254475733946923, -0.1067717723042561, -0.020577368435493414, -0.0033555871268611307, 0.005110558243505469, -0.01808249101572113, -0.03381107371532432, -0.028812111715688652, -0.0003191620804541615, 0.0008413377002569587, -0.0208576169978701, -0.03926223333175555, -0.07358842283534275, -0.08906502053731091, 0.01742216630321643, 0.05993988305004243, -0.06039183283844729, 0.03081549341479721, -0.11511710779494887, -0.08504510805395878, -0.015387993127956516, -0.03581495515555784, -0.02379951551938741, -0.018630059836432317, -0.038583724534368334, 0.013219542132245573, -0.03487668267839277, 0.07393862647649849, 0.11641638815209242, 0.010746134968799274, 0.08815519895557881, 0.06469516287482606, 0.11782394168508425, 0.13682763709230877, 0.10245232415684741, -0.06920871013712267, -0.1190269940318251, -0.02877034722825219, -0.012751106300508618, 0.04807377750469517, -0.05658154881690583, -0.05443375512869116, -0.146121196011186, -0.0349133878713285, -0.24127806151744943, -0.13861959574523097, 0.014268505684619513, 0.010172381345780919, -0.21025023268507162, -0.05011282373691843, -0.12759941474250694, -0.030435132852501365, -0.028459501081034216, -0.01705736958385579, -0.06713677978541355, -0.07582716898847879, 0.03744667468670872, -0.00836233776131105, 0.06876544485546142, 0.10018677243088096, 0.1143397046383672, 0.04200144560024903, 0.14398519919571143, 0.044592269430114816, 0.17129524927932438, 0.09897847968186808, 0.05769238886611681, 0.005060375220382607, -0.005523452457578215, -0.026772684606658825, 0.03168327306061633, 0.013227041542389508, -0.025065445581377542, 0.05108202919487528, -0.2172274477793861, 0.10821133689111548, -0.12647442038360193, -0.021628508739274542, 0.18105994068823833, 0.056352874519309, 0.007055901900148162, 0.038770945124387536, -0.20922492332233802, -0.0250410875177453, -0.0410085600241654, 0.018220833280575215, 0.00618844018404982, -0.0012943870756923852, 0.05383401673543499, 0.03828357472758981, 0.03498231136425028, -0.1926668502415577, 0.00029148718458663596, 0.029987654991587273, -0.0018978324120860824, 0.011121039330769501, -0.014397004009938442, -0.1587503411621198, -0.002161547764512189, 0.09505182402573732, 0.050760664545628886, -0.017399976035843617, 0.011569033950547017, -0.03002582841982971, 0.0725890971814179, 0.01834038201878609, -0.07873644250330794, -0.0829010921408632, 0.07633365559596153, -0.056966864478433375, -0.005175531127076143, -0.01682845669973757, -0.044140343128671586, 0.0034933654259305448, 0.043036398765158065, 0.05800624934473667, -0.0021562778090045863, -0.055349677070451596, -0.053266723840230144, 0.019551798269653094, 0.028018668753128653, 0.00838363310186236, 0.032578379369514056, -0.05632479938628923, 0.016511264154366604, -0.01554709710500296, 0.04014812937925227, -0.06782637519396362, 0.028262563289458552, 0.015129041288000213, -0.016237757963952264, 0.06021814915430816, -0.0385058718608275, -0.013769767109350349, 0.026651133355521172, -0.01534658954775773, 0.06392333642757382, 0.07250448956951648, -0.01696902297964147, 0.06961020494546806, -0.08416923643604562, -0.17120109836392894, -0.16276215200476313, -0.1321312926185494, -0.20994320898924168, -0.07110728245624098, -0.005699857645605148, -0.019058286833920746, -0.0538844167927993, -0.026292254132238707, -0.04506916818893608, -0.003496251301185951, -0.00841709412070671, 0.09753480009759921, -0.01819723468913578, -0.012903038094790886, 0.15605815593086805, 0.2197691000750638, 0.17986213584105842, 0.11200600577460951, 0.20042756831156008, 0.11349051179426055, 0.02936393775635794, 0.02377582485842359, 0.07818917891489352, 0.0013433693626626292, 0.021928775105293164, -0.029334799784649028, -0.003808508999061188, 0.08055779137173087, 0.07717699176368227, 0.06542223690048009, -0.015267106764708771, -0.006935887627018024, -0.015548312983268288, 0.0033513359479533282, -0.031964138440677164, 0.022300254455492722, -0.03932672368436154, -0.05217563426519168, 0.07867604670260543, 0.004772243453705149, 0.03331415770944463, -0.038493100980958705, 0.04126753930975633, -0.03174211712561544, -0.024470674679628785, 0.10399638848931905, 0.025323430402778097, 0.021360901184512258, 0.025475839355322633, -0.027673808825245717, -0.00963563940341984, -0.08766259603200185, 0.01731626260264882, 0.045957213437946655, 0.003280423769740157, -0.06142588214632166, -0.04966501123880231, 0.034574243883639305, -0.01641667339026821, -0.033385120520678935, 0.008942337763584315, -0.005694144398579477, 0.05089916524112467, 0.09579865067355813, 0.013656634006699562, -0.018931493737384616, 0.0989218488414291, 0.057763365437262765, 0.0516253109355452, 0.038085534933192215, -0.01885918137822982, -0.10393939370242412, 0.031048313431477657, -0.06490700761336889, 0.006795561145969088, -0.04596921380645434, 0.0054268767043278, -0.06194339570366693, 0.06934366478026649, -0.018511728995747528, 0.015785224300571596, 0.00013927591609487434, -0.005363558910609919, 0.07261539626104088, -0.028260107410192113, -0.04192407402844288, -0.05592653220421541, 0.004555633510826491], [-0.047073703427059674, 0.007528915265834087, 0.015206473779161903, -0.07417998153417155, -0.009789495769480336, -0.04501838733756369, -0.032347932341190475, 0.021636616242678375, -0.0663037675172174, 0.02207123260483943, 0.038670092224090256, 0.05615618523257452, -0.01614609840713198, -0.053820092900443914, -0.06501793876322019, -0.024540574082485816, 0.023766562787834407, -0.05857087165604988, -0.03230104844816681, 0.04633697369196694, -0.05007846269101984, 0.019757352824156953, 0.013345259007322799, -0.06788063360064478, 0.03893111832506684, -0.06332813415063837, -0.01493361142654551, -0.08344064387495151, 0.012824493917737441, -0.013176770913223314, 0.025327834629979812, 0.009554565795981568, -0.05036388552205787, -0.022102869181623887, 0.017982032520681247, 0.02903584461822743, -0.07041922398019522, -0.05806691011577549, 0.03869821526557927, 0.011277823349408926, -0.004982228123243003, 0.07203364301297442, -0.01910407129280589, -0.03455414704486796, -0.03419689716528988, -0.0701509053193445, -0.0001567315648617901, 0.004029523879460825, 0.005964689001466051, 0.028541612344630422, 0.00903934437166618, 0.04080784714786201, -0.00779254856884831, 0.005630624448508758, 0.03934636809888959, 0.03210604916838501, 0.04368774662736561, -0.006241335938705061, -0.0233958797152534, 0.07110581508252403, 0.05743388579819893, 0.005364992400689735, -0.05915001013526424, -0.018268574337966338, 0.00895305333074478, 0.007061530730559142, 0.05860555803931223, 0.06009999927193627, 0.026962371893830422, -0.08618441864764952, 0.09347847357519759, 0.0033022028871381058, -0.016969872302340313, 0.01849766048616613, 0.07265085601920193, 0.04566178776287587, -0.018302799444518323, -0.08369483138832305, -0.04945660297120077, -0.03249448874788836, -0.06078244273758442, -0.06532805140076078, 0.03248584289308235, 0.017203522356633787, 0.05944316273553779, 0.01565999430052322, 0.0034536847543287607, 0.08402699552827361, -0.08737066706059048, -0.009221729903356107, 0.029381653707121713, -0.01577593271633013, 0.027694173434510486, 0.09187627232481872, -0.023496305613091985, 0.02472522536730089, -0.004265026353665269, -0.0038353943020836513, 0.021928081490708237, 0.03881007314029387, 0.10821746832178322, -0.0843431021675485, -0.021539220030515137, -0.03045834688526615, -0.02714603539637742, -0.1112220125859122, -0.11137578237557202, -0.061475986324210606, 0.05883847987080466, 0.021494859574839188, -0.021729196990410645, 0.031177959650155893, 0.02316752251513735, -0.042908875472054936, 0.027078741476621877, 0.01742404471762716, -0.023193304781903134, 0.1032429515780982, -0.042161452505475566, -0.0061795007349547005, -0.050625202445293505, -0.0737273570238745, -0.05691600847599159, 0.02569035091488657, -0.03318908879732432, 0.03557691829125897, 0.031577755736006144, -0.056978468677398884, 0.03223331688618789, -0.02197688095698876, -0.04140484159074628, 0.02859745094789108, 0.0026869909836074826, -0.03658627665114093, -0.014257690887850376, -0.013454141479019648, -0.0036613445359188704, 0.009191442314385031, -0.016256602614747973, -0.022851664165871206, -0.06610002699285276, 0.004028634841111811, 0.04426123170368021, -0.025025738396652758, -0.008959121912508038, -0.046442482111978114, 0.03020938763323668, -0.03946099017547964, -0.013435339567356154, -0.020460597956759297, -0.03486969850670332, 0.05805367820376317, 0.053615811078853805, 0.016865283583183326, 0.05543969027149779, 0.020341493976148203, -0.02742673532818383, -0.02054611949542334, -0.026918107453099357, 0.0222070304748632, -0.032200761064291976, -0.04330663295655393, -0.012993052995044706, -0.005706128358244161, 0.040708435596834916, -0.061316921669208393, 0.057920925231132805, 0.07664287300051913, 0.07892266295534148, -0.03540585792633707, 0.01707266093638819, -0.04990348194553338, 0.04073012742222728, -0.022297301466979565, 0.010137175149172084, -0.06136352442177615, -0.043602334518003195, 0.006650071323026032, -0.021594611325663825, 0.013918401061498623, -0.008475407949089889, -0.04421544793689408, -0.05534126769245705, 0.03334138749151344, -0.04025134044752457, 0.04518259509733471, 0.01548303783555756, -0.06660727359839175, -0.059566811325886815, -0.004283161733470522, -0.03394732039867074, -0.024977698125014984, 0.03053513678643105, 0.06473152976908943, 0.07164827537684793, -0.07229223621420652, 0.009760067879163337, 0.019935068324923196, -0.012320462204789459, -0.05567065297035234, 0.0026197270100710808, -0.037349503927962636, -0.009550545491781947, -0.10212241470740144, 0.0663835000356473, 0.020441070964361173, -0.05790811628957316, 0.05948529272074814, 0.04488975395982455, -0.010925933147982623, 0.023587180016663854, -0.011683786889192993, 0.04926964682708413, -0.057750552911399, -0.04346667108526275, -0.042326729874000046, 0.0356730830076551, -0.050182584391982574, 0.018469590626586378, 0.001277205890667317, 0.04917100693828896, -0.040365946511500626, -0.03432690966923798, -0.030358941793360676, 0.02396325919056963, 0.01100140794093324, 0.03655281772290637, -0.01389756356115245, -0.025421216342096493, -0.06056968076831879, -0.046906202474726544, 0.015088319270092824, 0.013102285855120296, -0.044123534798278394, -0.04939442437313513, -0.020111260749187433, -0.023176984963256146, -0.0013052844252360513, 0.06614921946091452, -0.03801208619909814, -0.03423418833463443, -0.042366687154611185, -0.057852380918430216, -0.0300255248590175, 0.041035997742557825, 0.049650373484840436, 0.0295064093633183, -0.05800233151728734, 0.027866283744170762, -0.029266621988933938, -0.04823925140375259, -0.033889132691251114, -0.011423132757360711, 0.012551684789562385, 0.024070789318220123, -0.03807421227197272], [0.06854487935518543, -0.07426508026995689, -0.003198578721112593, -0.048763855848136285, 0.008384784000404353, -0.05533084296285385, -0.004951446994454435, 0.01760480446361792, -0.05403471682554307, -0.08030656441866162, 0.021247103246756282, 0.05924004382740418, -0.038718300292624616, 0.019923768503653138, -0.030894980036908916, -0.0007662283248458962, 0.008128397052768705, 0.014744182195248805, -0.026035904535664307, 0.003726226414141148, -0.0631443064906883, -0.12928810305393812, -0.0027662056669831717, -0.053785778095463095, -0.07391783625095628, -0.0008905416342653743, 0.006638301483189968, -0.08900526313463283, -0.03496774035809977, -0.010549630236208246, -0.04287534786258979, -0.0148187217247799, 0.014307266222042524, -0.03741000160858194, -0.10385036973082276, -0.006330302859161009, -0.03856524806554506, 0.07991696042219107, 0.12490744627780309, 0.08024900058827086, 0.2715557692454798, 0.05645856591068051, 0.1654763275242997, 0.0739178704474963, -0.05483366041862207, -0.027757051168865836, 0.02195852551679508, -0.04904311732094187, -0.045960158904866405, -0.05647079547159953, -0.042543985708195745, 0.12334448960502326, 0.08013915687487444, 0.22084821545723277, 0.17803001228499743, 0.1045603279924433, 0.031756168107089776, 0.1161360032473212, 0.1601237524363844, 0.19884671302543197, 0.08968207494683204, 0.13372314126496415, 0.014470953721362695, 0.0025241849078150207, -0.048650804536504486, 0.013229822933715092, 0.024535388136409562, 0.09359227506754311, -0.09169675263735301, -0.24648208600831903, -0.12622824460593252, -0.028520313997619524, -0.07358341964313042, -0.05485394509985236, -0.10232154105738923, -0.2515627749404917, 0.02775250221601734, 0.03535257566448824, 0.11426136339556454, 0.08743039668322812, -0.05702220697530761, 0.09146276439790478, -0.01092538478627392, 0.08219419695184668, 0.11098966072072874, 0.15127937016471676, 0.42807619831518534, 0.30272020745215916, -0.017666717950374947, 0.2833864666060806, 0.36047259175617596, 0.18161345396952305, 0.10600791723297855, 0.03150785655821845, 0.01975594258078194, 0.09394807623824071, 0.025660086430855593, 0.06579422164946339, -0.042685585000412724, 0.05117935597618892, 0.05081549600313, -0.2875568949041993, -0.392894384365292, -0.285411733677431, -0.09494514285334452, -0.3823454560350743, -0.40517412401793085, -0.3522223045714847, 0.0565738839088322, -0.019657446573329275, -0.04205017010296819, 0.02597050709870227, 0.042952477874833694, 0.11113093836049119, 0.06243758201463851, -0.03108369607945624, 0.3539948769671177, 0.015207822423053042, 0.04612515218152922, -0.07731671705175885, -0.06058317506811069, 0.003997214024237404, 0.167604315573025, 0.028852470243574197, 0.028351822682645977, 0.044545111732744176, -0.05119720439353884, 0.03195234270886208, -0.042404910065734575, -0.003305036499189274, 0.05247693275515076, -0.009240065983192417, 0.08685299860704238, 0.33572094065886626, -0.11373886877164646, 0.20068570506469055, 0.11360736361852107, 0.13566031991544514, -0.009396547244561909, 0.04656553646700401, -0.05448261993467236, -0.12328257763762615, -0.055435941507004295, 0.08984766894836968, -0.027948236433300706, 0.051915448215670096, 0.03643490841998581, 0.008059762250865929, -0.019375588639260675, 0.017767569270155197, 0.1556967952844783, 0.1226657387000214, 0.18795473517206213, 0.24936017424489426, 0.10864833835347995, -0.11534724654681472, -0.08703261044400176, -0.05754014897888885, -0.10099338792186296, 0.09032563870109883, -0.024274726137854863, 0.1099222257363224, -0.02059134744352983, -0.07645119021650285, -0.144803096315541, 0.0623481046213861, 0.20877582833450573, 0.4621300416844311, 0.509403781121176, 0.3953309600660395, 0.14335223086974258, -0.07661497063167473, -0.17488591111176102, -0.1523015223114319, -0.0820611044803205, 0.056372711280641516, 0.052465020718829046, 0.09463089671116405, 0.08886906654423592, -0.09157826721422777, -0.07789836596780153, 0.06365446050641088, -0.050102627703668516, 0.07868124656059829, 0.13930121646692667, 0.07049145036387443, -0.08790277254996207, -0.10887839735400148, -0.22194936458327189, -0.049897735788574114, 0.05458714698805473, 0.04296279048080284, 0.0694080987991096, 0.001575789645941151, -0.0177251250683096, -0.018182533377530594, -0.02442303131624605, -0.06261850061225611, -0.23797446866221827, -0.11059179067015909, 0.007957287107402447, -0.07792936731410327, 0.009054330467373597, -0.08909181477938209, -0.0296735377535981, -0.05609233245656455, 0.10247274491662872, 0.03132998707087579, -0.07874365893608064, -0.01517253168178504, -0.021872642551572372, 0.05027927328325372, 0.01613677478954011, 0.002810180512585728, -0.23309533485817527, -0.5474721732566423, -0.5624997437758668, -0.45382556371250105, -0.24235815442983516, 0.010225805720176853, -0.06838384869651488, 0.046033283893861326, 0.028595093408958248, -0.0155883902095308, 0.0064536836836277724, 0.02254648571028317, 0.058027716977449066, -0.01217527970067808, 0.013796884767223197, -0.08014215350598805, -0.08576078756318656, 0.056774490919662156, -0.009288691769323662, -0.04176325657549868, -0.03071069114095826, -0.056631378301407145, 0.03377604640091429, 0.06565951993623735, 0.06822109241005002, 0.034792616824093514, -0.021866922563152306, -0.017266051611526334, -0.021656363169871653, 0.08107667543953509, 0.03370326847316257, 0.004927650744222008, -0.058306255697473344, 0.026777043630736654, -0.06949599476143527, -0.06553039071792735, -0.015419147184605162, 0.04269130115391752, 0.14183801165137308, 0.09017297875146324, -0.0029915257991455814, 0.011877341188084953], [0.05373790792598052, -0.004666370365361482, 0.015424476967758689, 0.04617105161296306, 0.0012103045282702946, 0.050600703762143685, 0.012490732411256618, -0.04248338177348808, 0.05387580928926284, 0.04502803656088841, 0.0016955026774219768, 0.06531113150367229, 0.05152311053185454, 0.028567036381461713, 0.015700343652381276, -0.05215761535068391, 0.04510387513969873, -0.036962127831926726, 0.05960772114671527, 0.06540955826667104, 0.03257580683250411, -0.04638119273149171, -0.02037647852194446, 0.05627110390342507, -0.0018680977507716018, 0.05176887047759587, 0.024948687664289225, 0.0469530958425801, -0.019822648368464122, 0.05955943338686143, 0.056036137634918305, -0.045202790314059965, -0.012351129954449588, -0.017758935928488657, -0.03499385569999622, -0.037342902920406575, 0.044718663470467754, 0.0692657807865878, 0.061685609302381816, 0.042379468085106016, 0.02343080697396595, 0.014902150651612366, 0.02049978402995186, -0.06108927885852956, 0.005934097426224189, 0.02546947130353556, 0.07062063482753828, 0.07200211564262962, 0.004317721632385661, -0.06446858064513951, -0.03241131176785532, 0.05097568663941308, -0.027426028045414604, 0.006738675108077996, 0.004814706709014078, -0.008769873231571553, 0.04997178948861017, -0.04830003658763839, 0.00756677211264202, -0.014965034502135394, 0.005954094734847589, 0.03637571392437085, -0.032118362209140314, 0.05925815750268949, -0.017379073342510834, -0.018670162780745632, 0.07642464530945946, 0.030422861310011384, -0.049545095331664325, -0.15136476564240578, 0.13344326024668512, 0.06406795011643915, -0.046109563627269666, -0.009213498869143225, 0.09600017240869628, -0.15755797822157988, 0.10983004703986758, -0.06744557259499034, 0.07130801598958304, 0.014844034182193551, 0.028113828277439978, 0.0010915393323667102, -0.019535817029382258, -0.009265551631258537, 0.06419257600627644, -0.10332261448685905, 0.148892011123226, 0.08346703598475205, -0.03036716094563397, 0.18751404270801533, 0.1525234747061704, -0.1677109295778549, 0.05538340563811452, 0.006267337381610244, -0.01936284742919859, -0.03415678350424127, 0.03494393588827885, 0.04386217847353987, -0.04390470985132637, -0.03493501831778081, 0.1929842223329153, 0.11489549352362301, -0.13332711599128202, 0.05275816772720311, -0.28218960281888317, 0.010966941404233823, -0.13690679737288075, 0.19524976480500156, 0.31591559888392917, 0.039415101618969633, -0.0718361461874676, -0.04307213586468777, -0.01362593760663333, 0.013969845434979646, -0.029114612399302457, 0.06383276450433285, 0.21536476636701277, -0.10300483405430659, -0.1807502731122753, -0.08758502480889901, -0.26031127451186975, -0.14973144097909002, -0.03191434374340525, 0.012981839003501354, 0.05153300206813641, -0.05026696440712182, 0.028456987749657416, 0.07255014931046352, 0.008974083262195088, 0.024501024276013347, -0.04994650215262927, 0.02180861161087545, 0.004390689677161388, 0.2195928424714739, -0.060110979157775545, -0.05683589349031988, -0.031158960929977154, 0.034660721490910984, 0.028310480097296038, 0.10442346230447706, -0.12017020901689147, 0.0525609878415014, -0.03543037991989532, 0.07347459980735215, 0.006745287810496055, -0.028038390893396836, 0.03483255864449835, -0.03407702884772722, -0.03487986222969819, 0.0068507780000656065, 0.06386693669840048, 0.11597230995293224, 0.06954529048039283, 0.022654604302825787, 0.03737397676682734, 0.016707815681293595, 0.06972966966175165, -0.04879833509245487, -0.01942452676060212, 0.02547320217705856, -0.027900101816064535, -0.055297828845489234, -0.03790982787310238, 0.05789931644196755, 0.005034339651555747, -0.012533015925184469, -0.00964773045449369, 0.10688788935708247, 0.14638671957164176, 0.07725416311530346, -0.0314478774630534, 0.05011967659535138, 0.02625928892150755, 0.01391516889689456, 0.01360423356057491, 0.03207801841858933, 0.030662570581848857, 0.009511619015643707, 0.02776246987478945, 0.048678980355749746, 0.06979931921153842, -0.021611908630258927, 0.03203197667144056, 0.010466347706783464, 0.01219729568110147, 0.08406670741086918, -0.04855062241004576, -0.13092142578469196, 0.024228542849058485, -0.058133235907816265, -0.011696478545574117, 0.0492561908768115, 0.06538397745488918, -0.01155245023804615, 0.006766313505440701, 0.09495726933487399, 0.04212611634608255, -0.06309588225359024, -0.20986238702722462, -0.16044220450198438, -0.16904713747700822, -0.16768334665115353, -0.01776591154234946, 0.04020175977049471, -0.08090587649118579, -0.052213602962709015, -0.010033089055747882, -0.005927936463598133, -0.008999812156113673, 0.036015866068345906, -0.07067970442313186, 0.046073183402364826, 0.037141575830496855, -0.005347637504660496, -0.04968015327409491, -0.07765108245499047, -0.07817120423551972, -0.015631932589400918, -0.028816538048782366, 0.026637716145514162, -0.13451746051298158, 0.059617866541741484, 0.024243112229958574, 0.06350118927118577, -0.010501021174184444, -0.014317353642971951, -0.05704771215009191, 0.02670912285076171, -0.0351578476283775, -0.04235366622328877, -0.04580153701715617, 0.03046462413854817, 0.011807135396464167, -0.04855658634718665, -0.045664411195419446, -0.025808010682154298, 0.044820845621673815, 0.02917470232899505, 0.04562802545559827, -0.02590460797868591, 0.030239171840129014, -0.056564556847114714, -0.014528400803226897, 0.04425438309560895, -0.06205840425684713, 0.016114703718056848, -0.006737508909165768, 0.028303650830449664, -0.06143375266931321, -0.006106845784837827, 0.003195325486714659, 0.0243224142431121, 0.09974427169069586, 0.013130106948606522, -0.042221475004590316, -0.03742208584177261], [-0.004626505193064609, -0.06988585933063492, -0.014237144063111945, 0.02451460957370991, -0.09446143571084896, -0.026217737952766374, -0.019428535156841824, -0.10172168432431924, -0.01887238067832824, -0.08495205580500438, -0.10172339808428507, -0.042511294786191436, 0.009071579684056528, -0.05195212854986411, 0.032563453308485646, -0.02785645337092925, -0.040389556282314366, 0.029338876660189583, -0.0009238663028420481, -0.09748896598718575, 0.018554962435556786, 0.029532815223234754, -0.032449460727767596, 0.04859779086920395, -0.020291516271119397, -0.055748167797900164, 0.041805222229329746, -0.0023034099108416514, -0.04615306135593205, -0.06091058097815001, 0.018977080697199916, -0.04321881677599134, 0.01163813609743994, -0.011776715640312166, -0.12156656279423846, -0.05306277818674436, 0.03075088869440888, -0.007824778083528529, 0.13036706996024547, 0.015427312874292528, 0.10760502128880026, 0.013594265483748987, 0.12907806558285104, 0.05683515272992634, -0.039581015523372585, -0.10134220379676694, 0.027402706028062798, -0.005824900592555339, -0.026458617201745367, -0.027012529076905146, -0.022520100343611286, -0.01377832009470571, 0.04714479426536237, 0.031465822781783045, -0.1048825997205072, 0.024255639142131368, -0.040329060619085824, -0.041767940755602265, 0.0035574240545671798, 0.025701295079904565, 0.09976209475451521, -0.054870676553132394, -0.00018026930413165995, -0.03387556863789251, -0.07942923609641966, -0.04720133071509317, -0.00239480744799468, -0.06552467104414571, -0.30067346379641513, -0.10612845266646356, -0.3867795902231452, -0.10981122765917505, -0.11330972762559838, -0.29645383607195275, -0.12522228265406785, -0.18809351553118925, -0.05425617813648486, 0.04697981309363857, -0.05549326516312784, 0.006719330104106507, 0.0245729089457359, 0.04387806390934348, 0.05632692036778877, -0.055989165953640466, 0.030103872580996567, 0.34902021425690116, 0.0382272754389002, -0.1489722118699493, 0.08693555135901511, -0.17793258665480097, 0.34492244127216665, 0.15881146272583105, -0.03835060101976376, 0.05626743862635186, -0.06053495591564488, -0.05162160494208709, -0.048120785871409985, 0.026003147292009674, -0.043604288050062556, -0.11821876622382918, 0.006896805441079629, -0.07289475564386518, -0.09143798536959315, -0.01719818198737311, 0.2543962078632329, -0.25851750664701934, -0.13353274379706923, -0.080647917929261, 0.1213545799784521, 0.01479662585463864, -0.06856854730117766, 0.072587994266252, -0.06768939075472401, -0.01095441935803145, 0.03692902248358449, -0.023602413709816757, 0.2966789604833158, 0.30757320547330025, 0.320693132555134, 0.13425378423955722, 0.20869671641357584, 0.04901072155552143, 0.444471947624076, 0.07287207150625649, 0.20234053056724363, 0.02148590815450323, 0.01186228903582964, 0.05425016672914707, 0.006038531153343136, 0.016448084822809756, -0.06345349452505422, 0.059188654423210675, 0.02815887247714816, 0.12940567536305542, 0.18035486587040464, 0.14566269870522686, 0.3115175804905128, 0.005195430014939663, -0.02138840538599425, 0.1268901380678734, -0.017877736587060874, -0.1015113627872683, -0.10956802730826026, 0.01573261880597138, 0.01117216382004172, 0.0020252046585062834, 0.020277652687565713, 0.06557191881999296, 0.020737722021951403, -0.00476646308278803, 0.06858379921685215, 0.0766051356536385, 0.11426526916222465, 0.11160025540314454, -0.04457799260918196, -0.06878338542544893, -0.09747430456457105, -0.09508463812734426, -0.0489914060112197, 0.06007968876750454, 0.012264148956184013, -0.004449146628128989, 0.0649745181843212, -0.06575090963312305, 0.05549372970035857, -0.009698758062015443, 0.11133774070703854, 0.07803769788523635, 0.2801766568220015, 0.15876957272191144, 0.09736511728055786, -0.07468934520483164, -0.03397762430819345, -0.12992195394244802, -0.04535780862545814, 0.05438284039140203, -0.0016712664674078711, -0.06391674406284212, -0.055896157865974294, 0.0812144686763036, 0.06681020366514288, 0.19597133064272776, 0.025122935826428286, -0.40605987610967403, -0.2793494567562387, -0.26410454854462273, 0.04545901458002384, 0.035574088959627354, -0.07756997092103614, -0.18178478237078433, 0.0031741771698777428, 0.08815772658369123, 0.007480238717638559, -0.048528517488961545, -0.1102542882686931, -0.0420799705932197, 0.07720776255621344, 0.1211154885183629, -0.3344945011033789, -0.6082857145247836, -0.5918562494678622, -0.5459564508746462, 0.14207746090820653, 0.06595611407262866, -0.10887051907445203, -0.04874192142479075, 0.08926711056739994, 0.016136189421119943, 0.010023401201610374, -0.03674469788156424, -0.05786337102896071, -0.048834683521187056, 0.04572225227004774, -0.02151894415229662, -0.25456612803346707, -0.5585619371952253, -0.6312750822915218, -0.567074554479212, -0.28987839017756395, -0.05130852567011827, -0.025430550043969186, 0.004191488716409339, 0.04981406760152462, -0.037800769780170974, 0.040804848214692144, -0.00379247628537773, 0.01003632913047739, 0.0171239099621193, -0.028497248631901537, -0.12928579114174782, -0.049540351377934354, 0.02228164690794914, 0.016322402347193073, -0.11435464624178518, -0.007438955894189511, -0.02623669400494674, 0.09874066719599736, 0.11002948907496489, -0.01509632820192033, -0.027786847581924606, 0.0017905170449433747, -0.05516670153432626, 0.044929988240733625, 0.057505326221086554, -0.01650185098562925, -0.04511465916688144, 0.042806775751020334, -0.061225811617963935, -0.028727908566011782, 0.044342113754235406, -0.050019375670503824, 0.0030337948093642412, 0.06502167102432738, 0.04881178881807707, -0.021083742665331695, -0.02797780360665849], [0.0499142449176706, 0.04213739460730031, 0.023286226736267783, -0.03715095604452822, 0.048998433646112075, 0.04988157440505521, -0.014601173061097065, -0.055065213019129484, -0.020376119609177817, 0.016438172936780307, 0.021796242421908568, -0.03509395423430046, 0.015487513213868587, 0.03536312057937635, 0.01633721943666885, 0.04483864585028666, 0.007390922273039539, -0.04720518962577683, 0.006749963939835323, -0.035208778725602054, -0.032414827216098965, 0.009701027615176846, 0.04817123992868583, 0.006266165780791428, 0.045008402481134066, -0.012024048787631426, 0.01294719996849841, -0.03080684713138318, -0.056946216358059326, -0.02835345106401608, -0.012621909446203183, -0.00041975088348472563, 0.011916104398786055, -0.019745684809149917, 0.020976410784167607, 0.031230337542586962, -0.030038247378165385, 0.04732916667796049, 0.047830282052862605, 0.014010303024931081, -0.05003867443177397, -0.035819526422006115, 0.029626010233118446, -0.037949002563655104, 0.02621095897154658, -0.05169179701859882, -0.03570268023095633, -0.04009786304255226, 0.03337390718522274, 0.015327854480100317, -0.03840374484350286, 0.028279811713566635, -0.0410253043119472, 0.04986257304629798, -0.03893036282683307, 0.048642324949931405, 0.03361517140163018, 0.05298711034480067, 0.042171163871964956, 0.017175756648156557, -0.032358516750829625, 0.03090185252483173, 0.03229807939633714, -0.03559735226386875, 0.01120928250931952, 0.04186134177120001, -0.017166202508910818, 0.0675022232196786, 0.06850563163312999, -0.027021239628547505, -0.003220488910900553, -0.07078743530521582, -0.04060236306373233, 0.005346426263266716, 0.03742124225549527, 0.04519949915931187, 0.044788647159518705, 0.05151272261332644, 0.021046776200996983, 0.01364039228640734, 0.022214958510034362, 0.002839365382693453, 0.017303726160282414, 0.04154527256834044, 0.05995005276536933, -0.024471211764943136, -0.0496665142285806, 0.013799680617317641, -0.04848464595912983, -0.053317692822481555, 0.006292198201838123, -0.02044256881979633, -0.004881215101949644, 0.01197658983633792, -0.04501444795185227, 0.005348537662247085, -0.039570770740279586, -0.023897945854749067, 0.0344658208129498, -0.04165935643724054, -0.062514817188773, -0.02277092399733688, -0.07421293359836884, 0.056186396302219964, 0.010148661840909574, 0.010065825195060519, -0.01388590729452554, -0.009652017779607433, -0.018304044250955886, 0.04354573430700781, -0.02388087504733147, -0.04033121232847284, -0.04932914561089103, -0.05693191605566904, 0.011551569649024884, -0.008858427098757926, -0.004914776653695981, -0.0699254567030963, -0.03702441914175375, -0.045664860365073716, -0.029683933718803342, -0.01561242189756584, -0.05634404323193559, 0.021514913079585106, 0.003071964866304323, 0.06673046007799785, 0.039167912613597804, 0.05496321146477159, -0.07118393583633867, 0.017242621376825074, -0.007302298794396436, 0.04592793510834861, 0.003442531217800212, 0.006785901392094102, 0.04755987013959913, 0.013520604851245512, -0.03180053189958459, 0.04312226931790118, 0.04788828546584219, -0.0233947092075652, -0.0076366364399482745, -0.030154052370973013, 0.04965740120944863, 0.03428723208241704, -0.02529809988621315, 0.03389756751936693, 0.0028715558412790573, -0.06037755634045554, 0.040367445982023846, -0.04956655266118317, -0.006761673405385536, 0.04647130636035161, -0.051445557524201914, 0.047359482524568904, -0.005182186950173826, -0.0710440719175358, -0.057838504695740214, 0.02547678105606116, 0.03182621148621009, 0.03582250708833442, -0.019126014224682356, -0.05202736156031948, 0.013685231954363518, 0.028128285341833727, 0.048654179816006074, 0.0314979294627068, 0.015283288149732063, 0.0520336884447502, 0.028112541170104633, -0.04589138652534034, -0.014609585856206425, -0.030841910377926406, -0.05518487624206641, -0.052305708478808825, 0.034163484403727074, 0.001841985348721755, 3.857943918649323e-05, -0.03449296492339226, -0.021326858825341893, -0.014555673166490549, 0.009643403240648225, -0.009505494222135804, -0.06687236432999003, 0.014540168180625923, -0.0024953104326102035, 0.014841659470038206, 0.017182341863008627, 0.020123297702001886, 0.008198175300848915, 0.03144362777289938, -0.05492904060460761, 0.0477368527315567, -0.05842894064143914, 0.02653839479796496, -0.02163270560284723, -0.042945662837635006, 0.028389341625240243, -0.015609653696134203, -0.020907829598340862, 0.02180738736899513, -0.004475458323485618, 0.0034319704584248813, -0.05005496302132933, -0.009678097774919675, 0.044222327209692325, 0.003925694070084107, 0.04783482320528267, -0.049252456716952706, 0.012505832478142714, 0.04242883803846217, 0.028161585612160287, 0.03164806094741473, -0.006969576159749071, 0.06078576158190356, 0.011426123675289572, -0.0009744832749690325, -0.053469356228008635, -0.060161185789294296, 0.013732884041817354, 0.01175517232450354, 0.05443691520994589, -0.03384129108181481, 0.025605667693169094, 0.045314827064300685, -0.028584786426750622, -0.02077870782004268, 0.008804220936998492, -0.0030232676179224446, -0.03874376425064313, -0.02342196390032535, 0.048819058960155655, -0.0311670388479936, -0.032615801739424556, 0.04407754077460584, 0.05109502210190512, 0.04228795028877562, 0.045028120251264764, 0.05640292854848821, -0.009816397773422523, 0.0006157584366338832, -0.03569626760866524, -0.06367829294785342, -0.0592090938985091, 0.01896772547542938, -0.0069153483547823025, -0.02631685454884157, -0.05154354222747538, 0.014992247003957002, -0.05594702707771356, 0.0054295988151920535, 0.04509360618192023, -0.027575361982140417, -0.011750784815497626, 0.009731846611375897, -0.03038218191371359, 0.0010483053060695111], [0.008111342101346286, -0.016699387137489315, -0.02384394474533618, -0.009067602909510725, -0.06363841763086188, -0.03276785238795317, -0.04043272765717137, 0.023702872226068605, -0.012997202715980252, 0.03756876524715172, -0.05166008958181949, 0.02263483887470076, 0.042899213164055434, -0.005355322269539648, -0.01812272449454956, -0.024636720105717932, 0.0056013012374973034, -0.04137824117780411, 0.013100091352912213, 0.041662696053419206, 0.03870590284157509, -0.05325953664135848, 0.005400119030851539, -0.029335868708754546, 0.05049775568683853, -0.048215021381047586, -0.051802542560345916, -0.05953438001167471, 0.0035968896851478714, -0.06549157123401861, 0.006014400305013931, -0.011887386608421202, 0.010414849648250736, 0.051105037142145864, 0.005278379834109929, 0.0001402608791307146, 0.06314543485958478, -0.0010696950386682236, 0.04035783620258271, -0.01034880514687596, -0.02636512152602977, 0.03136571990272619, 0.03490078681715406, -0.020625284040266714, 0.0005787151519107382, 0.004130039787370506, -0.009437051421770913, -0.004753157438035869, 0.01986606800096358, 0.0434062201605987, 0.03706341364687038, 0.014529645409596172, -0.04966815927839166, 0.005864589146335169, -0.010395048967286566, -0.04307265957865053, 0.0557255177626635, 0.01912577412389701, 0.054851728792227265, 0.025614615881501566, -0.015661243725143267, -0.01723054251079278, -0.032605311384067345, 0.002042409215756341, -0.05582626419375571, -0.01679929243041209, -0.06547203159798029, -0.03518111131519293, 0.07381297188885068, -0.023557449250716952, 0.008914790488204634, -0.00471498492081695, -0.05680659624753494, 0.06287633340215797, -0.011952929484073295, 0.023832090127539386, 0.009906796387591224, 0.03622643712078939, 0.04649364325013869, -0.026194000125905687, 0.005618666141625334, -0.042219830165206286, 0.019309705533573224, -0.015632379682283908, 0.021388763539364208, 0.05146761616831823, -0.004020098292457929, -0.010994052215602151, 0.03801859416042133, -0.0005235805706273997, -0.0365156820041326, 0.05242051742910674, 0.012378429972918315, 0.008501989347034581, 0.008759799694124909, 0.002840930490533671, -0.046130386864725904, -0.04223883046682203, -0.05177640073951304, 0.018327278627512537, -0.02764650012197239, -0.04220520902415408, -0.015104546644456335, 0.023247874626456545, -0.06252623699310446, -0.04149213305264007, 0.045366682689239, 0.024770492515807235, 0.00346835356018395, -0.008323700877871303, -0.04047358255077233, -0.039732418455764154, 0.041430233564701144, -0.06092067968988978, -0.054762999982148224, 0.01833990637558046, -0.042931241758132566, 0.024601299727527916, -0.06127269274337869, 0.008654164651441445, -0.05712852861018797, -0.03074008668905411, -0.041105983510693105, 0.0648829983384123, 0.008278679215008895, 0.006962499226628634, -0.06377141256133753, 0.03509358301116973, 0.01948893577603879, -0.028459787964746592, -0.05100945104145271, -0.012754555469475189, 0.06147139604798151, 0.04578280420420954, -0.042109585360230024, 0.04040994267776886, 0.011665068909547485, 0.03572107019856623, 0.03866149540169386, -0.03971375303246296, 0.021460630541937066, -0.03247319807663655, 0.024110827516235597, -0.02569282749663228, -0.005740363779160701, 0.009827600671953795, -0.032610641346118595, -0.011103068156179695, -0.047176285379067553, -0.033335308483347155, 0.04444115804755087, -0.003088235879413127, -0.014257175349945502, -0.04681038234277901, -0.05317348990829239, -0.0054725413085053, 0.015446215390693347, -0.05769626460880969, 0.03135846643719527, 0.0035105125214192384, -0.04798856520879499, -0.003322273560261185, -0.045045646577064245, 0.014586736253026318, 0.04327178971220534, 0.03946063439985757, 0.017967594167720057, -0.0010547596798094589, -0.020854560955493713, -0.03603502775645462, -0.07746343892232993, -0.01281464007214538, -0.03628326451730451, 0.036750161693171614, 0.034330856432527486, -0.011684206084104674, 0.010555490178481687, 0.02951384462664025, 0.04006133219312463, 0.02532610595855499, -0.05740332489022034, -0.04470183240079949, 0.005105468274703245, -0.03149364949071333, 0.045637705974927105, -0.02481095548239175, 0.05144706266640253, -0.016770180988100063, -0.04119568714560609, 0.023745171287380955, 0.03016616436976285, 0.014457658085196473, -0.04792465507383887, -0.0621472413589057, 0.017436388619815304, 0.02639314170931509, -0.02228891319038905, -0.023245644696442993, -0.03773522952724227, 0.03286401971025733, -0.013220697673093121, 0.05882468722389877, -0.004031640601194177, -0.01040208190593897, -0.031909609969028446, 0.016789511877541515, 0.03505594462804749, -0.006133392297768481, 0.035640102081242526, -0.0032602559649368766, -0.01586234881853393, 0.014018195977882602, -0.027812055453992075, -0.023884483631173965, -0.027682888328856684, 0.014929243338486985, 0.019451915976596082, 0.04862174651841474, 0.008900157729606166, 0.02128207201358143, -0.012766225201704447, 0.027641145561736448, -0.038453637431121165, -0.02732878089035732, -0.012738875223160074, -0.02113655250011478, 0.005947076222282005, 0.02351609202538322, 0.034202231154244735, -0.0348384424886671, 0.06080639649774988, -0.05942880894304605, -0.048086159874839045, -0.05019872372328991, 0.05611931088001974, -0.004644837586777487, -0.050333263586204116, -0.0270771399835727, -0.044480556296362286, -0.058767071476245186, -0.016150628591555263, 0.06022724656811695, 0.014223566364530225, 0.0023278054048722343, 0.025938735007405612, 0.012003287445492155, 0.06341783902117601, 0.04930887773257799, 0.025996704353057794, 0.0002252637824864965, -0.028586334240112424, 0.02784002496061905, 0.04676918129832384, -0.02668058012822867, -0.05891563150576663, 0.012864566613002852], [0.003971942486048425, -0.032349152699586256, -0.04069435568952941, -0.05698737779375035, -0.032557378171015165, -0.06200115782537438, -0.040293915002621715, 0.0630292473969969, 0.03550830211422168, -0.012747821678410192, -0.011008204538291419, 0.012224972272364869, 0.004240235938580102, 0.03068368073944063, -0.05581566760508224, -0.049517044187005047, -0.02418871985808507, 0.04462803406059912, 0.052740276406131874, -0.01800774520457515, 0.05589587069857015, -0.025997271593890217, 0.01541645613803112, -0.03638460346257607, 0.057254205829280445, 0.008770778619173565, -0.02707631233308899, -0.010566783705698269, -0.0444401375097077, -0.05148785264222871, -0.020361585106192927, 0.059048048983056885, 0.03886689987672142, 0.05657103799320199, 0.046665743386934466, 0.04162382115543319, 0.013462017813203036, 0.02511143406746797, 0.0510984221105187, 0.0005786916386162459, 0.024048362133942392, 0.02426430514796848, 0.050266697091646544, -0.019719760459134632, -0.012999059379523987, 0.0136406049352285, -0.06277048010945323, -0.04348484253448244, -0.051221377121127246, 0.017743908812125894, 0.06149799688695553, 0.02353544382804238, -0.042306568728843544, -0.023688780696434517, 0.05461633126563545, -0.0008710382298762711, -0.0535585089919328, 0.048323783515252794, -0.03445124586322339, -0.047513051762121984, 0.0048729735436056215, 0.03080447854944433, -0.059848901684267194, 0.04844883612449773, -0.0017773652864149392, -0.01806594333320306, 0.0586996910520688, -0.03527942549248753, 0.044707298895135604, -0.0330999656532616, 0.06595892688072133, 0.008444083266699967, -0.035614674729870954, 0.03371103362140352, 0.05399688291037802, -0.027980979044057067, -0.056405662343627254, -0.05665539645288364, 0.004452481801363984, -0.05152386068635633, -0.04981557014754499, 0.061377776003311006, 0.017306265365456996, 0.011681211973315238, 0.031385780159176466, 0.060739806917126084, 0.005806718507567251, -0.03342670144653873, -0.00039062661197717064, 0.030013836511426275, 0.024210484197281713, 0.06085235689804714, 0.04718914401041471, 0.08370466054327512, -0.012899371558076602, 0.05017080903766227, 0.054912046996845924, -0.018445734646930605, -0.04443752939282373, 0.008846992058709745, -0.03440194240613688, 0.07207824287953647, -0.04703533761087764, 0.0031359682393213776, -0.025982849125928586, -0.03208197882664025, 0.03932527475180824, -0.09455833355817166, 0.08992219196001605, 0.0503557704754477, 0.002581699490948418, 0.012736693747419012, -0.060023050877776214, -0.030751043873185908, 0.004074708231723204, -0.023768656019962277, 0.024345630989122614, -0.07816073914342747, -0.017257484546169984, -0.08735103693115635, -0.032850782090537635, -0.007425617264550887, -0.03340726276715855, -0.03626237519931356, -0.025123526449312074, 0.009820629826113147, -0.018834129911407833, 0.03390188704355303, -0.026296590085112793, -0.0348699050278423, -0.06318762019565545, 0.015065006913619398, -0.008068873062683349, -0.04937619338753853, -0.07926858121344084, -0.04916839619610117, -0.004449758323552336, -0.009442272669043579, -0.06411582957680118, 0.053222955060773056, -0.06993359453772623, 0.04916066280517899, -0.03366091320006975, -0.0027167573599918417, 0.06349679915871309, 0.05131899680695297, 1.754979166586757e-05, 0.025612789012447085, 0.04432770368964111, -0.02238585975200173, 0.011454653829645146, 0.010056117714802287, -0.004620463658075423, 0.02931233817341408, -0.046470739998017076, 0.0448334295659621, 0.0032188967079577148, 0.01813965367775415, -0.00035275939868601965, -0.019299217010485578, -0.017651746044954297, 0.01494903261759159, 0.04226341634323552, -0.04281174206469556, -0.051699360005045485, -0.038412892565302524, 0.05525048532171241, 0.07845386137823719, -0.014205286457609208, 0.029871588842366063, 0.02645778113304243, -0.030783681429880385, 0.043038646069598036, -0.011249575035199072, 0.027431281122832454, -0.01000101360948475, 0.03183672704829971, 0.055546325694483, -0.027156944953772626, -0.048730551543690645, 0.03424867724516474, -0.017975909828476775, -0.059552689815003106, 0.014272201032295262, -0.05400260599241396, -0.00953291310195526, -0.024134189716850357, 0.00832539914201064, -0.044135015916267645, -0.029380037905914213, -0.026393189428002957, -0.03936789489521838, -0.02784131735227941, -0.02720784713471524, 0.021130138692361387, -0.03582547816945054, -0.014358534622288394, 0.0510544613155626, -0.0508584893396096, 0.039553419816589934, 0.08591061366471442, 0.0065417435840635675, -0.010340075070971379, -0.05501312161891155, 0.02568561014501948, 0.02936010865127192, 0.05309671496457368, 0.008158158519901879, -0.05149894090727842, -0.04072384482057184, -0.051955551155404824, -0.05950571315250346, 0.03872209325295828, 0.003263368944605621, -0.04858762755516967, -0.0257499565906283, 0.03390755076524591, -0.05726298765010716, -0.031718200687942254, -0.029846891057940327, 0.027552836686364417, 0.046971412642262754, -0.04135935557909959, -0.04750069594276747, -0.02718030261574579, 0.01627761080795922, -0.045174919203319126, 0.03224270275308975, -0.06296854697679122, 0.011183350826137958, 0.04651420337353322, -0.020786531177412925, -0.004692107688641924, 0.06748876517532011, 0.006546891847944051, -0.033552922977917524, -0.009172585778791067, 0.04000679448889583, 0.006858837463722422, -0.05108666608987323, 0.013622079534703865, 0.013735183213652179, 0.01596817248774039, 0.011334306577150049, -0.008639560497307146, 0.01289868562739748, -0.03495528977597495, -0.029849358907731112, -0.005133561753605284, 0.037561424879703764, -0.01893216255567336, -0.0273782525074372, -0.047714451235917194, -0.03574130840202657, -0.07180783636667648, 0.039513869318844944], [-0.02524003084056216, -0.08806172547700923, -0.06528106506826906, -0.12394999339814546, -0.0018815225649041294, 0.004594521153413886, -0.0380716365633275, -0.10325584510013017, -0.05614009371316356, -0.06508138456511806, -0.06556639042443309, -0.11068616589496873, -0.07099793806991865, -0.07295458375817132, -0.0547104466260963, -0.07047726958967891, -0.09282159141070032, -0.027399403283070254, -0.06435641624235411, -0.06839412324003641, -0.05454121893014827, -0.04466676334023184, -0.07558227958025739, -0.0077952358290055744, 0.0030222866597595446, -0.003520528974316744, -0.01311263250271749, -0.0865163958987092, -0.014838148273584418, 0.000901395823811297, -0.06313332652337375, -0.02117888441367076, -0.10562474323537106, -0.08427934638975614, -0.03901243390403162, -0.06365487736050575, -0.010701612227553213, 0.016773161027100105, -0.029797345588688403, -0.06620795536014086, -0.04288784506189831, 0.013372201904071316, -0.03531355177938296, -0.07019144450537024, -0.0838982630597099, -0.06922702760856282, 0.0011069127878356971, -0.08206020535064089, -0.10715530107872598, -0.06618123778123539, -0.0882696283213205, 0.025295540479315638, 0.0443406875083147, 0.11273172856668114, 0.0679895276839391, 0.09457941239628648, 0.005665248141488882, 0.10636173502257341, 0.150629576108227, 0.07449653601750209, 0.0730413360302975, -0.07593722519466947, -0.08311598293278105, -0.07715352805990613, -0.00753658165323319, 0.011175271693173953, 0.06672619109160968, -0.05295441675757881, 0.07506823936713039, 0.04820615612548017, 0.0630384443833053, 0.009375218753622032, 0.007842137903486342, -0.03335635546607379, 0.03035524925049596, 0.23373720648642152, 0.14419592385211621, 0.03802140154864394, -0.02198789677557053, -0.004991203767868077, -0.08195558395268106, -0.0584942757352523, 0.052001070086418834, -0.04788880920290078, -0.1260439225441193, -0.21113760310562713, -0.2387342595733375, -0.17378589051436816, -0.05194363015567799, -0.07242324792329459, -0.19666573992160374, -0.20744064369218346, -0.2961058835485138, 0.026980239284167717, -0.06125770229288587, -0.14068159658181467, -0.0783334439807804, -0.059098542373459614, 0.08308937757988286, -0.013719251251708085, -0.1474785626072257, -0.044756665417815825, 0.11436765321784047, -0.1333054320811453, 0.12421980652394067, -0.0536688615018746, -0.02677476945982877, -0.07331596313643203, -0.019165107678065375, 0.13918313113964273, 0.027414552436401552, -0.01991138607990504, -0.11070266345209216, 0.0004858667770294713, 0.04834316257691792, 0.02169420624263269, -0.06696521196719094, -0.2712468571930217, -0.07518577758497856, 0.0596678262913692, 0.0825938528383509, 0.12554346881490078, -0.0686836420553733, -0.08055541565287959, -0.05868209821506663, 0.040414369455182446, -0.06677060727358271, -0.00035862196854342455, -0.049535414625145796, -0.010936808575988076, 0.05517359184886193, 0.04967507737015608, -0.06672785004649844, -0.09002197142986287, -0.06612921707810276, 0.10049880356885718, 0.09416343334695143, 0.14197681010143007, 0.022110020402690906, -0.13906152513782916, -0.05941114886463957, -0.00048217784910695784, -0.010397545409325921, -0.07467019399275518, -0.0736276314466227, -0.08300415813215772, 0.04272774063446185, -0.029488760644495557, -0.14766618188625633, -0.07483106204910081, 0.08855125482827017, 0.19862958062135133, 0.15522229243388008, 0.24499362937471464, 0.1399601647348733, -0.010475527263361083, -0.05859526790379555, -0.012400477920437861, -0.10184422315466031, -0.0480465738804589, -0.03995032477402639, -0.030982794521586775, 0.07330144910100761, -0.041743673208224384, -0.07356083679305385, -0.030539986422665276, 0.07897555098381832, -0.053722026056168715, 0.07009912461219153, -0.03953302879129734, -0.05104051358539883, -0.15504098573230024, -0.029827873824662423, 0.04394870136759964, -0.03506546218305857, -0.03302455980278319, -0.037693944843549605, -0.07516864560237625, -0.005662177216287274, 0.07970802837542278, -0.0829951006090845, 0.03298518286332123, 0.0371001279786089, 0.06232620367153842, 0.10841466300570053, -0.04002104603521602, 0.029018396094191736, 0.03982346950920702, 0.024323654976301824, 0.028765622643893814, -0.07649563558169682, -0.03262442587508813, -0.04226794353688293, 0.02215899906896902, -0.03884424517455254, -0.03549485547414323, -0.029785262081310285, -0.023123897742621573, -0.01600633767407389, -0.06718739936984733, -0.17272520917492157, -0.059554256791209265, -0.09173651833587951, 0.04754388982774837, -0.028575767285758235, -0.16413725684960703, 0.010970308720194244, 0.00043421760963683107, -0.03281589923616698, -0.07737893224402927, -0.12317893598662545, 0.02025347357559192, -0.006778315329029978, 0.05507800004522434, 0.014926002824459073, -0.02026615295346106, -0.07464207705683495, -0.11895795769319255, -0.035711294205970946, -0.032119584036524124, -0.16508405500150947, 0.04441886702883905, -0.014884919579783802, -0.04278830173665436, -0.08681997757140092, 0.0054934108599451695, -0.0499671741193264, -0.06844724876199182, 0.02961410461260356, -0.023990979541907553, 