{"layer_sizes": [256, 64, 5], "learning_rate": 0.01, "weights": [[[0.021207883855531982, -0.038749637006925436, -0.019287326859641983, -0.0038721467845886453, 0.05023023457158129, 0.03551996542974195, 0.07012969040564725, -0.014187581189182553, 0.032483186203752325, -0.025627151864950865, 0.009612859291479706, 0.03249122599808425, -0.024438621038843943, -0.019115885899409206, 0.0445435112795628, 0.03482998272119609, -0.025843017206697703, 0.02238812546812747, 0.049947014123481875, -0.04093185466655833, 0.07324219945617794, 0.046265235693590374, -0.02366608195016014, -0.04484166384638921, 0.039566893335815284, -0.05187364485227704, -0.07886948373616322, -0.04464547505770019, 0.051060519005406195, 0.05161541477799766, 0.07248021935423216, 0.036581861176051306, 0.030148788281544284, 0.09538827707349551, 0.0269947715613272, 0.0497359452439006, 0.06292970873516379, -0.020745696174922675, -0.011815268729722769, -0.03185836506032135, -0.026425987235532064, -0.0885928173283374, -0.08838166606987537, -0.07610867107110274, -0.04328577538276159, -0.019029718477927934, -0.019202290341631238, 0.0018487887847491663, 0.043231068822771446, 0.028582079544467034, -0.03315413962551968, -0.009728428171072891, 0.003413836524206078, 0.02060591800280966, 0.08711281032420884, 0.010217985739111595, 0.011796315543420078, 0.05577219034843979, -0.030288711136399322, 0.06382899840182314, 0.08134274872744511, 0.008967842381492128, 0.022280772987290132, 0.0825579256212747, 0.060309400519085635, 0.007822569391612287, -0.04254452484093079, -0.02663050355547238, 0.03137214491638645, 0.012642621032337093, -0.13711999343155046, 0.06049431850401307, 0.1494506405855527, 0.08232782884431654, -0.006340387954378578, 0.03006619781702032, 0.02233975943998767, -0.004310016615000867, -0.06626780259913707, -0.019037702181884535, 0.05178251394741928, -0.022725619443059536, 0.001175349477483856, -0.030264057706969067, -0.05799420697192952, -0.055078774311645866, 0.03123308373687737, -0.02308028748512611, 0.06912717864179893, -0.12138068169928655, -0.10743135940467607, 0.0070833985953239215, -0.024662935895568075, -0.045415622586032746, -0.05906677642218348, -0.005541860144036138, 0.0966145546611891, 0.0064187792933750746, 0.05780180398312745, 0.04548626474158979, -0.30816910153954113, 0.06841159396867715, 0.07433485777471999, 0.1816328302274003, 0.22340873432131667, 0.20123217962898665, -0.047788044501225715, -0.15962674960053364, -0.26873948966630273, 0.02007728441343409, -0.010486119149073807, 0.009002069048868782, 0.014184761749351767, -0.0389315629280783, 0.06578582011600803, -0.023788685235527598, -0.17660948648494482, 0.13745866682722097, 0.10073198382488456, 0.07926512879708247, 0.2543633691014586, 0.20707166519298054, 0.010874878952488324, -0.03998629206733598, -0.11420785708401672, -0.06381711312976018, -0.05661894678608623, 0.07048540274760251, 0.07602759270228683, 0.027017943700431486, -0.04347818592912716, -0.08562800580303292, -0.044137409392165, -0.08488378092066347, -0.006348297312944271, -0.052633142543550095, -0.10339488514414341, -0.021681322965945483, 0.08176327133345951, -0.11318701629729816, 0.022431453670555258, -0.01744365525824137, -0.06643263143336767, 0.06828370959461434, 0.02597091070906043, -0.010913738270895324, -0.020022540872860595, 0.04529896048765431, -0.07229560422082781, -0.0029476828816239, 0.013968125846344687, -0.05845545636564856, -0.08220615344112099, -0.09373773932709167, -0.0704545353024498, 0.05492008808609171, 0.05434066892715155, 0.04698603833923252, -0.09553332095591795, -0.021760739236445822, -0.027275629539693414, 0.01773546562478107, -0.044672285055319165, 0.08331674836860557, 0.0899305089418845, 0.006483783318299806, -0.08469425846087426, 0.0032200835371919124, -0.149018288279323, -0.1550875813214147, -0.03452735646107613, 0.10464302587335066, 0.1026734123930136, 0.04223261161472797, 0.010266887679798067, -0.002572850639242249, -0.031909711007866805, 0.03554958397756087, -0.019938147950462348, 0.0015953796709926428, 0.0753800429722328, 0.024462343648974504, 0.09693481631594728, 0.12398583198653423, 0.08082283916014646, 0.11488317807131636, 0.17438708670604833, 0.1171779934969546, -0.001510644881079088, -0.03993958877101786, -0.03891564858156306, 0.06495902070075316, -0.02323936837477798, 0.0684837248345682, 0.015450474366505616, 0.0778695033876526, 0.028733743540016857, -0.029087858937248245, 0.2952799247883697, 0.41313756159155773, 0.4126440262849682, 0.43383570527733584, 0.15954309355180316, -0.04270461780062821, -0.0006013541514613743, -0.08086096327902129, 0.030088445818140044, 0.020534154059157456, 0.004838775765528471, 0.08148792802357516, 0.004910519264121712, 0.08607095314459239, 0.03541855793250698, 0.030854568150089662, 0.1381384715672475, 0.3525327372944596, 0.38148599563065955, 0.32515404952319826, 0.13831180007542365, -0.02962082629149596, 0.02929616149261663, 0.06067247836725824, 0.10646928553883359, 0.08024698513124887, -0.030304971781656805, 0.0200717315270244, 0.0156804736172582, 0.06851918988887584, 0.006616544548715268, 0.13034917021217027, 0.0298285548682016, 0.016439521132928136, 0.11570182796052877, 0.0666005585774665, 0.03675880154359392, 0.006106275970001744, 0.10769157426106102, 0.027009504731430132, 0.02975780378605548, 0.04140702178742511, 0.0020154417275666534, 0.02789628532420652, 0.017765415248099218, 0.05454684585263671, -0.009294088007172144, 0.03765698620560943, 0.020965730036031267, 0.04260292751377675, 0.09200797536750054, 0.022481668979491883, 0.03306967804635789, 0.078078809401828, 0.003272802568776491, 0.004394121806102327, 0.0933264973235959, 0.08524976935209533], [-0.03837104834994221, -0.02246619749000319, -0.015825336064803002, 0.06943942303237169, 0.05130820895475969, 0.056642383362244746, -0.006113490824448804, -0.03582160972181269, 0.04941872295057912, 0.03339493681639817, 0.023106960615847334, 0.07656524958389427, 0.03225268552226309, -0.04763920982761364, 0.05422121804326023, -0.011148392672623637, 0.03848950884686957, 0.06825067794226465, -0.03943107156606797, -0.0405732135033086, -0.038655839295545454, 0.01919927531265945, -0.026379353502306788, 0.021429208143167455, 0.03193587968404887, -0.03472420623099293, 0.02316634770745175, -0.02721483791782733, 0.0001655590267914849, 0.0653694468901797, 0.05535586091392931, -0.03510995218996514, 0.002093997515424198, -0.021433267625015903, -0.06051286793090257, 0.028594667393811862, 0.02134135496506965, -0.025438963971908306, 0.03662266747777881, 0.017773097278924625, 0.0011068687815754936, -0.04290549359176411, -0.04812996210727525, 0.05701469818414254, 0.056608003165175884, -0.00810632461751435, 0.05342747478344251, 0.024993336410481952, -0.027429035898431264, -0.04007416538803251, -0.028088240006312354, 0.06008933570567723, 0.0324503308127046, 0.03040428156003356, 0.03678895788035454, -0.04938261185868165, -0.038924439065473895, -0.07268987305881291, 0.004637906874420274, 0.046464867826781775, -0.012050162927208605, 0.03271166306673947, -0.04872924607242209, 0.06079755249942545, 0.05321331394351812, 0.06853771054133309, 0.05877529595386644, 0.04206260081460614, -0.03422800133911242, 0.03438293520573171, -0.05718040027607081, 0.04518077371690789, 0.029452083287460837, 0.01986568567145046, 0.009457896531617622, -0.026426125597695232, 0.061837916899032785, -0.04378264501564817, 0.06168922015371775, 0.053853905046965855, -0.030348289364510134, 0.03137820340799161, -0.0029566355030628865, -0.004776045776126218, 0.048926887782949006, -0.0615232882113767, -0.06910250246896057, -0.024106088735285906, -0.0007493410023895376, 0.04645261500129917, 0.06199222488476619, -0.022115611866912445, 0.023315730680274552, -0.016417114915805848, 0.05643646192526318, 0.004119366752456366, 0.058595472487190825, -0.056409317960299146, 0.06786955780016224, -0.04748853154378577, 0.043054599605546216, -0.02425027812599125, 0.016334221865909604, 0.00026273059217267296, 0.07024766397004563, -0.027511149830974628, 0.033089219442892476, -0.009824069276678248, -0.002675055008660434, 0.0013792120106266362, -0.0332730850046158, 0.011176412689300082, -0.062149008070225005, 0.04725688363163143, 0.007894317113930075, 0.002050092105966283, -0.011292296567078019, 0.048510815784811624, 0.008010457846479918, -0.008014280899981035, 0.06382839622605618, -0.008895929782784097, -0.026893508350857517, 0.04994925075856551, -0.025338202127031355, -0.04309117623848772, -0.025281667775950332, -0.020509153866225812, -0.010036652386627017, -0.03682463723279524, -0.022343930556407838, -0.0024731249248985073, 0.010259119989824391, 0.013692058423546908, 0.06737760587889151, -0.010994763037261957, -0.03939773731398074, -0.0202588874846547, -0.06818012654561095, -0.05698489234917058, -0.0069060659073462245, 0.026456276648803786, 0.029606151531910863, -0.010648152266187807, -0.00670086078804174, -0.04421900138364872, 0.010892195038103947, 0.05149301295474096, 0.012320537708572454, -0.08656457780769139, -0.10298238896166216, -0.07795385876902058, -0.06797460838462299, -0.11599144299756177, -0.004049611000455739, 0.032872902188834825, 0.023205389537400537, -0.029400175802526567, -0.02897192220068513, -0.07307735101222256, -0.02967881601607943, -0.015301904184834557, 0.05566850269032489, -0.05057439100892003, -0.051420587014618525, -0.027613089689852464, -0.0253659886396164, 0.06029445548419844, 0.02452609737568642, -0.016226899405928034, 0.10024940905430864, -0.030294900679006916, 0.017315309253516747, 0.026556969690150166, -0.05764420824831966, -0.021087043946612632, -0.032338166662106635, 0.03985909919252487, -0.012614173402469089, -0.04392846194317017, -0.04266476357360714, 0.05101780636366653, 0.0857053549836728, 0.14314582017870697, 0.16764102255734642, 0.1562289090778785, 0.11185062361048123, 0.10232130087728021, 0.05066042728520658, 0.01537677991689949, 0.01721371953024635, -0.010218318341015659, 0.0535969194972733, 0.004610575994878725, 0.0408584010665802, -7.781706621196388e-05, -0.0018533127017863159, 0.015417514472168605, 0.006409136595902927, 0.03721306629707819, 0.03476798859989797, 0.013060719060822602, 0.06161195137074447, 0.02818475906279223, -0.0454317187863478, -0.03975720054658643, -0.040716593635391804, -0.02314010605995773, 0.018643554311650764, -0.03323218206425027, -0.047882668962138525, 0.007358136491657217, -0.003306225629236027, -0.05197542266450223, -0.027081546179871355, -0.0440063043985404, -0.08390467684381496, -0.10296323858406616, -0.043162455667972895, 0.061802152078719204, -0.003543228885831552, 0.012458558747018393, 0.024783723341435252, 0.040532376512503916, -0.002035060688467185, -0.05141473904862649, -0.0005152855201212857, 0.025256548978482944, 0.028486433952697017, 0.016499611259914712, -0.048318660796647955, 0.0024623327998896903, -0.022893672036579455, -0.003593529161567491, -0.07292217114855083, -0.06406014099962731, -0.01988567502350675, -0.07856825781426019, -0.0048828144306632855, 0.0369095414591031, 0.000795476642358689, -0.026607094877401004, 0.004711685263937705, -0.028326220107227296, 0.023685445893673992, -0.06230361044994727, -0.039121332833574794, -0.012071247887593124, -0.09186322803702149, -0.010443768598620467, -0.07203274856243806, -0.025290029482045798, -0.061332140395142204, 0.004151893992171677, -0.024830397377466628, -0.00699476506285951], [0.046742094815528545, 0.0031665474867705813, 0.04323356711727243, 0.05726897569431892, -0.013778823010449243, -0.04439169116635333, -0.05869503520340145, 0.011276221758923424, 0.06770938521682196, -0.013781920738847535, 0.02171921365445242, 0.04131158399571891, 0.031004898179533554, 0.049774902277203305, 0.07000792771990577, -0.024041875235416732, -0.04560955427378827, -0.03274741679331064, -0.0327284606061849, 0.03342740791528266, 0.0017590542413615225, -0.041561922406005376, 0.014897872836582955, 0.024195226401341155, -0.041131490657772496, 0.008753951194158152, 0.021805629270531895, -0.04787974829940953, 0.03737331828005762, 0.062162975740965645, -0.03391441660505616, -0.045528983375684305, -0.00861630239974059, 0.03351935898770366, 0.06458053252091639, -0.008149570300297145, 0.01175557421674837, -0.07450893979281038, 0.005541210254638009, 0.008882014907653, -0.07494240017361725, 0.014668045411642535, 0.021263855645406466, 0.006499759330930686, -0.04612084679719519, 0.06437001962529319, 0.039656623793299435, -0.011081313287347473, 0.005010714620901534, -0.007012311234839469, 0.006941656638543358, -0.040572931691686735, 0.02317504209994919, 0.034962803258446855, -0.025689304955490988, 0.08468584155442381, 0.03630371641361875, 0.05824367948826584, 0.038737678157192326, -0.03056779551815826, 0.021233375245838217, 0.04005914774921117, -0.02225222426563613, 0.045912030553014294, 0.020391569126151924, 0.0012411508626307974, -0.032172816404679665, 0.013460757091861793, 0.004666456057293499, 0.04367878591802683, 0.15087186641562225, 0.0037086641642890775, 0.08589155916790674, 0.055232895855974594, 0.050539723124030725, 0.015837578178948822, -0.029656720661537635, -0.07415864896865741, 0.033688134634457655, -0.037967242793418426, -0.02482455498408159, 0.029174063392360353, -0.0337181429260452, 0.05875810754778093, 0.09288907544731813, -0.04555812885514427, -0.04002595872796826, 0.1041126950921708, -0.09581700249573567, 0.11189832814966656, -0.029732553155836193, 0.010241488086957934, 0.06652563871546606, 0.030471299454237304, -0.011134870146889441, 0.03557225821929326, -0.04003684741906321, -0.04262780141416763, 0.02221443912446461, -0.03620899232946856, 0.03212814827911615, 0.03971211195557, -0.051205951919654595, -0.02872465571792415, -0.09333351103125777, -0.07098792718186343, 0.04846074908253292, -0.01668916781284928, 0.04323230944199291, -0.024597805714941103, -0.04829913909388866, -0.053527640379747415, 0.019387274384652167, 0.025832636526401123, -0.03163397614651256, -0.017618093107021986, 0.023341042337887714, -0.002120743950200397, 0.03455622622729454, -0.03889276857104989, -0.12179762339480307, -0.115846821172368, -0.05013282260290975, -0.03665332713736211, -0.0063561591476037314, -0.05686884267037424, 0.006869397731911758, -0.028658713957321304, 0.07177404970371043, 0.001801592482532332, 0.025974175843631774, -0.04569897013361311, 0.06831413946155836, 0.05223373258034226, 0.02313684099175265, 0.010018779954935494, -0.018411229788204534, 0.008227514219177922, -0.028944377640200785, 0.0037775055506689996, 0.07116340812335258, 0.003844665860465916, 0.03909924968176483, -0.019321751073814095, -0.04279920798523176, 0.0077469547810619325, -0.06141161860425325, -0.04453741896472318, 0.032015515431723506, 0.02092402210520044, 0.09176552686846996, -0.00434366713686989, 0.0790754954717637, 0.05663267920246078, 0.0729615738555863, 0.014174119291048025, 0.02164144036683837, -0.0012418308851119572, -0.005868005915172374, 0.03510410283875894, 0.07593541053041233, -0.0322212451929719, 0.008918281269997948, 0.027066263791963623, 0.050214990757736215, 0.035935460849718964, -0.1106502230417503, -0.10853695238696286, -0.07313871964852407, -0.12404550731592298, -0.10961322700132543, -0.06768598030933005, -0.04151069136354991, 0.01031053332636054, 0.010470977030687407, -0.036417142919138015, -0.01893819584795484, 0.03170784440755916, 0.030638043166569803, -0.0072516664949394665, 0.014095933206775074, 0.008934321139981709, -0.02375496670720041, 0.05004032669722734, 0.035959090670324996, 0.08703938030107035, -0.07291159969169378, -0.05786317353791597, 0.02484459619615006, 0.05412480206672694, 0.032655314949750186, -0.050199117361802555, -0.02254066513634158, -0.0121514875663747, 0.03819847416122698, 0.01280564057048931, -0.03829311377821799, -0.08120509231833307, 0.07028375195230008, 0.138026869801311, 0.1944419827775296, 0.12082790568492684, 0.04924642141355614, -0.12062173318257785, -0.07398894385192299, -0.0010959147100020703, -0.01896305622061244, -0.028745438695504114, -0.03129097947076168, 0.07197027034226938, 0.06145338501122305, 0.020420266368606204, 0.05966480670882154, 0.03491743151176223, 0.014277510841126925, 0.047774910188880575, 0.026809083425359648, 0.11068400196633782, 0.04056558363652371, 0.007252489725489803, 0.05861833253702605, -0.04267542053333051, 0.027595377681448218, 0.03592414047483398, 0.013873736845918134, -0.0343043178542585, -0.012474585733741727, 0.0023031353646795804, 0.03550159553924574, 0.05948921055447457, -0.020689634780609003, 0.02459417281239743, -0.03428810909347176, 0.06490166083611969, 0.04374663653397462, 0.026933231566033, -0.0007428427284408544, -0.005059797683549016, -0.013576831161297813, 0.08038195619280385, 0.005037351538476326, 0.016087362739498418, 0.08029144569714425, 0.027489252801269154, 0.0226717757647318, 0.017929976413989624, -0.009455129813875184, 0.008493443346118557, 0.07184961130882946, 0.043743324899193345, 0.06254294964820097, -0.008461575855100292, 0.022886352429694883, 0.06511089348154271, 0.014934448405896103, 0.0387433642369401], [-0.03369112638628782, 0.07984796653692328, 0.026349554547537204, -0.012776019698584568, -0.017418640832318456, 0.018253693470250704, 0.012395471607652808, -0.03619691835365186, 0.07419956033183425, 0.06537257275945639, 0.0063245045717418066, -0.037408928443886186, 0.057400969364207494, 0.019936629333068983, 0.04336992617699209, 0.017284682101788844, -0.013639814112155577, 0.054211547643136675, 0.0763893776463337, -0.013518035806580208, 0.007865785193325979, -0.007980869877217021, 0.05245115624237986, 0.0015249205529880286, 0.05468506215812766, 0.047468303389137594, -0.03189351970152969, 0.04533144644015758, -0.011298780504668477, 0.0643247329050397, 0.02093985962210895, 0.053763873268743996, -0.006717555824462934, -0.0063893179216892694, 0.029646470103815655, 0.07998034415330307, 0.0025385978734555705, -0.04733548946696052, 0.0001713652239735362, -0.011891017361374092, -0.012178998190556014, 0.0031146894912520216, -0.012065433790874915, -0.016287571976153437, -0.02943214589674523, 0.03570751595256205, 0.017976637448573154, -0.02029091144596865, 0.05039997885772502, -0.038417139053914445, 0.041637297916693745, 0.02315853566848014, 0.03049271271183179, -0.03581040179904866, 0.03184388735872085, 0.04584638612549821, 0.057519201946641924, 0.007482078551659656, -0.05748693584098377, -0.016797358872764893, 0.026488367406377562, 0.034992799384106626, 0.05817317135200279, 0.011119300548475698, 0.024144537734103605, -0.0027028424869176486, 0.01590388925380789, -0.013329707379282973, 0.03974119017531449, -0.05665426835913044, 0.06886811287849297, 0.09394837277214847, 0.01462023220006205, 0.10559370113023463, 0.0439490294169859, 0.02700757865931712, 0.02157334074379452, 0.05010012303479398, -0.020753394467124247, -0.02082625770517041, 0.046710719169735224, 0.036023823079478504, 0.04387963759502961, -0.07096540079064015, -0.023001582283334893, 0.03366384670169621, 0.10143640308456954, 0.1129186572996979, 0.00484815656326412, 0.08179357048838427, -0.07433092647234738, -0.011958275739969196, 0.06750182554145612, 0.010693671157928871, 0.03491938561919494, 0.05224972170873838, -0.03695455451273073, 0.02770983288950647, -0.03229342722540292, -0.025943241088875024, -0.04483457052088341, 0.01880769252921847, -0.03612403033542191, 0.04882164138394698, -0.12726478352683224, -0.04358938530596796, 0.057480309323177575, -0.002011318698395723, -0.019251815754506723, 0.058777150608684665, -0.056039298300043915, 0.0003158727619545904, -0.009543917978016214, -0.04003333696854464, -0.05468191807369468, 0.054239157128345705, 0.021320376964334666, -0.02276948274190029, -0.0812049668623471, -0.04769134371620605, -0.10081731107847816, -0.039680958050697254, -0.006359295584313235, -0.0044329831538367625, -0.00995664013476004, 0.03633667369553565, -0.02845419147800264, -0.008933823277506497, 0.018430754213015682, -0.04014695505953312, -0.001666632866451344, -0.001676036793690132, 0.09020738473651271, -0.028236648700974178, 0.021132000095435775, 0.019066243110321828, -0.07551299461651473, 0.012471574128012456, 0.04005860612147835, 0.08881781820661178, -0.03975989944057288, -0.0015710053279608205, -0.0035558990269138535, 0.04889815978800369, -0.007907321715670294, 0.03067080111178311, 0.013566927662938943, -0.0010381195480069062, 0.05018599250514734, 0.08290285557680742, 0.05903307254580362, 0.06879207576970885, 0.06341386637102837, 0.08178562212957617, 0.05317297702553996, 0.10857289366092292, 0.05851351282804808, -0.004127605365992313, -0.011454221697851258, 0.004919893239593155, 0.05160896912392553, -0.05951836452470099, -0.03845965833598225, 0.05032952689249327, -0.0012324932771824507, -0.04296051384231976, -0.07028086431601542, -0.027656694210472132, -0.11366418081136581, -0.05010091749290233, -0.059517145237134035, -0.04166812957989962, 0.07399034096152794, 0.012573890676889762, 0.03899221832940949, 0.031127886754515922, -0.0013572932617549505, -0.03713649249866953, 0.057886669009379874, -0.04252932674047816, 0.06722581641489417, -0.00325878572510549, -0.04846548210345652, 0.07192089642478157, 0.028910429294764867, 0.06077713048581325, -0.09582285621657137, -0.011244599499379476, -0.04452977631364888, -0.006805386244533579, -0.021479787703304557, 0.04486537083030476, 0.042617482842022526, 0.017053423782285068, 0.03473696724624176, 0.0721557783064637, -0.03587056625715, -0.0831037536462473, -0.004260276689147289, 0.1947649406973895, 0.17646842225012024, 0.2164722867121325, -0.0232543811944822, -0.12814391387705318, 0.030066123414031556, 0.03662406935089405, -0.023243856585662775, 0.005019912751267869, -0.02230721828883436, 0.07288907577047721, -0.003914526575942796, 0.003897882328503717, -0.03300558410472427, 0.051794871367951086, -0.0012862165183900186, 0.15840905670568134, 0.20448004113177012, 0.20085318972671445, 0.1512529015223381, -0.023348657286570366, 0.01521058982694092, -0.04577292376022387, 0.029186834015447614, -0.022331800151868756, 0.017360490049259422, 0.007136817106477546, 0.06656839945246262, -0.03906052607567043, -0.01047994646823384, 0.013098989127522808, 0.0635248383869943, 0.06348624627303638, -0.034717018243428134, 0.03066099229794263, 0.016337459972409298, 0.07634096299846573, -0.012920785624318948, 0.023563736386901336, -0.02401729963182043, -0.02110633861891679, 0.061822485996811685, 0.010439334235097507, 0.04287139301592366, 0.02904105099193377, 0.022779539050142378, -0.05184011849922482, 0.05332415872843416, -0.017157874829536155, -0.0158997702585299, 0.023854212688603386, -0.0363145845738166, 0.06437393184011002, -0.007578155651563018, -0.019307209562140947, 0.07356788524634139, -0.003059779473394727], [0.0027871286574329864, 0.09293057838045737, -0.026020477223159793, 0.09186588308796885, -0.00047194863734341673, -0.0006467603484581099, -0.002654556471613502, -0.007273025524530234, 0.048162186230565916, -0.031397517705795575, -0.028310538058338944, 0.07017663683319063, -0.0005581779413802352, 0.023124974154208323, 6.55279627319757e-05, -0.01573031913985168, 0.07411754701437913, 0.04823528318434417, 0.06932765713640657, 0.04094333568468573, 0.04689063752229876, 0.03695703300084604, -0.007027097770304309, 0.04180669238957769, 0.09994150645338264, -0.0006573115166602967, 0.08238196451275272, 0.10736023671942603, 0.04352745852028264, 0.025466533838981276, 0.0941937716132475, -0.006837526631659359, 0.04441924245077781, 0.026578093237824327, 0.06132219882146825, 0.007273553247548025, 0.06451865490676176, -0.03369864166693172, -0.058156577554665204, 0.03877450714330033, -0.06443744164311582, -0.023590994426933302, 0.005410829260006193, 0.006410327930942006, 0.003974119393659988, 0.10126632801714881, 0.03377744832551624, 0.02508366001884592, 0.053702764318234994, -0.010414299531130872, 0.04409738139507361, 0.045048513041579155, 0.00968247805696717, -0.09255142348117842, -0.15013876624614392, -0.12990758688504447, -0.07026997542006985, -0.14399294687128977, -0.21531525772315352, -0.16300830714303327, -0.057386857806024205, -0.024183969949521142, 0.020327655109460517, 0.04301073890910154, 0.025773065276367555, -0.027782636647593267, 0.0715816369032868, -0.04970666435660745, 0.006174130402394017, -0.12500735814388636, -0.13552182981140995, -0.07402897336380099, -0.01876145411896657, -0.17204243593559834, -0.08665583044147313, -0.020463962184807876, -0.004824734346814647, -0.04556627682258871, 0.017736083505229015, 0.049549404050161616, 0.061839844211123055, 0.05780765359895582, 0.03640335874346798, 0.09100592835260687, 0.08956388871877755, 0.10198934102091725, 0.06716063729419527, -0.0688648192598318, 0.019764481115062092, 0.012566253349210571, 0.012716143216452109, 0.17600980669006114, 0.031628129426178195, 0.030688182188353636, 0.034911421961755285, 0.05205893792662205, 0.07047876116388609, 0.04052033094251274, 0.022672376927843036, -0.015923426210425362, 0.13502308984148864, 0.10954274628768634, 0.20287031375371278, 0.09576054034522401, -0.06414636841637585, 0.000751180572005276, 0.20464195852037134, 0.15345170958636167, 0.11284098533511581, -0.03523264259324434, 0.08265686186003002, -0.00760028432977055, 0.01545217249221398, -0.05829943293593177, 0.02046457947878332, -0.04927695722558107, -0.0031751236626128003, -0.06329838653990699, -0.004516085436721238, -0.0424167449128809, -0.03648470517925019, -0.02526864284586437, 0.03308195193069084, 0.0077481115391596226, -0.006537911856952843, -0.10160089623777302, -0.03436729580291702, 0.018279828313122665, 0.05265280110053035, -0.03708312619398777, 0.012503749166398907, 0.009010919053465944, 0.03567766375821142, -0.0016434723244011763, -0.03818086919412198, -0.14309130933024705, -0.10054669284525544, -0.10508126936549729, -0.02708386014262582, 0.01709970294589006, 0.002227406002376862, -0.04118333098202913, 0.03528230838812758, 0.00020421576185881545, -0.03645091841555898, -0.0422082297051994, -0.01632160785677232, -0.002429904326366387, 0.01594678133615797, -0.02801064545550945, -0.15988184054222293, -0.2162361488688655, -0.27670827055852953, -0.2723984837169425, -0.10186375307335638, -0.004405300219760193, 0.08685472940566552, 0.07730243248888802, 0.005706554365232832, 0.05285940938101391, -0.030845937187365197, -0.07883184095155915, 0.043234500414090285, 0.07201847107410254, 0.042230620220498435, 0.002773946617800299, -0.028916419672957577, -0.26240983336457124, -0.3231234806989666, -0.26169211257582325, -0.027142254089689233, 0.06283979231024867, 0.032970663138156484, 0.06750797183760772, 0.08440643032227696, -0.06472351086485453, 0.07127773865787992, -0.032405122501763244, -0.012480023632590015, -0.0009340615489929996, 0.010258920636403775, 0.018269060875793195, 0.034785672410683886, -0.23288085832203184, -0.22075582692334636, -0.1251140488225781, -0.07910664442657309, -0.06498334000769947, 0.08870529969362317, 0.033825292640877525, 0.023680493744206117, 0.00966425341094951, 0.07859018286929788, -0.03810049833182673, -0.06122993722368381, -0.06353277736267607, 0.023228765013949833, 0.015053253968976138, -0.007886356965830227, -0.24155000749855904, -0.18819223994182133, -0.17584994479494037, -0.004278373417963828, 0.01869930812026633, 0.04688313547269606, 0.06540297180339713, -0.01658888926662087, -0.0033756895593217403, 0.06329720131750444, 0.07909431536568808, 0.019517278153802466, -0.06145635190374822, -0.07570188549218611, -0.022801559869728094, -0.0280674869139259, -0.11187335893650133, -0.1478889369001832, -0.07669562291759445, -0.04347823976801551, -0.003825513874834051, -0.05713166368541685, 0.009658930501107756, -0.06843225754251478, 0.06545680463736754, 0.08610140369915406, 0.05309471135350783, 0.024975095317696296, -0.01873272462948533, -0.017459495202463423, 0.011736440146364734, -0.01127351616376922, -0.05954146425957048, -0.03507565758902801, -0.03634092940846287, -0.09039137040122668, -0.04426712049803561, -0.0814070603554203, -0.0615601403185608, -0.030866842847976285, 0.08637618619740503, 0.02433254092916567, 0.06999463493292063, 0.03702478504696825, -0.020755742813513712, -0.039091940409147, -0.030706271988447185, -0.042958023375814246, -0.028181925921239682, -0.06716835951391556, -0.03943962572559578, -0.06660694146147862, -0.032643883612656126, -0.0273109873908259, 0.03583886927950088, 0.06576033676351448, 0.06993907955754602], [-0.03575663432828334, -0.026555664386147294, 0.03938792157951156, -0.0050873098811688, 0.054230259584094116, 0.0358545560924883, 0.05979512502499513, 0.06412904591333901, -0.004089618064369222, 0.026490368659751143, -0.0320316236253337, -0.005700892258056853, 0.07694492521493691, 0.04854330182279617, 0.006632915432968544, 0.0303437104740152, 0.07378898733858252, -0.007739378461187566, 0.005296384808347902, 0.05787205632706837, 0.046195918137601585, 0.021725792807521085, 0.03687597571572269, 0.026606953061931095, 0.02720672092774141, 0.0024078941764285066, 0.012239246035313222, -0.007472090464515751, -0.010615272011919464, -0.0032977005919333753, -0.017304790672192802, -0.018188775495759292, 0.07728589669804287, 0.017430564346068954, -0.013296295520769236, -0.030686774375511556, -0.055768043049621206, 0.027769978841989448, -0.06341425360757852, 0.02836209116045651, 0.02618767780045697, 0.0366325071720084, -0.07355922210715594, -0.023534855883798226, 0.04118841393138696, -0.03889164822364447, -0.0018949486829300732, -0.026347683350193517, 0.060733848289002794, 0.054925876344098665, 0.04922310316616038, -0.05150455786029726, -0.03426838270219108, -0.014472979183449917, 0.044973743571128544, -0.020026285273877904, 0.007295132118296706, -0.010820067702793963, 0.03994930068875561, -0.011811961661271065, 0.0010323092439923633, -0.03624465606020063, 0.047668926014568604, 0.013893269564806306, 0.06510563921968274, -0.005136558739329572, 0.038983451884774985, 0.03762143204659632, 0.03440714416160898, -0.02524498290524403, 0.08910783479909579, 0.06417962340731498, 0.08794239146999286, 0.13437833896857507, 0.0799749176054685, -0.044661800508506495, -0.03263096427088876, 0.005632673533549572, 0.0402153706819506, 0.015770174427568354, -0.027132145217275774, 0.04525120123858984, 0.019315728639054563, -0.028400144411624167, 0.0637308659406877, -0.032361642463239436, 0.08102672263905249, 0.01894029878773291, -0.03358493010693908, 0.14624026977694637, -0.07428131465586003, -0.049741390709219506, 0.008786131891579858, -0.03499319850130904, -0.06173405008437914, 0.0036732134921651843, -0.010736801184312113, 0.04733942960359747, -0.02252802253663314, -0.057914309919311895, 0.06923393336557611, 0.06375447411424807, -0.010013831896809511, 0.035846497996387235, -0.13351027226031778, -0.047604436214735195, 0.056323280871227205, 0.02514389829099022, 0.007018667342018733, 0.03616000484416839, -0.013870761153316358, -0.06309481130264515, -0.027858381686223448, -0.04532496653541753, 0.042432714344396376, 0.03242933499421682, 0.04408289965468282, -0.039306686449716424, -0.09073580051604453, -0.06997354086547142, -0.10553290696566538, -0.13282676720582273, -0.032016174827342286, 0.0411089572573828, 0.011153397788399792, -0.04379405874767683, 0.059012261947181024, 0.013534323880651985, -0.03780013988720581, -0.012372304048384028, -0.03758842716222197, -0.03846137509944394, 0.016568430136379618, 0.058033490580318224, -0.0656296794914892, -0.0012123044867671405, -0.01654336981968667, -0.03712977616609678, 0.06328372136050946, 0.0025278328700476995, 0.018177758525036503, 0.000559592859296054, 0.0657148846396665, 0.0018834359177798492, 0.007495243678276507, -0.018031785118875397, 0.02117887423911216, 0.0636966840337137, -0.00022189356282101435, 0.007840458235960175, 0.0821858782936875, 0.03442235747798236, 0.08628741939817873, 0.07325470492804385, 0.07519313783112412, 0.08277426687746108, 0.013397252104159138, -0.053515111129448886, 0.010650236633240112, 0.029004602736467978, -0.015431876271075114, 0.020310802326799635, -0.01828568932654146, 0.04637405126261462, 0.04392645138408218, 0.0397105531423597, -0.107499330922625, -0.01922482533671016, -0.08522823278433915, -0.09545761764331444, -0.13302766677775751, -0.04816049044976307, -0.03760469855560046, 0.0697451040243425, 0.004027157904444556, 0.055394305294983064, 0.027429620487487972, -0.031721580661189165, 0.033854104840517714, -0.029028449874681568, -0.022614063027051417, 0.0011859468264705712, -0.006325473782703215, 0.02959822026392945, -0.026889897745754236, 0.03327986061653173, -0.008413959065213597, -0.008091896330939577, 0.051386061354633354, -0.017606647289506967, 0.05308266904955806, 0.009954181082017182, 0.023421042055428987, 0.058168575213083724, 0.008271732846185455, 0.05514236518438249, 0.026234263960495174, -0.09193730255188529, 0.06159270907107685, 0.17276881294540497, 0.17138451512872094, 0.1224447081836474, -0.027201048786455042, -0.04473944900170984, -0.04564492684560714, 0.008128133157176984, 0.0015319223962920723, 0.03563808070966361, 0.007432217514424382, -0.03552187233105748, 0.05577455101838261, -0.00625242454192308, 0.07863793144261126, -0.03598638285657766, 0.07689072223352897, 0.16607378631290157, 0.07331480648491477, 0.13086205641418372, 0.05342369840876701, 0.022613627296270474, 0.01728421897365239, 0.0645291696920202, -0.021805470910193945, 0.0415415190428307, 0.05772668447770315, -0.03693754763896845, -0.04008596984682119, 0.04665952941247151, -0.0029926746764156503, 0.0001984557524375006, 0.011493487153338918, 0.03272102496612684, 0.023497998689759363, 0.06814185250611328, -0.007161682663266746, 0.04771608791261148, 0.022513039399707935, 0.025617151297884565, 0.004112846514494688, 0.04705438530157427, -0.008784192163714614, -0.02923194875977603, 0.053910247335695584, 0.012971832094373236, -0.004515661431060922, 0.026795012162470565, -0.009383252266527278, -0.0115554089377278, 0.026614032748231396, 0.08063589979976644, -0.007060232415818954, 0.08757141435134434, 0.02277966727968161, -0.02860377575252083, 0.07426385765690782, 0.015135719207637476], [0.05416440078222037, -0.012692149678904642, -0.04098638231618911, 0.013424203789852845, 0.025012608556015805, -0.02853670827009145, -0.01140429535385869, -0.0602886872254499, 0.0034198233982724435, 0.04807044193039495, 0.040497949045457206, 0.029393648575000642, 0.05664965372960597, 0.011598738155912159, 0.03695197343101181, -0.0010044344020095433, -0.04387375055727766, -0.03169038957843801, -0.046536032936377224, 0.02012280183785848, -0.03859935098347027, 0.002430082904394655, -0.02314956552493216, 0.03633280085745587, -0.0013625982098470833, 0.001451054137483339, -0.05144822427278423, -0.05221305637842732, 0.06645773664667036, 0.03332674934827184, -0.0012523746237751436, 0.033932980864504005, 0.02972449872479833, -0.06342340869571537, 0.04445481719959881, 0.004201898407167409, -0.00014695034648418967, 0.02676583117291934, -0.015385940655581458, 0.020658319412959297, 0.06935297814129404, 0.017817609070587267, -0.029890784197009867, 0.04367322913589159, -0.037400295387252334, 0.024524676736516236, -0.05218186894876089, -0.03720328523032182, -0.04400272195523187, -0.05320186033018812, -0.02359155287546336, 0.04887483112070891, -0.011619412872542794, 0.13616117125466, 0.09021612323471975, 0.07069159628187058, -0.017324679014905423, 0.05956033388648138, 0.08705081705215179, 0.04475273030068805, -0.032851392075448495, 0.00996695786367686, -0.017873921876543932, -0.04335247193288276, 0.04560388446719597, -0.01948747178723953, 0.055716930532238584, 0.01906612396391244, -0.028866996477663297, 0.06708922670824406, -0.03357855124305385, 0.06998618278785193, -0.05999257325366101, -0.05068494497223173, 0.0020384513768693623, 0.02607271141120639, 0.04611649307754375, 0.01594197623681762, -0.011941865859293398, 0.025796413746845635, -0.005820948101264007, 0.018370600136310068, -0.03257346973741371, 0.05794983822652939, -0.10408707032167562, -0.032266215808467856, -0.0308462448131126, -0.031855871448513096, 0.021242427650511358, -0.13696510584316032, 0.0058138232106119325, -0.024724175711321135, -0.10185430373097047, -0.009542622099714107, -0.06737963673771184, 0.013630874903432684, 0.028340123938642797, 0.0695041188641441, 0.061468442971297, -0.018906220898343352, -0.051739761973698034, -0.08975831819963052, -0.019540977726358735, -0.041497307572430746, 0.12328030397011805, -0.06966059159928296, -0.125689210167592, -0.06983339744378901, -0.05632487048726316, -0.0018469002513522858, -0.05062174525267229, 0.03552837033404392, -0.043040859907613485, 0.006028216076574258, -0.008305012801928793, -0.054669743129443595, 0.12247059042402403, 0.03260427143128225, 0.07201647931784295, 0.07309920193579751, 0.09662371781766735, 0.03478097938947686, 0.09278258935345787, 0.019053310596376476, 0.03546196345175076, 0.001884906718832585, -0.044951345987747755, -0.0752850554483709, -0.005920924038641589, 0.06559176049498858, 0.0448141518574458, 0.015079169284801033, -0.011207726609111105, 0.08410376381362773, 0.0742082154103666, 0.1467191537864995, 0.175655027548081, 0.11792688037927715, 0.009901531883798269, -0.07293519994303746, 0.018670514612795164, -0.008729220201617023, -0.002292792796324577, -0.05021134701105662, 8.10242059496771e-05, 0.050800169599462014, -0.039040384264816146, 0.008957183912669059, -0.024207472359135746, -0.09877462426459567, 0.09205084944499146, 0.10416150212186866, 0.13760972637825264, 0.11812363313904138, 0.10275741535142878, -0.009455297477622892, -0.09297996539009941, -0.04682602530756658, -0.03417574953442339, -0.06313178301819596, -0.05121531973870034, 0.002065346824068241, 0.00576470359341107, -0.060616026845803715, -0.05664437919847893, 0.028192723113073737, 0.12210442218778066, 0.28122738213373705, 0.2952549297456942, 0.32157283225524086, 0.17871560946657938, -0.006121041890080883, -0.06941337526103632, 0.006223848970571163, -0.03386885101989666, 0.01971117077404016, -0.018023921609342446, 0.03132968205776524, -0.029053351266747972, 0.008111746123919064, 0.04053680181839091, 0.08524020974828457, 0.10647681995189007, 0.11797452893021654, 0.16883091946638826, -0.03620091132633571, 0.07749726181284161, 0.16398211986050504, 0.009527929864427975, 0.016376157784413807, 0.012629769769237223, 0.004685018377511519, 0.006799746417450798, -0.017918636206205738, 0.028012529137481704, -0.022229582654797388, 0.01398834947178581, 0.04356766308958548, -0.06982162802059527, -0.1793436220553069, -0.08463081354877339, -0.20913063440090393, -0.07680376020147789, 0.10037339614457885, -0.058904599673709014, 0.002539930539049362, -0.01107224837125266, 0.048125594306016595, 0.04016332985008098, 0.05324420148623289, 0.013632084159317453, -0.06213847123763626, -0.08551363530744775, -0.04935109449603792, -0.10687960609956726, -0.1948412935514679, -0.24037581279270087, -0.24396422067388546, -0.20660971481233606, 0.04987654219514487, -0.03425021094584568, -0.009903689091305328, -0.000912045098480416, 0.014874459112824515, 0.01531995919606929, 0.024861871821101708, 0.036660511540175425, -0.03929176132408225, -0.03222252334533476, -0.048657257322548525, -0.07079862623166709, 0.022450757174463265, -0.04648334254833236, -0.04936577420049945, -0.07257833294823822, -0.019370764911725465, -0.014447834731118011, -0.04874159185206957, 0.06826164342576992, 0.02397654793251086, -0.03023236890320353, -0.04682479742827878, 0.01695961860316217, 0.00900119862744004, 0.08212111870243073, 0.054692398593122395, 0.04572484053534291, 0.029994799836529668, -0.06533078730266721, -0.03693833263201539, 0.01871574913514115, -0.0395800423548904, -0.012979484125479534, -0.01899137277925111, -0.01577196567927116, -0.046691144062616374], [0.013594787614336006, 0.06306870812464574, 0.031948721485020516, -0.03405051385465648, 0.02560256949096999, 0.022522101140242983, -0.022183716515220362, 0.033238708321376605, 0.013816826966972968, 0.027489337526001436, -0.04481439855459524, -0.0005484425584802362, 0.03650778617471444, -0.039725272521339026, 0.041915375104898296, -0.052911353770202146, 0.01492828419894961, 0.06345197714164498, -0.0035942598258620175, 0.06602896710353373, 0.05737722158863644, 0.025072002963827444, -0.011135784080616254, 0.08272973010606248, 0.0035066987696493806, 0.045245213391996546, 0.07799541547366207, -0.024083380976256157, 0.01972328338608933, 0.014118494230621519, 0.038896209698680524, 0.0650309618685882, 0.06339105096610384, -0.030760412759198198, 0.05993947732595467, -0.026815694092351464, 0.07323914404120188, 0.0774642078722096, -0.015437898993364117, -0.0016504855223005, 0.03283903737681359, 0.056119340278547994, 0.049228071684473296, 0.049847661326019366, -0.05162331827525371, 0.022987152021105038, -0.038467202632329146, 0.06956906975616953, -0.0187526023399708, 0.0725098758363423, 0.018157843305802054, 0.015048562154929135, 0.057388317506195344, 0.009751022794317379, -0.045779059951402974, -0.06168771690450823, -0.07214311261720041, -0.05920995435948182, -0.04551710153594578, -0.06705934770354678, -0.04237925097606232, 0.0366308227540542, 0.04357922511538955, 0.018050842334040394, 0.04210453086324909, -0.033226661068140255, 0.061231768422801834, 0.05098990661597727, 0.01052984345315315, -0.04314432424161405, -0.09318083188114204, -0.0009169857072223456, -0.052223500933363934, -0.0952658595950294, -0.053305365668415025, -0.04695092265724553, -0.041610592645535543, -0.034214731208922135, 0.03560681708758949, 0.059218977591989894, -0.015411211586402908, 0.03601908170945247, -0.048367017475892546, 0.022665849855342684, 0.01725667882919805, -0.015969703183982303, -0.04836611598471984, -0.039464502101770965, -0.011845927362117243, -0.0037371176375749202, 0.05525677246394106, 0.06096470828019482, -0.01593906269024099, -0.03974329071483551, 0.05527852848156264, -0.030343859020395304, 0.0227170852832222, -0.03619462318602488, -0.044390851573826946, -0.05638148660266211, 0.06589047103851639, 0.057556719014929425, 0.045136641300495, 0.024279371510188445, -0.0017723390999826504, 0.033562872734184394, 0.07303034480606742, 0.00971766074635941, 0.0019471727742639499, 0.04596554876354305, 0.05309880808597067, -0.061585768854832676, 0.0016774192721075016, 0.024877050286802777, -0.05009613224089527, -0.008359488952702589, -0.09713242473117703, -0.0065737131456973154, 0.002257954423261963, -0.008009856978492982, -0.046569801483852535, -0.04102703160980244, -0.013212214891685971, -0.05221719892796431, -0.038594899953628664, -0.010598821488251626, -0.04646847742235347, -0.00677628593518275, 0.048981649641839736, -0.005011481337939364, 0.00308749009578656, -0.010465375954979261, -0.048948650571416216, -0.017481392189263804, 0.024429998313664214, 0.025343709942023774, -0.020356193718761927, 0.040645790400199874, 0.031000029163568487, -0.0019828680716516573, -0.06273727774084371, -0.01102170567468941, -0.040106257620084185, 0.05072414201127138, 0.06046827743156319, -0.05305836142212814, 0.06414777342737563, -0.047445853827593656, -0.014624398483163556, 0.029738850280897, 0.013555429295930359, 0.016413916463581885, -0.028197805512265462, -0.05242984951186287, 0.051660413670803644, -0.008310691341223447, 0.05882671904659259, 0.06663173355334892, -0.00482137589439766, 0.022344567945163672, 0.028755797672771484, 0.004464584134807599, 0.020577506808533166, -0.01556263869326496, -0.04032367425169376, 0.0031198657005412564, -0.020874266031697987, -0.04632795669291948, -0.1182154541205484, -0.12917394356515702, -0.06119961187414536, -0.016779595803259308, 0.030094553304361078, 0.018349298097278133, 0.010998710083359122, 0.0322677041395014, -0.023603193357378663, -0.017775216563285807, -0.03864548237744396, 0.05493988031319576, 0.034308438625314824, -0.04498820820318219, 0.04395615255671041, -0.08049348455169525, -0.020574331901716043, 0.006865211513471548, -0.07617663510017714, -0.049308090318227235, -0.02890138574169338, -0.04748924308428734, 0.003807019617608721, 0.018082549141469333, -0.04813266438698941, 0.029427422321529114, -0.019997722569876853, -0.03673885106011482, -0.024775122161619475, 0.040018133335952874, -0.04813539530940425, -0.04145052063402649, -0.08293038087821546, 0.011759102065920141, 0.023156582568212253, -0.02588364989708768, 0.0253018355783644, 0.01749352112895145, -0.02684440393414095, -0.028536551422243817, -0.0339694457028049, 0.02833026601671102, -0.029092389890321858, -0.030068994108152298, -0.05652618072693813, 0.05927305854495124, 0.057086252901065886, 0.052199645210884334, 0.020218703378138678, -0.001955301341158923, 0.010181883850089798, 0.053306652843963305, 0.046525331943296645, 0.016433847453510366, 0.03839920013206885, -0.020069328907737445, -0.0017802937144841024, -0.0360571420967208, -0.010924815088111814, 0.026951815463043878, -0.011903011180750125, 0.037768319941921404, -0.04059536782195235, 0.008027671922238747, 0.015329688921037893, 0.031022895423307408, -0.011223302022635013, 0.05039756072450388, 0.00030564321424377477, -0.04422771747329187, -0.03262162289972443, -0.03378739490124588, 0.02730831938505229, 0.06206545579101171, 0.05063291790030431, -0.04903363739232819, 0.020822605376246486, -0.04724590646236672, -0.0349477682545814, 0.01654223058335837, 0.011620832784986735, 0.047855000880301535, -0.045673404329108665, 0.02853557613149736, 0.025373192403365247, 0.0068732344284473945, -0.00017370538266971432, 0.05817975889373801], [0.006374687079566236, 0.08619781281271895, -0.03490768117498514, 0.0759271138588264, 0.0910391139718944, -0.024315634651165003, 0.07876002203178589, 0.01675600330301624, -0.01663707060235735, 0.03359787817257622, -0.024834069843229577, 0.06830089740954155, 0.023657874859603727, 0.06227385178372253, 0.005848755737229274, 0.023819159661315727, 0.006631340709149753, -0.008416681501590223, 0.029542039511366976, 0.029159032872158548, -0.04657733800195098, 0.06597616198397226, 0.0008715130201407067, 0.0474701244348655, 0.06640032661918807, 0.0012076711602352144, -0.0013884070140655182, 0.01965975783499248, -0.026877891095133624, -0.029651179019517287, -0.0072770094623757905, 0.07774180082083514, 0.03481574475903906, 0.00882435048600998, -0.023727761017103277, -0.004996546615355023, -0.018201848515614957, 0.03853807355762517, -0.0030060948212487044, 0.015468597758172208, 2.6857349650397672e-05, -0.04290032337309883, 0.036634200959976784, 0.0700923583553327, 0.020237716502779196, 0.013291890754392488, -0.02857925403279255, 0.05345266463559921, -0.021944375291936196, 0.03975185941335673, 0.026963284413616225, 0.03565837058729867, -0.035007243228335726, 0.003573651293890821, -0.04998804518426539, -0.028543809011423626, 0.032023221491894405, 0.07219390179559937, 0.042896676787978934, -0.008488360241132828, -0.006643415774114247, 0.02217291305629551, -0.020717099822458385, 0.03462870838678201, -0.0325106299241259, 0.02983905901635358, -0.02694804953602431, -0.01665588490073622, 0.005018174189384079, 0.018290167708114206, 0.1777029321157958, 0.07815595706764616, -0.02847197292451927, 0.11896842375677136, 0.029090171166952058, -0.0164725596827265, -0.06564420370552677, 0.05061061269603222, -0.06051654508789181, 0.0474441259473885, 0.03798226272485857, 0.04378953743448527, 0.040735298904056895, -0.052630877720681424, -0.013915851442549865, -0.03420638743564564, 0.03815521008189252, 0.08951006840833597, -0.01765649885297258, 0.12243541741791843, -0.01799871598489357, -0.08721530524268647, 0.020737077186834783, 0.02987784029456132, 0.06357680046819623, -0.03647123949116562, 0.04016092668433403, 0.03659283002115801, 0.004672070832970006, 0.03252054778767745, 0.11871297756243344, -0.06962013474769749, -0.12346048791589996, -0.05219686928127743, -0.24467682373243468, -0.14392514072012133, -0.04114517173225586, 0.033512563055409186, 0.09954309356136917, 0.05636116529947182, 0.008111860174825979, 0.04039602357531917, -0.02147423755569196, -0.001821900272695537, -0.06927893839334479, 0.011097939193328268, 0.1158962146340441, -0.0516551229254007, -0.08188247090814556, -0.1534554351253307, -0.23880710141894063, -0.08100139982612958, 0.043007844058920226, 0.05371881043274393, 0.017530706951426264, 0.0731314650005527, -0.025663277543155, 0.05920872680027152, 0.03135036629533094, 0.03631625558452595, 0.026145415928133228, 0.004413804389437729, 0.052644570906430585, 0.036340948754785087, -0.07518005185125361, 0.11440143091045499, -0.00822013391384859, 0.1277859882957469, 0.0034675902753409414, 0.16078912815389393, -0.010884751249254343, 0.061493986987484185, 0.03840049777032431, -0.0026810769198622373, 0.07745789201109861, -0.06633020234314889, -0.005541813725257944, 0.05048129111639219, 0.04973835133631126, 0.14848755449771261, 0.18332183033428462, 0.16453037481385735, 0.2077826102279907, 0.12456304059560509, 0.09061081335936642, 0.11337082048268952, 0.02095748417619905, -0.017964163592593146, 0.05997788753616053, -0.014705096090799568, 0.0477338040359736, 0.016453649958636192, -0.07061227850710072, 0.01612900377098138, 0.08420206713312496, 0.03273211966249321, -0.08658638862812826, -0.07614744836657814, 0.005599513008010731, 0.0014634081845039334, -0.04049615833108428, -0.07609697552029072, -0.04602720759987554, -0.05307692139077253, -0.02240385418153195, -0.02771471353830242, -0.0038764496505615162, -0.05139246815655012, -0.04056448627603278, -0.004608344075812914, 0.013493902235858555, -0.0573126666761335, -0.17361993998363703, -0.05330237126141975, -0.12318556494567583, -0.0044671978137349674, -0.16212864395805976, -0.12392831585659206, -0.01720207137512756, -0.01909076602622793, -0.06188084804922333, 0.04018405685978105, 0.08182122994614355, 0.07297984299229932, 0.00034394300157711434, -0.031725893649240694, -0.004554337990813328, -0.10877506426311867, -0.04733982712217032, 0.04959131152222399, 0.03945058492166703, 0.058444553606968395, -0.03948742378768586, -0.09001607121886988, -0.07218831680309562, -0.03655572201309461, -0.03761556309892727, 0.018759346613546373, 0.0411719154259355, -0.01800528563749757, -0.034413660838881754, -0.034255359615104765, 0.06166910131392574, -0.037199802301495846, 0.030237526730266574, 0.12350645725974643, 0.052216632999652304, 0.07052588293552318, 0.07252726599205352, 0.024604741069398438, 0.04980560337987197, -0.06142798443185167, -0.007847058910202565, 0.07675848234769547, -0.012464264856810845, 0.005566013064817468, 0.06979762917027994, 0.07701933475402523, -0.03966698993916194, 0.01857776736516177, -0.026292212298715586, 0.0083645565480986, -0.052445691801227566, -0.027931649898823373, 0.024397638157540227, -0.01626600223896547, -0.06334346075354295, 0.03220515284938137, 0.025602609476497333, 0.03469643040516413, 0.052168923694096245, 0.030354899103172826, 0.08769079740360637, 0.017427200988155978, 0.03559702175521019, 0.0043482884212302664, -0.016758362486048357, 0.03146528058739876, 0.060313011803245095, 0.048899527088840024, -0.003200270329867853, 0.029079117347105814, 0.036637447455612406, -0.009574612832571713, 0.05019943840944952, 0.04929897990044477], [0.04215667952621178, -0.048341192272574184, 0.07081350986846463, 0.007139796701758055, -0.014456225137137655, 0.00230450092108188, 0.06132984097194031, 0.031145534701367474, 0.017527534484166704, 0.043175678573054425, -0.002742938911929466, 0.060086193257147556, 0.018887185825668992, 0.02238695447744022, -0.03873387486980311, 0.04709349242279023, 0.026625364926477157, -0.007179972260746256, 0.024135805132529185, -0.060878680124911426, 0.07948681007124435, 0.022420587011752563, -0.022315631717418554, 0.02375439366996492, 0.04242368618351587, -0.03140457294252867, -0.07826486786832033, -0.04480224137187528, 0.005888995012321296, 0.017270185150023307, 0.019446841737316384, 0.015390171021857645, 0.00020716795900574782, -1.3975057391401365e-05, 0.040441677934888336, 0.006705265334219419, 0.0007197214555568138, -0.03831525999659357, -0.08860746433136239, -0.08247337369549455, -0.012284530514205184, 0.04317403932702678, -0.07390038237100219, 0.01814907355416356, -0.06346679323113412, -0.039945660047472444, 0.005868768615133906, -0.019480700474169183, 0.011878398768228538, 0.013552877626176229, -0.03002296780338686, 0.0379595209078607, -0.01819477918809682, -0.016840075438552635, 0.05371929766417238, -0.04811778909857929, 0.06948275658053481, 0.035638687745792264, 0.03555113659164054, 0.020284816857593174, 0.055492252226392744, -0.0331676197064073, -0.05996348775774839, -0.0185796851099131, 0.010110891468862643, 0.049961251538860794, -0.02462039626478182, -0.00529549587978291, -0.0552529411524712, 0.050481570885219186, -0.13552390010044899, -0.08583834684838142, 0.037502057473321006, -0.055999768334857924, -0.035673021565254925, 0.032275036725546054, 0.03631586983647166, -0.03936004030941292, 0.015193451071923287, 0.03725554891775583, -0.03807541727269322, -0.055527230674336264, 0.035488720083761804, -0.06825780098532885, -0.08631256459842421, -0.02500958983816793, -0.08369828936436173, -0.019564279698018685, 0.1083626393266952, -0.09873807984370943, 0.008169623151258031, 0.06346655019103567, -0.059855040428518455, -0.042115099012946314, 0.02230942093032234, 0.001434540178309847, 0.05288890603266991, 0.029339814608231974, -0.036745835702144854, 0.02974117450407222, -0.15728538903158792, -0.03769363106625699, 0.022734946649158913, 0.04521550173157177, 0.19868108122322597, 0.10427026523420443, -0.013478776797932978, -0.04470209387555928, -0.19033372562685982, -0.0397372966643443, -0.05501983596709809, 0.02264010039667576, 0.026600446616579683, 0.0246683449799225, 0.05569703089907213, -0.03458016315863043, -0.0010119585128554058, 0.055424676786533594, 0.07816587500779956, 0.11499346023853711, 0.1728345653019407, 0.15304088170370778, -0.0010470787557233616, -0.048981378939483115, -0.0032495691970937375, 0.05002894285118123, 0.006135856943450558, -0.0037332978471445585, 0.032011643850105485, -0.015843243059969366, 0.04255723508918486, 0.01257833087749265, -0.09742133221634494, -0.09535099323832918, 0.11196619590340963, -0.01104594327313683, 0.04696134411493539, 0.004433549326479499, -0.012741812363777444, -0.08890707801187132, 0.033515889058418936, 0.04598317008878609, -0.00043840462827237617, -0.040708257274996225, -0.03362439077410754, 0.046333610150508193, 0.013768044123226268, -0.01672003767916287, 0.010340078899989344, -0.09624086303375487, -0.004874812939644456, -0.03272697794631663, 0.015753093761602617, -0.09288634386876143, 0.013020846126985614, 0.021155307716314305, -0.028046412770343414, 0.05776665790024975, -0.04142149695957317, -0.007325920835691342, 0.04419514487433728, -0.00417047263396919, 0.05550976940566862, 0.03157855772446134, -0.03207307687607587, 0.07748905436461302, 0.06815426647907724, 0.06252412764684193, 0.1069317702910034, 0.0778338450779621, 0.011544032194109898, 0.014396790081509504, -0.020417735452466446, -0.049276854185347996, -0.07159938576681338, -0.007506176459606468, -0.019534295331289992, 0.01737153884889358, -0.04549780123162707, 0.02682810047999061, 0.007548804987412741, 0.033518293531871135, 0.12832195589147374, 0.10508115043216913, 0.0631207769980434, -0.031165160626484563, 0.18891353004135808, 0.16785078038055168, 0.05634457254450881, 0.04656948665627383, 0.046091282813258506, -0.020600673693413757, 0.04359494083989545, -0.012908829645349023, 0.030974775599898106, 0.021247468128971016, 0.036293450990865, 0.10696141332611904, 0.044160649533022865, 0.020709200193473744, -0.052121376574005396, -0.01709533513435473, 0.028136979388229618, 0.10703680735384127, 0.048787051233400915, -0.07755784556803223, 0.02525262799949392, 0.00874987678944476, 0.05500993141285983, -0.005857249257132622, 0.05772861544339687, -0.016238570991571454, -0.07973302646662306, 0.04908468244514689, 0.00018495076323578772, -0.04214774610940419, -0.0538176070896637, -0.060266459872306014, -0.06803833805131877, -0.05520243803121167, -0.011603814779390065, -0.0018910862443486972, 0.00365322800119323, -0.03144725927436591, -0.018981795520578774, 0.04430246862549192, -0.00011715722668056525, 0.0044801775648468265, 0.020730947105438557, -0.007731395699789725, -0.0018617555093687335, 0.022126906969563938, -0.023464029601209115, -0.05424054225008401, 0.045764715580613895, -0.006235040279776404, -0.009076228509157376, 0.04417591339826078, 0.0024574535365983283, -0.06759820764571238, 0.061649970883977376, -0.02789677315723341, 0.02445407097250523, -0.03335533031722975, 0.033647295133942844, -0.04236052302195125, 0.06541694712864957, -0.012794369572018044, 0.01937003630393986, -0.015234886571732003, -0.0025207990739928147, 0.04973599772930913, -0.025548029709804392, -0.009458084405103916, -0.026986258516702864, 0.03379843534817682], [-0.03462056945897497, 0.01825684892467738, 0.024110956443004976, -0.06394481832701703, -0.004469681612177109, -0.045265025239555834, -0.03427212988408724, 0.021747726225172688, -0.06251893032123594, 0.023683201708624906, 0.03900732261296179, 0.06078848763023887, -0.008583554998005805, -0.04612613380802445, -0.054693862811299704, -0.01487163519587795, 0.03008975447501561, -0.050705993112291334, -0.02533800507053222, 0.04739689462348667, -0.04427035910039045, 0.027408653316875028, 0.021616233664153453, -0.05555288873140223, 0.05116024691693466, -0.05500074007908341, -0.006738668141798932, -0.07422081750263608, 0.01501249884530683, -0.007518689494679698, 0.029391101589884713, 0.01624702913145553, -0.04364879093857232, -0.013528700238750207, 0.022209220530077345, 0.03799883740692708, -0.05668374766188403, -0.04952311588875979, 0.029148568746052567, 0.00954591660151624, -0.007693642946795245, 0.06404918635915864, -0.025506328647994014, -0.046419096877053555, -0.0369698275144138, -0.0633690489432152, 0.004189108852200952, 0.012575349665851917, 0.013121334241104484, 0.03396053628521965, 0.01637408163523264, 0.043278959066358716, 0.0023352253201590688, -0.020766366646126282, 0.01733159477144727, 0.013002827900790813, 0.041885212382994565, -0.014120526366373658, -0.048520857327399594, 0.06328026324561432, 0.05361624448898946, -0.006403225985480492, -0.05748823930697608, -0.005414700698613246, 0.011676729055679723, 0.006142609734639442, 0.062392899325745876, 0.05870770605470208, 0.0439086403627755, -0.06078241168816967, 0.07347363555093663, 0.01172670605077631, -0.014453487327809898, 0.022764593182150083, 0.053005562134458215, 0.05663412741250529, 0.031224590220361528, -0.06990295976877182, -0.060212121475811335, -0.03296815355329068, -0.05823967312935743, -0.05719718978701133, 0.032663215448620136, 0.0008756141148114358, 0.03238810572523934, -0.0014996839389795876, -0.0037412639023260896, 0.03575769273075387, -0.0662614023881397, 0.003414819540632796, 0.02706539096533944, -0.04411856390121529, -0.005867627302098805, 0.029761910329413516, -0.03749471373966964, 0.028022511126380708, 0.0023088451825632535, -0.011269606738983478, 0.016731370054450672, 0.041124281790193506, 0.049020370139864815, -0.0562365739674765, 0.01661622557154831, 0.015928013458070978, 0.011529839308527981, -0.06898104962501246, -0.0710851268633077, -0.02042696237319977, 0.023988652300323942, 0.018599359110819363, -0.0273619292727172, 0.02445035199637735, 0.028687963115073534, -0.04558225845456155, 0.02410855788738119, 0.022024085330265706, -0.028232975780592248, 0.0824162607241846, -0.018048270055169943, 0.031873902997099926, -0.007528951607296955, -0.043623505770596115, -0.04896705724623159, 0.03950347438081681, -0.025046025184357265, 0.05031643176996011, 0.03154566059916706, -0.063351581724789, 0.03671848161554277, -0.027934255714668062, -0.053017816594602266, 0.02681698587902391, 0.007419748200019548, -0.038910059191244566, -0.006881204146228775, -0.017576674484200507, -0.011219986619795461, 0.00719689067850679, -0.010792290974278177, -0.02660890075544572, -0.0515803788801157, 0.01146295437588444, 0.03304033908535686, -0.03461403034767883, 0.00012697958476441264, -0.05479606377759722, 0.04022943598940358, -0.03727594766680746, -0.008552577224737849, -0.015116268813373062, -0.04626496275563373, 0.050571858055995636, 0.04117155620149867, 0.0014297394717613413, 0.05285370286977532, 0.031134255924561535, -0.008006108451023076, -0.018443901790795213, -0.019175381231769976, 0.02185105855394806, -0.02886173372214382, -0.05125337901256875, -0.017246608888656492, -0.003548578006481966, 0.04739448122065344, -0.05013659547520492, 0.053845356326048636, 0.07773107645192023, 0.0784298526702608, -0.035645695963723585, 0.015464722424183178, -0.0361968936334655, 0.04673249201614253, -0.0174718600570666, 0.004244100266474381, -0.06671687458064857, -0.03676537173244804, 0.006190987254868826, -0.02715477762160732, 0.015290484999197463, -0.0038762166976027295, -0.006451432317014659, -0.006445869867546007, 0.041907699724414875, -0.029918769906598242, 0.059247860188213486, 0.03234391102750583, -0.0390688671042293, -0.05817178110348398, -0.006352931686583138, -0.03522662156263066, -0.025836684434156574, 0.04281396297793918, 0.050644487131205215, 0.058266031782826105, -0.06572754515313216, 0.01876519110355448, 0.032745504987408657, 0.021029574751756066, -0.04838567707155731, 0.0013716886793325226, -0.03484265893052589, -0.012829084352018934, -0.07034215859566723, 0.0663057417717234, 0.01852780217024447, -0.058079453154785285, 0.055363783844614795, 0.051065100860982426, 0.0006428711990954558, 0.02070264300607821, -0.019209184815747456, 0.05493679000712149, -0.05075523122807614, -0.043529752295569005, -0.04018628746388018, 0.047177323645159794, -0.04612798588065249, 0.01816668593011198, -0.0010617639398437287, 0.05017485082403645, -0.03974666529862344, -0.035218706150194894, -0.026679184392888664, 0.03545232358388781, 0.02290879270331445, 0.03342072244738033, -0.02376205053393535, -0.031448674069298216, -0.060099173881542345, -0.04400837631680313, 0.026562928884370004, 0.010166928491536364, -0.04521255029442653, -0.0489242273142143, -0.013785791535279798, -0.018392172545113324, -0.0014811366145184514, 0.060207824971421256, -0.035492207715532374, -0.02529387376913314, -0.030309218902187133, -0.0482916888237346, -0.03728797707898543, 0.027361173288590588, 0.03863406973183081, 0.020771426246831835, -0.062923125544949, 0.03318005061638749, -0.029001008437768053, -0.05623216995585665, -0.036102860371261876, -0.01629536724735005, 0.006126057971388378, 0.024195824665392586, -0.030099167495375008], [0.11341309478665196, -0.018316625669318038, 0.037892454971340625, 0.01774537471168263, 0.07457798541634515, 0.004909712281210589, 0.02929733278686518, 0.05951810864646761, -0.029618873444696315, -0.029923755093583197, 0.04770104484461261, 0.08218485892518414, -0.017608576514495825, 0.07995666976223384, 0.012918151781001898, 0.03704181533079575, 0.0679100092220409, 0.049994017976038835, 0.01876134118897586, 0.07531049827999334, -0.04591911665108915, -0.050534483226982986, 0.06226615604838595, 0.004292864160057727, -0.0018028532936476187, 0.08978743958757263, 0.08055034550864787, -0.012228909338192422, -0.030571487271885307, 0.008377341359368188, -0.012360987504286979, 0.051933355505634805, 0.06753725003593367, 0.0029488552877045314, -0.04874869828992637, 0.03738898730864546, -0.0462167108962622, -0.010582558502252884, 0.005470601966482436, 0.004019766545679674, 0.0843983679651118, -0.041722784912849156, 0.05858672610472174, 0.032627811493642446, -0.010404156503933787, 0.011482559820635356, 0.020690078803414433, -0.024747351545754713, -0.0006491381865534284, -0.04073049410947946, 0.03559073777135383, 0.03416398295259887, -0.06807966148204815, 0.09381904902108543, 0.06466222749948129, 0.09293746503489626, 0.03342888724322562, 0.06935237113741881, 0.06030487932935351, -0.02619096283467673, -0.004744418743426073, 0.06442841229306724, 0.02695454265489854, -0.021624498333011603, 0.005199855698931608, 0.06303521318266302, -0.016667690925992844, -0.01965530438679948, 0.0024274702190211096, -0.10858448051676951, 0.3706888744836869, 0.19200742476143856, 0.025046237933753955, 0.1825855866543699, 0.17946735102190395, -0.11561242734905218, 0.030943224698119685, -0.04523141012033799, 0.08168779138784694, 0.08158779869310345, -0.04023677887184181, 0.08701272777440741, -0.06535530916324651, 0.10095898145406176, 0.07533589291718397, -0.0988370912073434, 0.12824496247690023, 0.24036670808530225, -0.16823705631847233, 0.2611238607286454, 0.04864929507978607, -0.11735195962556749, 0.12073319908487938, -0.03659308769754583, 0.00864247285514882, 0.07577188445224976, 0.03653400058341498, 0.01974416779692831, -0.06994238143798227, 0.07026735418066046, 0.304655433596118, -0.15627942608188444, -0.1792756155876248, -0.21076623538785746, -0.4468580933480675, -0.2645248647319043, -0.11029271375638815, 0.0720861816932082, 0.25464841029221996, 0.0644905670170662, -0.02834598197091278, -0.06534573581836016, 0.08277632957892926, 0.060058599677809896, 0.001463123065885941, 0.04971511847017247, 0.12822814485784606, -0.1606012203840361, -0.0891315220525718, -0.12113655703104054, -0.3247058500578488, -0.23095832265465244, 0.01824085740241643, 0.09741736677212487, 0.11825596804925816, 0.027319205912702066, -0.07615743055863805, -0.030324304796460776, -0.011712097295384223, -0.01736433502825739, 0.05618827810075246, 0.0541316406659931, 0.20003979151960835, 0.22453793691059934, -0.08677466204775279, 0.22293577355666672, 0.09810722306602129, 0.22638619689521527, 0.08115162824647608, 0.13436602030505124, 0.03565369271764447, -0.028457976250225135, -0.00951646027832417, 0.024536167908283002, -0.02266461773629018, 0.014351176085347073, 0.060887243236116995, 0.00227283955386261, 0.050763362122713616, 0.1395109312494671, 0.2370737240844149, 0.27316168338421876, 0.3168297214718649, 0.4217092352075917, 0.25094622229693087, -0.005688947010538714, -0.02952381549901644, -0.012930887256077566, -0.01077433477301406, 0.015429043966808598, 0.008855871175951026, 0.07165614313534097, -0.07436856447342916, -0.01546030250070288, -0.09477617561168677, -0.028076278239028817, 0.05357610129758402, 0.23218300553836851, 0.26610173822710126, 0.18166983724778474, 0.04699781833442746, -0.1236914961213089, -0.12855319425122883, -0.08414156272673232, -0.07569168196237686, -0.039103559251220645, 0.07751661802545506, 0.033672500161720034, 0.04131174298944017, -0.032215494696172554, -0.0877747308588177, -0.03694622519942281, -0.1500853466479798, 0.08705242167964106, 0.20990730656018083, 0.07133050633066419, -0.1784961908082311, -0.2031613921687004, -0.09106588398640841, 0.02469160018815115, -0.02067522156303635, -0.08209606226060676, 0.11632331629533522, -0.0200446624596021, -0.04674095969923032, -0.04724443620908734, -0.01690708877541029, -0.05947638496133245, -0.1625442692501056, -0.1589665068877316, -0.034454633049526125, -0.11644020430015137, -0.08913113963375785, -0.09960681867609214, 0.0038327394617374316, -0.020777739761318522, 0.017852790105141042, -0.06845392000777528, -0.00955661300723338, 0.005885767053241354, -0.03024849888385483, -0.01632916942845651, -0.016371600046194493, -0.034669905021318156, -0.08336712345067118, -0.13028762908612604, -0.21274108464044497, -0.16219281137331756, -0.10480202129695076, 0.02677910710464721, -0.03788182640471402, -0.060187736332903294, -0.055700748159299415, -0.01257122056131419, 0.050335838585334754, 0.06327966757872791, 0.004533727653808777, -0.028769988715872424, -0.07426114866848751, -0.12261303354825961, -0.1609503428060293, -5.290070615663561e-05, -0.13059407236728074, -0.04313090820965579, -0.08826389500085, -0.04543854922293056, -0.08927821622798851, -4.7406030185121567e-05, -0.0007768907882969619, 0.09041756124370126, 0.02979557374240634, 0.03195730620165892, 0.021614111028199327, 0.05889718883443552, -0.010088694279827342, 0.0071133694703289126, -0.08792566658388584, -0.003972273922232196, -0.021040273872559807, -0.08437483089039144, -0.0512771488557189, 0.009291083283179858, 0.05892772468602316, 0.0676358529701008, 0.04550042548850384, 0.06723506755227208], [0.06475992659543693, 0.009722188634627862, 0.026693475620989417, 0.05828465342240378, 0.013471213647717644, 0.056960490549813184, 0.010599322415786396, -0.04375722822938241, 0.05523657557216269, 0.03744142064062222, 0.00296440046716737, 0.06542784212594355, 0.05671245992045619, 0.04219045555795979, 0.028868259285913193, -0.03519871481553958, 0.05429776589723236, -0.01972953798014666, 0.07804575551505895, 0.06889834263544078, 0.04043384489808731, -0.04340844360318836, -0.0035959658407424726, 0.07091438267612014, 0.013243158173932571, 0.07419629622511416, 0.03355888186342445, 0.048101886466839466, -0.020525321787940604, 0.06227803128062107, 0.07397713505412953, -0.030642320618152096, 0.0035084444112525553, -0.007857006530399807, -0.02534596493077525, -0.027104740769214555, -0.0048821636025691995, 0.06698782699206463, 0.03868809617852872, 0.021043483881432984, 0.008374107743379447, -0.006996925101649206, -0.009507916349948617, -0.037565847356740366, -0.009340577123905338, 0.03904455358387009, 0.06705770889623164, 0.07405628723332376, 0.022270673795973483, -0.05022336669381939, -0.009557011808164822, -0.005398931573017566, -0.04459738351363432, -0.0183508218683871, -0.054217726674982376, -0.006530091487873707, -0.012832379346431382, -0.0643132207700224, -0.04686580625165365, -0.11417698276773, -0.00628447042161985, 0.01018628841857954, -0.04915004482423928, 0.05317320403874578, -0.004915032202209536, -0.008428235403909358, 0.040744027631348774, 0.028920488942702355, 0.007893547093607173, -0.08211783191986449, 0.1409707957967543, -0.0032069268344310565, -0.04638998738276271, -0.008607659422993333, 0.059142212590937056, -0.08298702684277394, 0.058530855013465166, -0.05931706604837853, 0.0538335283849101, 0.0028127387417355974, 0.04094366053622099, -0.02883934912669644, -0.004256369269899599, 0.049903530345940694, -8.892507073454017e-05, -0.01629158859412371, 0.0790124538740975, 0.08782012045418369, -0.030666856413526955, 0.15186813677250707, 0.07149468326331684, -0.006897855529362824, 0.0073716737991009655, -0.006461717262123494, -0.01415613359975861, -0.04886315250025614, 0.04614418670610796, 0.038166210987698575, -0.06210855579036323, -0.04788024667836252, 0.18843677061316533, 0.03158264469800891, -0.06773615566794594, -0.08686739720674887, -0.1281399351872459, -0.06258054220451513, -0.005823445148688716, 0.13820940702063153, 0.16794836582462866, 0.03459856611979511, -0.04419861178858391, -0.07849341432235636, -0.0015004377821236081, 0.00904480055287873, -0.04004645257367755, 0.08880433923028591, 0.10064655470242374, -0.09118458931949416, -0.10195808932019329, -0.028155697861383222, -0.12739989576147218, -0.10399556378448095, -0.018886866462635262, 0.044018765557059455, 0.01872587023400055, 0.032697649258759974, 0.04530700025890145, 0.02813450549277313, 0.02508160730033971, 0.02653703151489211, -0.01686998185564422, 0.01140112011245233, 0.02949588453697927, 0.12850248997746921, -0.008571426368447132, -0.020315852866947617, 0.05776854794571063, 0.05833663125225186, 0.008769440978550893, 0.032516962378609716, -0.018716142790578493, 0.051220952292314166, -0.013391609863481773, 0.04807253769547863, 0.02065871294462531, -0.027542531360684245, 0.0027864012643646565, -0.01664618754125554, 0.01730152617093105, 0.03963181995919412, 0.07968096356541195, 0.12028836626826439, 0.05637851526449596, 0.023270441645713933, 0.041159168783398904, 0.010494955538634231, 0.04235905181376444, -0.020996566769585764, 0.028177122226478935, 0.00705953306331671, -0.01621717941338994, -0.055713200251109665, -0.05407391722714524, 0.05114907708987486, 0.02582731289034183, 0.029633179718112867, -0.02537198719253318, 0.0031112494595966467, 0.061832941322779514, 0.0038139251285137427, -0.029049867768831252, -0.0025515630980344254, 0.03533384311151115, 0.04347434669251195, 0.03086219576735161, -0.007791675131795884, 0.036119141967683864, 0.0066049899601549585, 0.02159397702406357, 0.020181735559834473, 0.056085015514993286, -0.04427294855438085, -0.06676567632813238, -0.10911310069141453, -0.13331518852099747, -0.04250667028351528, -0.10036418809101808, -0.1339697523524964, 0.025741746975418662, -0.028822819471946894, 0.007989905525807918, 0.003877398991490743, 0.0757506715185254, 0.02378890136438534, -0.018722322204757075, 0.03965684424007458, 0.045487853430752574, 0.01216913899114628, -0.15750365802540645, -0.21267311264058045, -0.17822141187755536, -0.17923337621154012, -0.030267918435448973, -0.009409860855616245, -0.05103952989101079, 0.032458186038259056, -0.03978441412928328, -0.061111045510102505, 0.0023334137646994525, 0.04455705216506025, -0.029984059886316246, 0.0043177456816585235, -0.027865677136439317, -0.05056777689590476, -0.05733199291310533, -0.04533120582119624, -0.12998617326073342, -0.04868783751151994, -0.05252791200434716, 0.043355524967229775, -0.05361114110361017, 0.022192565953091364, -0.01718691637391286, 0.04698970126834254, 0.00104245804272438, -0.0032598965106803222, -0.04610621233876183, 0.04545978552947803, -0.07250571620256371, -0.07449048942954781, -0.059013578600674396, -0.01922654224241208, -0.001194794394384109, -0.03489408004645505, -0.06423199989196916, 0.003515413670111399, 0.010625137059929146, -0.009437835052425236, 0.024105011633847106, -0.023938191274537182, 0.040119786267057804, -0.042575401324829634, -0.006705300300887183, 0.052725950254462056, -0.0414607693348629, 0.033868430249453164, -0.019094428850272203, 0.01524469757433993, -0.06767160646023375, 0.002001978931008464, -0.001114730450229974, -0.01685052749186255, 0.05236435661084069, 0.0024934397399652163, -0.04305862914773719, -0.02099088215802613], [-0.010345046576994603, -0.05576712664016152, -0.011092512044990717, 0.04669542503018645, -0.038754157686340746, 0.022115403904628607, 0.022857388813298542, -0.0256028550792647, 0.033913024400705406, -0.017201021050988585, -0.034878286964169086, -0.00734898951188911, 0.01855566986990948, -0.03596974040227825, 0.050057584641268, -0.01080278327905494, -0.026854348508887644, 0.040833008404695774, 0.018621406199754807, -0.024313908869356634, 0.0695646109081074, 0.0785308997465342, -0.011993948787266019, 0.056448734850660744, -0.02368275619211901, -0.04243187181489851, 0.0548044818117535, 0.04275390822792553, -0.015321119986369567, -0.018697117186276663, 0.03575719630714693, -0.04004821634120675, 0.03623549426060116, 0.022874598333062313, -0.030527355942440545, -0.02210068813789049, 0.027108923240125433, -0.08815934509681603, 0.006027289699470378, -0.09612059638328231, -0.023317392177589123, -0.08419477468296371, 0.022262533632160738, -0.032302906576889105, -0.010922189519847378, -0.089132112982561, 0.035137831042890165, 0.002885353152593921, -0.0039230452485214335, 0.01951106843216173, -0.01977469245274525, -0.04215429756945537, 0.01307997953567492, -0.0034739236306156325, -0.07660236349818578, 0.022999758353925117, 0.02233730404443571, -0.028277281457016645, 0.025617017279131103, -0.038676627570818994, 0.04285552792282913, -0.07828594991161741, -0.004148665838843984, -0.02727370168767187, -0.047635552153305616, -0.04123999794733993, -0.036827200721687554, -0.04606666474053749, -0.13807949372030226, 0.08584116777963106, -0.1502573802647471, -0.06567276818660424, -0.00293516067675579, -0.06845245614590414, -0.026264245581098754, -0.007221081383490279, -0.02807762361543851, -0.017401410478694212, -0.094828633280096, 0.013746059802146918, 0.06496303958392124, 0.02586908600014847, 0.02097819223030691, -0.09509553765569222, -0.08590801384995846, 0.07497543135180715, -0.019493881407755653, -0.15884448875800314, 0.05993763202525243, -0.16050204828225617, 0.08127245347395949, 0.050255100176831075, -0.06494245913787208, -0.052441612743897074, -0.0575891660065986, -0.09779884086807174, -0.013847635635462655, 0.028173675211318774, -0.04087194028732097, 0.031086555420565133, -0.07684918560578903, 0.10260590627360267, -0.08428474628506849, 0.09151426530689631, 0.23858353138487398, 0.0013972386834208402, 0.002946834992907446, 0.03213314388027641, -0.09033566504961978, 0.07105305306898073, -0.05982003747560869, 0.028571214685897982, -0.029775717471922078, -0.01250759803269817, 0.038540181237054265, -0.02597182654787886, 0.06205361592633356, 0.12331891347081822, 0.114300232631898, 0.08673468415565312, 0.23317967550618052, 0.09630253941406679, 0.14616406699102405, -0.04683415708329574, 0.10151473686339804, 0.00297955019060583, -0.00025402559198532486, -0.009078109639271742, 0.04709794346821598, 0.015385296540943581, -0.016587770434185925, 0.054637806582510655, 0.04340363078740884, -0.047028179703444334, 0.11757402073898746, 0.1446901077603842, 0.23224713390180282, 0.04894360503868806, 0.06044751127973696, -0.05681282235793454, 0.026902291242807644, -0.024325639606968055, -0.024224698503455218, -0.030045377888463412, 0.04655803607611435, 0.01837298913243998, 0.010206977435941983, 0.048089442823071614, 0.057945870826531735, 0.13077426057506478, 0.09373045721793642, 0.07429814522668625, 0.0890887454939813, 0.11854736395313648, 0.020075123016364566, 0.008399964796147488, -0.03259441853713471, 0.0051090147845509965, -0.019639793285982917, -0.013130245183919535, 0.05097894749763879, 0.00503517268813823, 0.05195030627866963, -0.03896007606448661, 0.09898506640838876, 0.06147970589024809, 0.06331749136031596, -0.047406521482598225, -0.010520833901800988, -0.07804605808066904, -0.08181028095183591, -0.06216157623221077, 0.08893601030244803, -0.03572972724072785, -0.04483003998472321, 0.008862736320546178, -1.6576208891169944e-05, -0.03682570085515852, -0.0435375590199898, 0.06851530826218569, 0.09650567598286892, 0.10161309735760099, -0.06191552453552252, -0.2834326879466616, -0.30302910527245747, -0.1793314168867538, -0.03618417666460016, 0.04326875161426508, 0.03669374114533959, -0.06403403720922268, -0.06465664702284753, 0.01958116145179185, 0.010415597237271167, -0.001794212729720377, -0.027520714039211105, -0.05001053010910003, 0.07427006669391442, 0.12795161495920626, -0.03843642032156436, -0.21069343829336853, -0.20161575808608498, -0.13456718703897, -0.028836050997474962, 0.05040719511238149, 0.006981823246455424, -0.019666800039574037, 0.03699662907723849, -0.010931170871486772, 0.030545382973700103, -0.02685574755089775, -0.019238650881697954, 0.02094149389333583, 0.04295594616901772, -0.004916583333699174, -0.04614170968839264, -0.09219181176853067, -0.16488923003901962, -0.1692686430272225, -0.12097063291316723, 0.00949656896057601, 0.0016524702397164824, -0.03126292841979477, 0.027890758773384903, -0.03530673051458016, 0.06601648917278945, -0.004109303089001388, 0.0006544574626325128, 0.02932240710829902, 0.0067845268426829156, -0.050650135533910255, -0.008211779580838036, 0.021108170106102685, 0.07061484507933422, -0.03824453201933402, 0.03042874758180732, -0.0004154752239961564, 0.03726082512765417, 0.05888148264186575, -0.0532618807478967, -0.008857678275562428, 0.013090472539053117, -0.048177682392315346, 0.05846228422846075, 0.0447432265488535, 0.012785319564586341, -0.012545318303467473, 0.07650254853551615, -0.019458144185310628, 0.03470315281948922, 0.06006787685967451, -0.023820211599896543, -0.01091190948621915, 0.03362245122492035, 0.03656744359297494, 0.00019507890487381708, -0.0043386133931624365], [0.054008392923667284, 0.04586385527156367, 0.026555535966415994, -0.03442648849983152, 0.05161284472222526, 0.05280639250205008, -0.012105817867181349, -0.05210539891846999, -0.017126164039989008, 0.018825346633326592, 0.025052699975007375, -0.0308151385692258, 0.019324406155276846, 0.039093183312695984, 0.0206348980707481, 0.048550037201411635, 0.01079725763675244, -0.042945665365671994, 0.009140920070449619, -0.03239427247052565, -0.024727693623251945, 0.018166835124621725, 0.05643999103242124, 0.016005631996794875, 0.05363314327074547, -0.0028116049169126505, 0.020942828813396236, -0.02632697864599235, -0.05449136096538346, -0.024232981530166186, -0.008488944886808503, 0.00318865495316913, 0.014793017133214788, -0.017355901211598454, 0.02486854491065679, 0.037275747598918975, -0.025856276291009502, 0.04723444545641055, 0.04348224456128926, 0.006664754576437956, -0.05670234799929341, -0.039991189088025424, 0.025461775254230573, -0.03763214774411792, 0.027223025570306945, -0.048536371030864105, -0.03220178490077981, -0.03707691859909132, 0.03607048625185958, 0.017281841903716663, -0.03146377390383373, 0.03280110777302651, -0.05443574459523182, 0.039957476464113455, -0.048695004524311275, 0.04449556814545068, 0.02823019559503869, 0.04607628699576176, 0.031643208944909455, 0.010626569690126129, -0.0333623153073869, 0.03205290448636831, 0.03271364182564151, -0.03274647681458319, 0.014017729176224047, 0.04696282993081473, -0.011763856316457563, 0.060053203716830025, 0.05444941110417813, -0.04171135181519826, -0.007273351312473375, -0.06683186282955886, -0.041668721450018806, -0.006369943676518574, 0.02626126319715902, 0.04541787990688203, 0.04511448055239425, 0.05047242900825561, 0.022272609049620837, 0.013238857402943576, 0.02515289546419095, 0.004845180724056357, 0.017979876506884655, 0.03803542312067924, 0.060338468553961154, -0.020449224208625053, -0.0382222806631744, 0.016965828847876452, -0.046462084864387104, -0.04187474034943055, 0.009355258935258223, -0.006277660248282069, -0.005433561643741234, 0.012463367490420672, -0.04635929154596376, 0.00524368216396822, -0.03790902535560068, -0.021884446566325454, 0.03314588109730744, -0.04263097450111959, -0.04808757543826654, -0.015555144873419415, -0.05268811728340244, 0.05049555951468121, 0.010501866239032091, 0.026035345796382375, -0.006168474345974599, 0.009659810231425682, -0.01654648868681401, 0.040957306456718225, -0.02247629180231936, -0.03945544151478628, -0.04699112810570103, -0.0540090142792104, 0.006380812561940112, -0.012655122360279804, -0.002215510826569318, -0.05601762723291364, -0.034428069634299285, -0.040353038218056886, -0.025390830669615786, -0.017825201084905578, -0.048770023736261894, 0.02387293292685513, 0.004922086366369294, 0.06495712745575083, 0.039842683192047625, 0.05530933576329257, -0.06845975169559655, 0.020278099183800326, -0.0047428153835294895, 0.04366558110706333, 0.009838503478081968, 0.01274794877963056, 0.04901753425360883, 0.011050676795835568, -0.03371428363177897, 0.04409974520539824, 0.05288911280873819, -0.023975119829867112, -0.0006190458316689173, -0.02604238289983676, 0.051482688102939864, 0.03596422992084429, -0.02306897268354536, 0.037640420655781624, -0.00010691812169047768, -0.05956941107732883, 0.040486742999503965, -0.05242664772010139, -0.017062360187122153, 0.03320661451914626, -0.06496296136016073, 0.039648148506140644, -0.0023121322914304945, -0.06815109830489026, -0.05490654031246508, 0.025223071250479685, 0.03393081850463718, 0.04058094578541922, -0.017023307710898123, -0.050525879703014906, 0.011027321581245338, 0.02473001918785427, 0.05148440652412456, 0.025731574062137014, 0.007683412111812677, 0.04712577209969367, 0.018680302603856454, -0.05513558509602476, -0.00913070692524275, -0.02752786789216297, -0.051848490099030385, -0.05077313086578646, 0.03686081752216942, 0.0026077219655765236, 0.00253651896920931, -0.03634650375199058, -0.02621159296966256, -0.01242278734661336, 0.01145882423214362, -0.00893043223899993, -0.05423408518914501, 0.026652195221047347, 0.008089929616411022, 0.024732102577567663, 0.014313423033664957, 0.026206082437382632, 0.011872657033105588, 0.029742654813712598, -0.05426434807571451, 0.04836665231044625, -0.0556465778612672, 0.028683066856447892, -0.02437763386950026, -0.04810749519138111, 0.03331787047402818, -0.01615735036178976, -0.021607502395599536, 0.011115310502693628, -0.013549249757758624, -0.0017932658050215716, -0.047593436817139595, -0.012905323948361138, 0.040572234778559355, 0.0034731265029769635, 0.05307651434372651, -0.049867210643388823, 0.016463877311290554, 0.04522345646358438, 0.03042748510571167, 0.02888555077598876, -0.011636242487446694, 0.05898188385198824, 0.009485596417972421, 0.002900239032254514, -0.04785385853233362, -0.0589489296709845, 0.016086298093908914, 0.006667995569409983, 0.05350586999720645, -0.02896024703730267, 0.02603179689007942, 0.044147824153350924, -0.025489316570960745, -0.017495296358488326, 0.01201825893788908, -0.004581368487278559, -0.04252798543954626, -0.032121872433469985, 0.04447359850813255, -0.03685522741585326, -0.03920821865812878, 0.03938009577762244, 0.046487187938593355, 0.041791873010063645, 0.049031420979616186, 0.05640969546743192, -0.010255005979675404, 0.00033697268933170093, -0.032750962883738424, -0.06040897614624594, -0.056793945758341124, 0.021685687355034886, -0.0077092772240768956, -0.02579472676737348, -0.05115552902560208, 0.015462012649048956, -0.05524659979331914, 0.009928780998994583, 0.04517238200102811, -0.027644749261556804, -0.011871966753716809, 0.009242306711825597, -0.030254050165000757, 0.004254423320837384], [0.03235356826647097, 0.010712766724401442, -0.00386750976439524, 0.017750164945556646, -0.032257042246338054, -0.010268042603668847, -0.0237999640674891, 0.04864503998956468, 0.008286117052976834, 0.05769828497458815, -0.02982163508690166, 0.045195429492227955, 0.06474602843289738, 0.021377868611543258, 0.006073141525309692, -0.001356387386843224, 0.028976316184589526, -0.021770181656581126, 0.038139964482452104, 0.06758658196706047, 0.046091254564034935, -0.037279595744441556, 0.013153465544345804, -0.021450157524742094, 0.06353853261902422, -0.03702068399138784, -0.04399801073437497, -0.03729649905904734, 0.01321813071373929, -0.04329428574332612, 0.03218831701157186, 0.0093803668270533, 0.036324567795445746, 0.07352169369738244, 0.026367796644554617, 0.01698137394802871, 0.0677527043391989, -0.003059645011037792, 0.026072086694889095, -0.009173105161149029, -0.053416230421835235, 0.026976236387223882, 0.016968990713214557, -0.028454803472922757, 0.006072176105104459, 0.022034267940237478, 0.004398213861558393, 0.013853998029987408, 0.04318629573156974, 0.06550820596113421, 0.05167826467107779, 0.012804061121942021, -0.05890168543211984, -0.03311391648921448, -0.028240596932501576, -0.05378922504100207, 0.05193810230092353, 0.010550945173172495, 0.01875305545950594, -0.016029615323091516, -0.014134543709375098, -0.023341910095687653, -0.017965780531173765, 0.016596149366797847, -0.02856024255584306, -0.00604677331448338, -0.06392550206995976, -0.04597250295922037, 0.08067108455947027, -0.02876136140531206, 0.06945292697607228, 0.017969184146779924, -0.04616069524215952, 0.10584981362368077, 0.013429185888959569, 0.03118567816192931, 0.0017347869097624896, 0.031260558385196674, 0.04681810891023429, -0.016671026576490697, 0.02590718951873594, -0.03244086693649568, 0.01243562130286352, -0.017416291247487076, 0.06278584558195131, 0.05602313248099795, 0.04958348632470747, 0.0200405281510253, 0.024629478832022256, 0.10141970542976077, -0.027143895050360963, 0.05034918429245596, 0.03161817109333092, 0.015351575800128109, 0.013192533430012471, 0.005581683573224847, -0.02580267014515448, -0.052818097272255414, -0.0501853903906015, 0.0015134797455864089, -0.011761628365190655, 0.0006881240779962393, -0.04279216989660421, 0.01223918575790767, -0.1274524108331116, -0.04609481561141103, 0.07050238405344925, 0.039142861076521554, 0.04460256877970273, 0.007473490750759002, -0.03232393557026614, -0.04731441119848171, 0.06376074014927116, -0.0711418539432402, -0.045068781643834634, 0.03172618026973092, -0.027091673554410195, 0.025675433371135897, -0.08845896712585716, -0.02295072391395111, -0.11141600512004475, -0.08480602214003878, -0.016304837978958837, 0.08421166359081217, 0.0357492931899361, 0.005523360265363967, -0.049895229741190227, 0.030640605270949407, 0.039795284721660704, -0.03354238843810259, -0.052937932744588176, -0.003427242478769312, 0.09293167488880304, 0.10394098670863175, -0.05468374083744731, 0.02553073584441561, -0.02750989733985465, 0.02486684394807934, 0.05995914083302571, 0.022258929940911883, 0.02882196152960344, -0.01844060760027443, 0.04582968038866925, -0.02803321046235914, 0.015713314921279507, -0.00010057945111720559, -0.016693260221210857, -0.00044635082216216645, -0.010849422852042368, 0.01760032784104681, 0.06637918536980744, -0.004839968870650793, -0.006280132433466331, -0.05495455479614993, -0.038086597270003776, 0.04391579575166577, 0.053898370974591193, -0.042434949994717884, 0.0548913221181754, -0.004641451185615852, -0.024582472594954365, -0.01217524630483577, -0.04818020353148912, 0.03612102404425001, 0.0687549370931707, 0.04697628008929991, -0.0279268732874272, -0.08997150974895181, -0.13654765768399682, -0.12172186989505049, -0.12836654307634146, -0.011186102947167221, -0.012108222110640823, 0.059883365318172614, 0.048480024119004934, -0.022931009482405004, 0.030120670114841583, 0.033452978856525324, 0.0389070747822327, 0.02729473663684923, -0.049305421683619136, -0.074914635039796, -0.03362341430068044, -0.020890750093824878, 0.0262064203012637, 0.01608552245426977, 0.009345738250066434, -0.06217403978612002, -0.030345536926654985, 0.04110992044503948, 0.029310498725682792, 0.011966045440503713, -0.02006010448756683, -0.06121944178171855, 0.0239140323681981, 0.040588634098784646, -0.02641993473555496, -0.045463429485813264, 0.039218453795747524, 0.13169127598791122, 0.09844575244201993, 0.17112558923680507, 0.034990764482210036, -0.060185348695295175, -0.030967630757400937, 0.02293460275531274, 0.03820210986966586, -0.007872465150899236, 0.0640473178457045, 0.018276388703466092, -0.0045951483656165, 0.019872028917109184, -0.014186715747706108, -0.0353648710425885, -0.013409386557233192, 0.08473278081207698, 0.10756268760740635, 0.12108124291101781, 0.055461620972278296, 0.011112498044666012, -0.009403491760988944, 0.025595658854386485, -0.02115053904757629, -0.00955386517863925, 0.012592610036559794, 0.00511523111474887, 0.018516048992129826, 0.03240149410675333, 0.036734408430569375, -0.025744225524345785, 0.05180466583443575, -0.054255803891107304, -0.07101889765054527, -0.04799082050353008, 0.046668755685301495, -0.006787943548199202, -0.0525703516990672, -0.012096902146293958, -0.037004963268573964, -0.029306086361931487, 0.013089828658400983, 0.08341156842584967, 0.0421118931774717, 0.01796250751101359, 0.028200148818843408, 0.02611846181963098, 0.0692817291998732, 0.052850937199579985, 0.044159844985082894, 0.008217753966370811, -0.023268120469594505, 0.051812827718618795, 0.05572348158376731, -0.010506763417272493, -0.03037500672431698, 0.039256656972888514], [0.003920370619300773, -0.03232386154313323, -0.039724261827317045, -0.05634405452243864, -0.031484009293311084, -0.06093643734579629, -0.04107997321718751, 0.06272431877587542, 0.035720936598676374, -0.016258062794225935, -0.011646587348122668, 0.011884869312608447, 0.0035557691585848274, 0.030359529128108576, -0.05330086711536702, -0.05019910043308821, -0.025372298540492253, 0.043135649538089606, 0.053419811520902076, -0.01778394151989099, 0.05839652384941586, -0.0263318015097269, 0.016377600000360766, -0.03642931440548077, 0.05555604332751014, 0.010885344375125644, -0.027394930530236304, -0.008947452192794919, -0.04678037223355394, -0.0521777039849765, -0.024294446447175138, 0.05819007620677795, 0.03887190293757833, 0.05878425798038429, 0.04834516604852729, 0.04060645533241829, 0.010623336682322303, 0.024884174462832403, 0.054605684119140754, 0.003984866300744287, 0.030221345050598366, 0.0279173987921821, 0.054003825013632586, -0.009018938832643014, -0.007787931163014147, 0.01269974874443608, -0.0579374228550217, -0.045919911670558575, -0.05273949421389056, 0.018247939281249185, 0.06314208736089658, 0.022936521349957356, -0.03767444499320989, -0.026414076970604848, 0.05157040070648039, -0.0022624925026799615, -0.06544617978370519, 0.04243298975032121, -0.036730754015211614, -0.05539175305280716, 0.016392294035570822, 0.03700730167946363, -0.05569715830819557, 0.055127359372845124, -0.0017868148777683865, -0.01768187537743264, 0.050718353023101695, -0.03148924257823876, 0.05199609073732953, 0.018068335597541403, 0.055499296435230494, 0.003241092820865099, -0.03757993918134737, 0.030573780407023805, 0.04802620976205783, -0.032575885537972554, -0.038634789585480604, -0.034558934961133235, 0.012484798378283892, -0.04631973724923604, -0.04845615918708205, 0.05434530543119424, 0.02185245011150818, 0.017147575911406424, 0.01176282906806046, 0.03483486587509122, -0.0011308374918836952, -0.0549625513240013, -0.0004163059808538923, 0.01605363979125809, 0.0007246205716847792, 0.061504614382632807, 0.043896018866580275, 0.04861302025523294, -0.004688870667117633, 0.05738514639691038, 0.054013424335772886, -0.025740310786886617, -0.039788614661013376, 0.006567822046499477, -0.052683116628961794, 0.04448445535284179, -0.0028207302924660063, 0.007239512532726923, -0.0017860661311015875, -0.016108832111829955, 0.025749755036572772, -0.044388133339017595, 0.0664541622236443, 0.03002471400816778, -0.002402447254694538, 0.02085829677306505, -0.059968211818977754, -0.03513033427746017, 0.005613347894234944, -0.02545744204861576, 0.015930027822700834, -0.0375505272977505, 0.00850395577299132, -0.03999403493329448, -0.0026256000644934475, 0.009441566359913904, -0.015115026448198553, -0.004679101919877627, -0.0326293827480067, 0.018127733546472284, -0.015328030175246853, 0.04175505044140129, -0.025928824916590775, -0.039295312863961526, -0.051364637905665526, 0.0075706375112202795, -0.0314504951745819, -0.04864038240379534, -0.036687089434959075, -0.03332397644917071, -0.0076163143109420905, -0.013174558969134935, -0.04542384004017457, 0.05763938641223435, -0.05113598551684723, 0.03762658420152601, -0.039039020714856376, -0.0020186638514214095, 0.06286743785973546, 0.04485707732387786, -0.0015890600746739046, 0.02894532497525972, 0.038856570118780444, -0.02525495335145913, 0.009828457811058204, 0.009076614425107375, -0.011471764712448177, 0.024910325594569915, -0.05336350920452704, 0.040502097483006226, -0.0017652540242382203, 0.014591019370353665, -0.004907612641799391, -0.018441617861116713, -0.016656173339957444, 0.00948723171042374, 0.049156971609670884, -0.03332295555928377, -0.05904122267886693, -0.045857025950584496, 0.04790210976113223, 0.06671866280605113, -0.0283103661622088, 0.018481647644848866, 0.02847238660488099, -0.03117457956513753, 0.03535587368554799, -0.0188331435711431, 0.022730706688541092, -0.003654711105404147, 0.031111013778514284, 0.050768802313317804, -0.01963813078191134, -0.03178876417161352, 0.019177416389651307, -0.04208730573776887, -0.040609563102281206, 0.02359195317990875, -0.03538518422156045, 0.0018016455718863327, -0.005243637291760206, 0.0365206802940467, -0.05169979637597742, -0.041514522273816225, -0.03167199565955504, -0.026684395639950093, -0.025140957531724493, -0.027626099333542067, 0.014691372310617621, -0.03349419349644635, -0.006648087723749605, 0.047920708387610866, -0.02253166506134886, 0.022823351420136844, 0.0692197175463363, -0.0020627772610918704, -0.027381834178245242, -0.0521747152873502, 0.026605358953481723, 0.02215245174210059, 0.055565652186347195, 0.02139612162607974, -0.05208943715243549, -0.03965400890171411, -0.04807786898707418, -0.05908726159903848, 0.042886808407103266, 0.006410823032085578, -0.05722229875167385, -0.01789959254765625, 0.028878085281059167, -0.056533779025225675, -0.03362645192533444, -0.039974203349038555, 0.02155694918615603, 0.049307594199443944, -0.02815190113146186, -0.035750350252979755, -0.025412214579078565, 0.017129198383916643, -0.04468886940438444, 0.03861907099887095, -0.0631283867658805, 0.015888747688690818, 0.04478827038230497, -0.021000312387846803, -0.0018557104599749277, 0.060326822841683336, 0.006234551025158006, -0.02768607737128388, -0.00615015598267123, 0.05499906257603663, 0.020732910679222536, -0.04384284703446625, 0.013971062580521158, 0.01761948914457689, 0.017802012420646007, 0.009686708467213187, -0.0011076627733539969, 0.01355386685327203, -0.027680425622982063, -0.02275674646927924, 0.0006207464391346318, 0.03913431837816129, -0.011579986471467863, -0.02110007230242782, -0.03403730814775874, -0.02797058036255044, -0.06655627936488998, 0.04060709740298898], [0.04462450624672862, -0.018131055706405448, 0.0006902277316969081, -0.061120878535159746, 0.054529870491478644, 0.05678743471295119, 0.005488299155006324, -0.05449341997890667, 0.00033182660856740184, -0.01810590479653758, -0.026167290294994615, -0.05696055715422863, -0.01045267700536004, -0.0098591675706989, 0.009800052912153906, -0.01028905933442117, -0.0428489985594588, 0.031544902313393866, -0.008514866978411662, -0.015301246470950288, -0.012225066731632999, -0.0020786006100447156, -0.031887922795036924, 0.030469181582999813, 0.04923440362575487, 0.03177229447477059, 0.02132573868070616, -0.03787965938090955, 0.029617451833161088, 0.0462247836185327, -0.006208957036343127, 0.04384124342091376, -0.039803403179450955, -0.02188428442309122, 0.021591812499233747, 0.023707307662053805, -0.021346643874827945, 0.009174902173737532, -0.04968785342537145, -0.08471074190687042, -0.05888524989824327, -0.001297948771775299, -0.04801018187050688, -0.0631581926331208, -0.0437360540953546, 0.016653242322694304, 0.031044729373477856, -0.02574858554596552, -0.04262110063753213, 0.00323722564918093, -0.013608535421331598, -0.017721275726555276, 0.03310084198512393, 0.0819472463385111, 0.013445139698630973, 0.05563361207450147, -0.012254355264165257, 0.0712086996886768, 0.09752041841407037, -0.015544038957927464, 0.04630807353721985, -0.06757850471727596, -0.013626612936173609, -0.03179762579879709, 0.04503865225298144, 0.054780917840120145, 0.04760513458324492, -0.055618718521225095, 0.0016985444925208622, -0.010224698071255542, 0.027323944098362633, 0.0003192465420930657, 0.0458167818397695, -0.02415489653085155, 0.004640998492083826, 0.043067691447464675, -0.010551360118645438, 0.0627427793021576, -0.021149330813975104, 0.02177735370365281, -0.016209994380291196, -0.01607879761271033, 0.011996561565190692, -0.07699796021878545, 0.021869431514458366, -0.013203720310746332, -0.05331193728593568, -0.007925754444151285, -0.008552760064138121, 0.0186201776504433, 0.0454734147707736, -0.05672798530537436, -0.08406783255096385, 0.012768005869002992, -0.0365373968393012, -0.05629517335579744, -0.01770670530500451, -0.0421079721487119, 0.029818561263602127, -0.050628303072483595, -0.07700888115546065, 0.02134480455920624, -0.03483771794555644, 0.0156895514796479, 0.04404189005973245, -0.04330714585162669, -0.06769525869178056, -0.04732227393166205, -0.029679621304644944, 0.0639371393136354, 0.05033182101973731, 0.010576971117860573, -0.04407208040748576, 0.023149686128185156, 0.011638270107203195, 0.03272161752915402, -0.008776290000019869, -0.02567167470897856, 0.07305963821669606, 0.04956409192430221, 0.07711448148339733, 0.07532612018373686, 0.021455998632345985, -0.028139817968284502, 0.03693762559763055, 0.007332519293273212, -0.04719290931779307, 0.035916858661475086, 0.007293556290530016, -0.0025551124143463858, -0.019027129935933102, 0.04000104652620224, -0.02187610287440872, -0.021200912367417658, 0.02219489536655036, 0.09931515232936843, 0.0501114047231141, 0.10222010636213037, 0.07054523483638124, 0.006206887834737353, -0.03542723731562349, -0.03276657616142919, -0.028589237636928923, -0.030900462616854803, -0.004178168519336205, -0.05902754126756982, 0.011666336421841028, -0.01894683576798489, -0.03476746695204299, -0.029617818417459845, 0.09493471475127246, 0.12905415771519246, 0.058801397221100615, 0.1351092795539786, 0.07461136696664644, 0.01642717725262225, -0.017056626730058987, -0.0006336403855172993, -0.02138169945461382, -0.0011941474335614747, 0.02328756009338349, -0.01426397119602316, 0.012106217708639901, -0.052212766535775994, 0.01177957389197502, -0.02423636031699218, 0.04944016123392379, -0.015027201352431222, 0.0919647943991789, -0.0038068022944783312, -0.019423229297953808, -0.05531147422464475, 0.010779864668158343, 0.043761614308236656, 0.0062240656402951814, -0.0030190263990901014, 0.03419643897113994, -0.031228965953944123, -0.02379335798292843, 0.02254935813615897, -0.0385641825821463, 0.06978392541266762, -0.052263642506905315, -0.01367314646755576, 0.017638190936569115, -0.07112616938929828, 0.03988657788564546, -0.02118181979817374, 0.00960938754847267, 0.04358831894900363, -0.014165458148759054, -0.015130108353941355, 0.028076212667979192, 0.05252240012701768, -0.03337961753423375, -0.05156836676809628, -0.04646038498518199, -0.005788407250371479, 0.04268344846171978, 0.041559265957634324, -0.06146574312618767, 0.016604431900422916, -0.017405769336164098, -0.019148502608434127, -0.007572486844686624, -0.04641088422108543, 0.019828949554278354, -0.024647538231134847, 0.028889548046736515, -0.003990868608764387, -0.04825024481120774, 