{"layer_sizes": [192, 64, 5], "learning_rate": 0.1, "weights": [[[-0.0137784297318933, -0.11220498381434321, -0.06331292326026584, -0.08208654460942766, -0.008792585894631545, -0.025084215540252506, 0.03189251069520747, -0.059893120448342156, -0.02300650352697843, -0.018068600707850314, -0.006765205350162474, 0.016892721628757573, -0.04567596183011287, -0.02820660061891037, 0.043780710785416135, 0.003085988911429895, -0.03990482649699811, 0.01860501692903056, 0.041794680744034175, -0.10258349778738922, 0.06021765805694813, -0.04524383360361581, -0.06531488562702449, -0.06913322079840112, -0.0255978049258585, -0.062060281022112584, -0.11753497787730054, -0.10276507928772786, 0.01821859004438047, 0.011804462175416437, -0.016745032356247212, -0.0524540505917894, -0.09033997436408993, -0.012625618736419375, -0.11749233191402818, -0.11626944849510223, 0.015830453338004563, 0.004341487541481732, 0.043985983303033674, -0.030256992993003436, -0.02202949218827877, -0.10806153260790709, -0.09708649909195188, -0.10437036548404308, -0.13871153529315924, -0.10155102369211107, -0.07478333563900605, -0.09003888944880396, -0.03817917363780059, -0.06175236163831616, -0.044391931394321946, -0.11822615151128735, -0.1279182659341356, -0.017756893155708598, -0.07898435868221483, -0.09006828269416142, -0.18410103241382494, 0.14262544041543984, 0.09241008207435002, 0.1020516268516108, -0.02630339598576939, -0.01717133472591948, -0.04226903452223807, -0.016036028038453325, 0.028926886392676796, 0.017050264817201895, -0.0424270172633156, -0.07762689728593285, -0.0761489280642419, -0.030403354735207458, -0.007438275641096045, 0.0918044854070304, 0.031369512779976114, -0.05848970821626684, 0.02071050569881612, -0.021555437169250846, 0.06685115463596872, -0.005579197729705897, 0.009367930899006014, -0.004113292352589805, 0.03232801995972323, -0.044235887833025435, 0.046219595868453964, 0.0860115435131611, -0.13925027130064907, -0.11823545203700325, 0.003937573663982922, -0.0157742506945017, -0.08554891960664651, -0.09232119734075923, 0.00044075821462617683, 0.05238177906708341, 0.061084605629517584, -0.05182495355815217, -0.09388201322016736, -0.06685394609776509, 0.027711692659801473, -0.01552667244176007, 0.03602447319933576, 0.13855400264913798, -0.030721737806358635, 0.060892615662893265, 0.15620855557882846, -0.1807342508084445, -0.22903321010189706, 0.03793531095495574, -0.07752671401659952, -0.053801605960899127, 0.06599132532151662, 0.17465725980109356, 0.16946613384547166, -0.045152247557428096, -0.17523752083799513, -0.24467580758191876, 0.10434429071181732, -0.11930118086146511, -0.19292324972120747, 0.06691473955781971, 0.05035609300390752, -0.022332540287068187, -0.023011543296677744, -0.02534430274144896, -0.019472783013708726, 0.024228201677116243, -0.08317434616702947, -0.04773394347042697, 0.06796184398722972, -0.025327525815855866, -0.047031440783365804, 0.2102926721905618, 0.15601872860380459, 0.11708297452463173, 0.3618418255583977, 0.382383830447156, 0.2125632899309827, 0.26539989061223407, 0.09244996690543039, 0.1851402243264743, 0.11198931967963238, -0.1305804807221902, -0.10556732961336225, -0.02944827906038397, -0.09908077720105822, 0.010081512190471681, -0.028267767957589666, -0.06467967471094632, -0.018746922899005005, 0.08005819838777867, 0.0016380107098799745, 0.04223098094530145, -0.09143894072714506, -0.1401823433593039, -0.17597034123198968, -0.197912598121051, -0.27460545592177177, -0.2564400996503453, -0.4711828272722648, -0.44232448410830016, -0.5044591764154402, 0.006093707958212858, -0.03766220948208815, 0.045031960097378754, -0.11298265187765814, -0.005900634512645617, -0.0378117249318016, -0.09286234436457479, -0.05305022104902675, 0.04650561712745345, -0.11966511250374831, -0.08300681111914267, 0.048085164016105686, 0.017395144789134794, 0.018684552197374374, 0.09529363355811292, 0.10359652234067855, 0.03598326753733325, 0.03837946461783714, -0.11822178985119967, -0.12413381785540475, -0.1127916505233882, -0.14832085227441383, -0.15710161685798799, -0.08652811404691063, -0.15220962454144607, -0.1344348155856873, -0.11743815922748164, 0.0644430918706009, -0.0193951049362494, 0.003593602546043755, 0.0013077560092969731, 0.01311558252077126, 0.034045433113927735], [-0.04892963971102069, 0.05069507563948053, -0.016161098998101094, 0.03934169463825885, -0.0032411209591924205, -0.0727814905441883, 0.060096230486009386, 0.0390904879167348, 0.060745106219809455, 0.05328652016794541, 0.04482378824459082, -0.051166424045167, -0.01031720126136765, -0.046693796903078885, -0.01770511470201086, -0.0719926252471299, -0.022978492061098726, 0.0669194614050789, -0.045204709478661224, 0.03201367044233897, -0.01288844431920538, -0.0242198290487501, 0.05550874084113477, 0.06336986246467038, -0.0048844151849630505, 0.021373763512643192, -0.0579076383392396, -0.036889650820834494, 0.06286779750504308, 0.008967109891187675, 0.013610862492480611, 0.04687839874741692, -0.051358001789707924, 0.013930233153751418, 0.005092820525886579, 0.0574812660995024, -0.04868013273257385, 0.0703544002647588, -0.054601016623977566, -0.04374459080284851, 0.018681076218986303, 0.03218925299313643, -0.04198612136509007, -0.05579277633414757, 0.057825454833780765, -0.04428030598334723, 0.0086087205897654, 0.01474058491187777, -0.022251875019964062, 0.0037766014823863857, -0.0024257905297828154, 0.06954326453258747, -0.03279377373985703, 0.04311826356835574, -0.04399971341216642, -0.018143808244799334, 0.023513105945879874, -0.03722666440229515, -0.032360117124060714, 0.03265639642653941, -0.0726037847339528, -0.014332040960781101, 0.06606542414609322, 0.06621097785648747, -0.06408563146291205, -0.04239982401587709, -0.03482726712729044, 0.06466047289436827, 0.05891360729811309, 0.05131703729853902, -0.019229309836205417, -0.047588470834350034, 0.04202600705343816, 0.02588546422061742, 0.014679977577923718, 0.07129812129289353, 0.026498231322711237, -0.06550684868200371, 0.04037143303867298, -0.03237096527554383, 0.021370058600082065, 0.051480513443431644, -0.06299780719222527, -0.0645040400799388, -0.0675155820175952, -0.00045380859307191085, -0.03892885163062032, 0.006361187171358507, 0.024775860473996016, -0.04819186016479889, 0.017153847270174737, -0.03432190699377255, -0.000669937710096607, 0.05257800078481201, 0.04662237985829328, -0.05998900108015926, -0.017207483761164783, -0.036136316335483816, -0.0731180797643737, 0.0360374565455985, 0.02016248968148281, -0.03229375071594345, 0.027393233295331398, -0.0002632458711730849, -0.01941848136952769, -0.07881371550916816, -0.06799543165720358, 0.04957362697658949, 0.04954761657035429, 0.00038495477363913167, 0.04446540251645796, -0.0015778070760821723, -0.06099274575456824, -0.061528801723325144, -0.03168616274512343, 0.057298931443597885, 0.04437512023044759, 0.043684159023470816, 0.05146190417620888, -0.04545509204259867, -0.04243843334474016, -0.06079520936121221, 0.039260822832705024, 0.0566173753729622, -0.009454423319227785, 0.023292624601639583, -0.05737293792332686, 0.0556693998724601, 0.04537587384608858, 0.05494241989505781, 0.033291506906520656, 0.0454172244071473, -0.08486121483496738, 0.020405453414212488, -0.035256144961515544, 0.04644838342464985, 0.030700662924903296, 0.042453292943211, 0.043296889948522585, -0.031245130429565154, 0.04593485332929193, -0.06334863677771953, 0.05014363375560471, 0.05012535020372455, -0.052020692407651815, 0.036630720401797844, -0.012728106279128126, -0.028796693941719576, 0.0450590035513319, -0.03489987220977317, -0.06847498994973211, -0.040942365617634195, -0.019455240726001785, 0.04799828872500774, 0.06606845132881986, -0.030998631313477815, 0.016363995148311352, -0.015691898037911312, 0.0703264326316413, 0.00634636381563992, 0.0673948755963899, -0.049324734564199314, 0.06063603035347466, -0.05123683417061294, 0.06384213642183047, -0.038350910559235195, -0.05801277681392779, -0.008917075871525995, 0.02003580071081476, -0.037277991042904725, 0.007316273412907842, -0.008694196352184911, -0.02426861530896829, 0.005835926122248843, -0.03704047791598122, 0.031327543604802166, -0.06889283214278316, 0.06002352405759435, 0.007153485647003915, 0.03548906868654458, 0.03239648208195709, 0.025043135772890433, -0.017094518973373378, -0.06538912168479284, 0.023485809179917112, -0.02278249490561387, -0.03253195773527727, 0.04764492873339157, 0.031133550318197777, -0.03829844577782588, -0.03421172180236048, -0.017679381075408996], [-0.06016542432255591, -0.048995550899392476, -0.08377252646883711, -0.041219021053498624, 0.021369703444248996, 0.006719031767501429, 0.1382326070757802, 0.08212078157331464, 0.04768175317429947, 0.14080037975661105, 0.08930821213557927, 0.14591416324859816, 0.17889468097021394, 0.20191755041708298, 0.1905810753523013, 0.09497182910765514, 0.0933353796131779, 0.07214757014914877, -0.06776050090727717, 0.03905791062258856, -0.010785060150646172, -0.035696871059102075, -0.06671142221883795, -0.014488849030236011, 0.04331707548041881, -0.004515568178351559, 0.05824635817008749, 0.09858398247217508, 0.04944431133784044, -0.027033655204006437, -0.1384381732569835, -0.15069870695557822, -0.10565999927996748, -0.14412234920198802, -0.10540358954718965, -0.20414166890380195, -0.2601588092201397, -0.25185066940620143, -0.2590124604107591, -0.04855933504887296, -0.10238175341166439, -0.17391195782283003, 0.20833004907128796, 0.16923967012814173, 0.21832019824640497, 0.13357423058510473, -0.007914693282988584, 0.11293534617959478, -0.009169897286439186, 0.08866643603286484, 0.02165030959931265, -0.17584502538596808, -0.16149648292891175, -0.09204949174425298, 0.1451535016941314, 0.17426534223131204, 0.1636854071676843, 0.3871053072999071, 0.27707258812392016, 0.3132949774342971, 0.3359368591881606, 0.2492011491247783, 0.2508038693113098, 0.14218793161216375, 0.15134968526798231, 0.10316904827626573, -0.07580194713028848, -0.10308668306807474, -0.12469556526904035, 0.10031531636790561, 0.05047657604057832, 0.1135292767598944, -0.06598728375215307, -0.12250927847225104, -0.11799098954448572, 0.06957711223679772, 0.021689738274822363, 0.056485907988243655, -0.3048292140928336, -0.3063954876048965, -0.2757247533193598, 0.03409311774421316, 0.005734169144964803, 0.107615692991563, -0.039925747733247814, -0.23819115433309637, -0.198791415757896, -0.061707616278947074, -0.07906923508150712, -0.10867906966713696, 0.10165522247180367, 0.1871703837513238, 0.17169406238239493, -0.08511605734356757, -0.08092822515016247, -0.1113602782768445, -0.13032348626708148, -0.23142823557718362, -0.1684957113195552, 0.14121477521741985, 0.17676377440204616, 0.250623002649453, -0.011406357864070375, 0.25340086284092084, 0.22020270612061876, -0.047404621573604595, -0.06049391966908503, -0.025924688028587717, -0.09093764964076298, -0.2700010358539153, -0.15970847061296026, -0.019151317926363882, 0.05337552476049267, 0.014383360115143441, -0.031346191487588985, 0.12665835097965314, 0.1834519146719869, -0.1811076103102203, -0.1574329888651056, -0.11337867589616335, -0.1759716602885202, -0.08536799306461504, -0.17761172730727393, 0.12839916920106997, 0.05166999264130573, 0.08191808649105824, -0.12482672668262158, 0.06101048136351344, 0.018882507416487608, -0.24425688999578615, -0.1950960459493167, -0.24601475437104808, -0.32009586441992705, -0.3065686921255288, -0.294510452550974, -0.3186494502193862, -0.12508945399164356, -0.22308800175927426, -0.068557253437605, 0.21917852238775457, 0.23925004251953463, -0.08979372584449626, -0.05050189992273185, -0.2164431014060457, -0.08876030778402606, -0.07191764864187418, -0.03634359518766459, -0.03733598109319706, -0.026963933804799466, -0.11374422841175588, -0.014413511934098573, -0.049151306866879435, -0.12099885666147737, 0.5578903875301549, 0.6037546925570043, 0.49740242587087047, 1.0668010244684527, 1.1337936790971201, 0.9817974528024261, -0.0720091241189589, -0.023545930596553185, 0.04069452400313596, 0.04460622060447709, -0.06114211431299311, 0.015973368315052482, -0.02693015113536375, 0.04373791220185065, -0.006810184346732269, -0.05738735657210077, 0.022723667791738806, 0.0032312431894569297, -0.08665326354885339, -0.17264819005909718, -0.09952247040127946, 0.18530495576225944, 0.10999451861002792, 0.11996366435688163, 0.0655716528304892, 0.09137038759648226, 0.025797022690284315, 0.16658106352231947, 0.12334109667993087, 0.024641516731910177, 0.26030231769229234, 0.2140185309897235, 0.19723773122374944, 0.04231424015596016, -0.02407258691645621, -0.010908804257837579, 0.18146677375218, 0.051437745087220675, 0.1026226311847658], [0.002098751476923389, -0.0051237062294164125, -0.011525963325328811, 0.02985168309755062, -0.03619478521606272, 0.04849949431832993, 0.04415962857601849, -0.06242431946881996, 0.05287576966585192, -0.04104792078939762, -0.008394065299691552, 0.013452625346298226, -0.020697240642134223, -0.07071770787034938, 0.04858997503224467, -0.05003393128561084, -0.044653971384836504, 0.04033063263848322, -0.028997024845253908, 0.049429593926752474, 0.024377604121260034, -0.03647531489639234, -0.07427217592556687, 0.06162796414958624, -0.06312943127235435, 0.029103910506173922, -0.0038762840026814916, 0.0337629519636779, 0.0248388347235355, 0.018797227679473574, -0.001616974643204442, 0.042620637542276324, -0.05786141232099213, -0.039195437304088476, 0.02955532636635572, -0.025769847286510585, 0.011480447366613649, -0.003557104086217289, 0.005362263135178119, -0.0094733801211732, 0.03773714068916756, -0.021758659442471066, 0.02775815793738752, -0.03373711970453992, -0.035816116958082865, -0.061451375579331384, -0.05070429671243814, -0.06039786384420934, 0.0018827991539986635, 0.03487609148771615, -0.04748678237226073, -0.03931806487210229, 0.0002582876499765566, 0.03540215652677037, 0.06753164457710441, 0.003183362214566707, -0.0311419564664959, -0.057285875738692496, -0.042982205595549855, -0.03763118082580519, -0.048985717001859226, -0.0722598939508776, 0.003263329947568021, -0.03199636138928822, 0.0696312095397332, 0.009040340099652466, 0.030834481915930013, -0.05059954883105332, 0.05710901813041655, -0.0032698461782776716, 0.05255048160243033, 0.010004860618714348, -0.007784531107294009, -0.011374855734754922, -0.04778004963340833, -0.06285465872363892, 0.06658779960740537, 2.8270311446489992e-05, 0.0470546957351267, -0.0137958790926802, -0.06145842755044999, 0.017479781556583387, -0.06510459105454984, -0.05112512268692928, 0.006593768166117984, -0.030115091474237486, 0.06985091502589877, -0.054404817977132716, 0.03937830262106848, 0.0168787360591158, 0.04421354012415985, -0.03651000065430362, 0.006708075362764643, -0.007034821594446344, -0.007532706542930326, 0.05335789485811346, 0.06733873895501004, -0.03076199512866666, 0.015345534017060895, 0.016990455161759833, 0.03656704796479146, 0.06672389427861561, -0.039900646970309143, -0.04255810757100899, 0.018645950113601303, -0.04976661747872707, -0.04801944704012081, -0.06335198503297501, -0.07387086648749716, -0.008775316869415004, 0.012517531240140775, -0.035580702852401426, -0.043750887278099344, 0.025649143415894197, 0.029872303019500536, -0.005327541598907179, 0.02893027713245282, 0.060255776788123695, 0.041345768152673254, 0.018275426285859254, 0.019910725020831403, 0.059755623014130545, -0.012916207472199818, 0.008107497774370117, 0.023525385171078723, 0.0613345148442902, 0.04613445933391399, -0.06381714796251556, -0.05137149700622556, -0.03373421155721684, 0.03048488286037644, 0.00518219605798365, -0.0387857080444283, -0.062249914212795396, 0.020299351403819516, 0.02035769003811208, 0.055990375770772705, -0.006998209930299395, 0.0019196323556158808, -0.05685519149887646, -0.06238479462015115, -0.012953903984451008, -0.02820078808822775, -0.038025278460640834, -0.06244090050797006, 0.06388040932765164, 0.04641778019029742, 0.007492495074215396, 0.062385784887042016, 0.06991075618186914, 0.0253009178321711, -0.03201284882649508, -0.06458344379601214, 0.0381225668637397, -0.0020632392494679356, 0.024483629336494943, 0.058477740499652674, -0.04694419610090786, 0.012042199088544902, 0.019820269131443503, 0.00010644377409204469, -0.057209292819757, -0.02403175344759374, -0.025649738365400646, 0.023417123835103366, 0.04572737549729021, -0.02977903492234759, 0.02351170102827757, -0.03395903347762485, 0.061516077975760065, 0.04303793661641794, 0.003812140465561721, -0.009310447295741311, -0.028926523486594625, -0.027779264191503863, 0.06606208081498278, -0.015027572063688238, -0.0010075451015793804, 0.06786823952001501, 0.020707415489547104, 0.0028315976986753007, -0.015110067673843154, -0.04724027686252613, -0.02300976369908059, 0.03434647957810133, 0.01615051045869332, 0.03325973305529767, -0.0463290470704871, 0.004043192732960007, 0.05827586233543982, -0.011690328523341453, 0.02649433424508448], [-0.06725798979988035, 0.05820159403272879, 0.00793644577657727, -0.04653132930667276, -0.05574881083504229, 0.003194036874653882, 0.0036393842277116857, -0.05987389391711119, 0.07219329056170526, 0.05544794497899268, -0.006784269869943304, -0.05423334721671543, 0.04577082612952006, 0.0002174686228866321, 0.03381505833291586, -0.0030727252784077557, -0.033857846031918305, 0.049069011111143195, 0.05863852178366614, -0.045144915248054605, 0.0015440008675433792, -0.02907830397904629, 0.05070318253149944, -0.006634124711581133, 0.04569879739076045, 0.045984388270023824, -0.036553566583954644, 0.036503245913803314, -0.01505094547400154, 0.062298841391374066, 0.0016681174349302754, 0.049710444301261654, -0.026123151104880993, -0.028614707599125263, 0.015715599803173885, 0.07728071173747603, -0.004256247070628344, -0.05080170906939905, 0.007548969448330234, -0.019879195329165402, 0.012564124903131243, 0.013563148079189442, -0.005057269822953298, -0.02168331664901575, -0.03859073826271998, 0.016053193507817597, 0.0002727386190219671, -0.04603096127261818, 0.034415848283664605, -0.0686980038873483, 0.034744764010027386, 0.030780214421518386, 0.049054411982903244, -0.010463157298068387, 0.015163082651353948, 0.03984259763722711, 0.06451735664222366, -0.008651736168709847, -0.07269623930648769, -0.004140546712102394, -5.894853851983779e-05, 0.04279170733875581, 0.045370077754413575, -0.011807483442104381, 0.003041743861895839, -0.005531788175075783, 0.031859513279139405, -0.010450621293915217, 0.02650914788326742, -0.053514649184406016, -0.005352323369925967, 0.06870776346207584, -0.03051476198250806, 0.023339872833272303, 0.0192517033059283, 0.05270403893070932, 0.05597756257685917, 0.058649416602179906, -0.0208865662616515, -0.028632693861459935, 0.02985161789641544, 0.023700368226122603, 0.04132388641884922, -0.0780753102883149, -0.07314076887016184, 0.010836106372055777, 0.05461489263958828, 0.06338887059443335, 0.028922745796037045, -0.014946037830837701, -0.06008552394824661, 0.019699238312547336, 0.05587943542701089, -0.009864633602846527, 0.028854097660093843, 0.06106541175490133, -0.07105381488786248, 0.03977706781089417, -0.03013684854122876, -0.016924439497997396, -0.04835519095558688, 0.008270870438706798, 0.006978828015559775, 0.03538364543974834, -0.05995702294739448, -0.061538601736225, 0.05364918528755772, 0.01709917551724957, -0.03700080128465651, 0.062653415570759, -0.04666105267167745, -0.01638505640013856, -0.04385345922399423, -0.04121183134411864, -0.07488014445228416, 0.04298555723348648, 0.05895510157461399, 0.0239888528861741, -0.04843350212514405, -0.0054899673258013825, -0.02947779975595488, 0.00820004473419639, 0.017555234644345104, -0.008901312844892765, -0.03132206400419792, 0.0564693337434938, -0.04954411652799784, -0.023093779700292933, -0.01055167861252213, -0.04850196117506214, 0.0018012998767501876, 0.003616343432138769, 0.059801912028515924, -0.03873637418196405, 0.062128118487285784, 0.01055379504717749, -0.042594850525232986, 0.0020521488170334246, 0.028220438898736266, 0.03970602737915445, -0.05880010903241892, 0.010092669477051366, -0.0030738485671864806, 0.0579505921785635, -0.04176743903492464, 0.034854872156579945, 0.009325152903339344, -0.024993032637579047, 0.019053882146601125, 0.018814147937613025, 0.027402884368551744, 0.037013997109571255, 0.029804569677115957, 0.04868211731397502, 0.021361352022991414, 0.06324306789071475, 0.019376801608601255, -0.02634983067349761, -0.0055346374171005835, 0.014571993650253546, 0.03945378806407719, -0.051371921050866125, -0.029197478668727784, 0.03878244277911294, -0.04195094297674892, -0.06566059515614145, -0.0043538156973990825, 0.060381171143964386, -0.00803683369966735, 0.049613118126791145, 0.03992345558369242, -0.04761454456949905, 0.03663294149395701, -0.010626844393704761, 0.03723581906188582, 0.0310437517744256, -0.025756376775837468, -0.06044084839441371, 0.06423410241944409, -0.05206093587807464, 0.062310036403702404, 0.04980013851484351, 0.03193021712194372, 0.06245015372979312, 0.06299832413792734, 0.04201652724909527, -0.03183891460187081, 0.03181004271970437, -0.07774272558517875, -0.007370702337821257, -0.016659189645747172, 0.017261979190096904], [0.010816903758740719, 0.0010887256104352328, 0.038184015369634394, 0.04940565965712697, -0.06777699591538075, -0.047222307616530686, -0.08138636980696162, 0.04542984928735204, 0.0015048620169404048, 0.050459548431614855, -0.04712735305524064, -0.06716691949733478, 0.037143274326321064, 0.05228000331164191, -0.03300810437187281, -0.02297599469875768, -0.059014100044995736, 0.05990476411670998, -0.041334161394109524, -0.011458280442938479, -0.06604875178276609, 0.041756664106829, -0.06403316529056616, -0.015385624750073011, 0.01044579464357828, 0.023788282722752394, 0.05571015991670619, -0.017036142417355862, 0.03246950411498487, -0.05031600693676131, -0.007888509824688958, -0.05040184276175797, 0.008216217186219506, -0.009644033516825442, 0.072116436083912, -0.058741212161247426, -0.018373142058487363, -0.004479549066748427, 0.0705858433064142, 0.05508296289667944, -0.0507130135461787, 0.03575029511946988, 0.0050996236455703075, 0.07093841182637357, -0.016598359715490767, -0.025191034245398324, -0.05203415850349669, -0.05962250059712518, 0.039314827731840724, -0.014801904521471574, 0.018251062594979574, 0.026333744386554364, 0.022765338829397942, -0.0583087360306789, 0.04212729485990311, -0.03322979038857128, -0.04857019319178132, 0.006225254600612323, -0.06256216075797692, 0.04068657208498388, -0.04968519740579587, -0.045447184304312736, 0.05122644409923842, -0.02617323883441452, -0.04940503452422944, 0.061749604648141145, -0.06796713656771249, 0.058309861133419454, -0.042575872654956444, -0.05636539822540004, -0.03638906405230041, -0.04491611263298607, 0.01974386366768027, -0.06922324966185286, -0.06846434848348422, 0.0435427059328187, -0.033297914690449855, -0.018466301814472078, -0.060069684197989644, -0.07626986849997408, 0.024165457768592177, -0.008351567951675496, 0.025132573708549176, -0.012174793623133567, 0.03185433655909759, -0.0028019366617129467, -0.05866069355743292, -0.007375445890302564, 0.05792760687771788, -0.07122435726759006, 0.028900220405000412, 0.04262568667901573, -0.005729788762664683, -0.0006144800178815495, 0.07538918290267872, -0.05287566579932456, -0.007749458087654357, -0.015757721343621807, 0.02758974647132346, -0.005728908250970733, 0.05729880319559517, -0.060966011818235265, -0.07345779451072929, 0.004978138846722302, -0.07110882697478667, -0.04689340744596212, 0.007554049723544159, -0.0021760658134723264, -0.03930374293634664, 0.059911999917228426, -0.004166895309185199, -0.018585713921054545, 0.006183392199814598, -0.06502175494981133, 0.016858163044507154, 0.041303004846308784, 0.014289663777830391, 0.04012458743548498, 0.036144643992099684, -0.03461245339466247, -0.010905716758117063, -0.039694498777017896, -0.021724013207274087, -0.005577854947768836, -0.007855310590464773, -0.052395817925167155, -0.022879433429412295, 0.014077526723811925, -0.024973881621751255, -0.04727757297832754, 0.06726336153485261, -0.05444457263495638, 0.0533929027848292, -0.04985880217270668, -0.047654289943130625, 0.02846106109336501, 0.04211008460647204, 0.007411616372845958, 0.002230931560197046, 0.0017572891734027284, -0.029359851054899945, -0.04887971533859589, -0.01245657137144492, 0.034357428877918615, 0.026856974884568723, 0.04652870911845113, 0.02811856346931716, 0.07120540147600689, 0.021415728983412274, -0.01284044940604968, 0.0054953740222161325, -0.044441836330772075, 0.02180061961609686, -0.0384648211285081, -0.05179126301480313, 0.05643808606308442, -0.016888406716846303, 0.043815369836756275, 0.01791715613883977, 0.036001522354991565, 0.044658574399490544, 0.0659957384100621, 0.045013457531883405, 0.01822415568920455, 0.024849687333915953, -0.06778438060201854, 0.06559959509198057, 0.05308405359262915, -0.04676888301627382, -0.056589560024280706, 0.02160905881030026, -0.0302778289861706, -0.02253147130633806, -0.06884219876398684, 0.05740650883657409, 0.01700636937110077, -0.004833354802034527, -0.0408883728425698, 0.03277586870827447, -0.05225393790015103, 0.0418179473934499, -0.031855556027794725, -0.0005289087139109206, -0.014246015431670565, -0.007333776909263881, 0.04529814233224521, 0.04338566112600546, 0.01672471197611186, -0.05132258833470037, -0.07546240172683082, -0.05783551644294285, 0.011339343781699818], [0.014306265454612043, -0.04153720788666298, 0.016525933705079276, -0.013066430898498217, -0.017333548126106105, -0.03966998321363037, 0.02891303506951905, -0.061380887438259764, -0.014001699842851927, -0.035447557020682835, 0.02400913254469663, -0.0019099436308290842, 0.01997666056431597, -0.0672714877491121, -0.015353025199422804, 0.009093859000990068, -0.07375859610546517, -0.02953186717965115, -0.05131239320982333, -0.060097855104505125, -0.04070527130513766, -0.03569207594058093, -0.07985689333769257, 0.028976692098278634, -0.056675115536179384, -0.02531140623477312, 0.02360689615169402, -0.005940119728125894, 0.04438857547253171, 0.042365043337020486, -0.058786989128246994, 0.05756274215561412, -0.05926142113355547, -0.065944384955158, 0.06668913756841223, 0.05977376927642638, 0.008682631420937741, 0.010460403582885166, 0.03205015554227134, -0.00685027370091139, -0.047808288702345964, -0.05999018272885216, -0.024788019034977595, 0.04638833589497663, 0.021851850950015503, 0.038217937954676956, 0.05267812036602427, -0.06514902764120194, 0.041307363030872776, -0.04328531013037495, 0.008836325746358334, 0.005468931890111497, -0.010496238775914473, -0.02092039398737445, -0.027931720118039266, -0.026826144109543107, -0.04899186187765605, -0.0036784089891890898, -0.05896471875713279, -0.00029926234134137255, 0.04856082095546136, -0.029611006920103978, 0.02671823452834921, 0.04058951074050102, 0.041751334558903924, -0.04042348763551891, -0.050526125168917316, -0.04092295118204802, 0.018852816425188445, 0.036440721628222664, 0.023479195587204134, -0.04370091050481422, 0.03203546678507632, -0.006300606944478954, 0.033141976657351954, 0.03961164422894647, -0.002551350678775777, 0.06755285015727433, 0.00623823709118002, 0.0178377580253479, 0.016860466617467457, 0.045442646079919685, 0.012856503335746585, -0.055073465446303295, -0.07249261469078862, -0.016181363516511445, -0.03418247875379597, -0.03660096100875922, -0.06615713088504191, 0.0004423700111249382, -0.026574163864325526, -0.003943635364501542, -0.059801351640344426, 0.047805645751778446, -0.05892372652033473, 0.056456829723998965, 0.042814425881269665, 0.010338028837429633, -0.0033342220375797, -0.0040483893856608465, 0.011339913781131153, 0.047177357467880265, 0.05453528550306975, -0.013531139819505277, 0.03363554181120073, 0.020865181740920984, -0.026964088999167742, -0.005224184359811542, -0.04805419418771131, -0.05873634611875723, -0.05110790522183886, 0.050435303424040435, -0.027742802611973198, 0.028097131696552265, -0.005432459998121671, -0.051050342596149094, -0.038191180842340404, -0.00804720795445948, -0.005404505223912989, 0.008213402809732697, -0.056608614254334236, -0.023920411979206947, -0.034664648036166805, -0.013050109177857679, -0.020878223960842, 0.018077926777238768, 0.040094103007870474, 0.018370336879547942, -0.06733506474345469, -0.06853358290286829, 0.01750704731224905, -0.03812970261223157, 0.021230374692597472, 0.013658672109693175, 0.051793553860574014, 0.04287699020046206, -0.0329362191911293, 0.005251346208043657, -0.05301641329282698, -0.020471973995634368, 0.07013535422145278, 0.02727623327072385, -0.014945015394443626, 0.016323454597762996, 0.054036742237944003, -0.034737614843967625, -0.02281028828827054, 0.034938970582583835, 0.04042041302696192, 0.021419888289006428, 0.04594289217249558, 0.035428838321291976, 0.02930376948428017, 0.005350861200539805, 0.025195954665004447, -0.004936311472025405, -0.02282902869106002, -0.020256279930748307, -0.044356110703183266, -0.0382260264504551, 0.07018842733430727, 0.005096550666685214, -0.0376237809955208, -0.04827705786025645, -0.05547634601756216, 0.03883183666919606, -0.06644065214959935, 0.0321855719450689, 0.0373097386918361, 0.04666471289584197, -0.07346774273125052, -0.032787414111386595, 0.031363222044873504, -0.05839341145582503, -0.023721078385901633, -0.052571644197418665, 0.04571349295390239, 0.03362878713258683, 0.04114644719070473, -0.04979018053621875, -0.013555299211053426, -0.014941366974846302, 0.024653751475151593, -0.04319982454017645, -0.01155444381321804, -0.03251937708358831, 0.025575719602672634, -0.015351747942005573, -0.001206991644662572, -0.038476484774873615, 0.03580228423496968, -0.010984500143830298], [0.13866536606550509, 0.07557180214511054, 0.10184209207610107, 0.1664195114995756, 0.07391758179899724, -0.0003372290871735018, -0.008812548728903144, -0.022273058431103752, 0.018773638346932946, 0.06449128661668833, 0.017997723278709354, -0.10653036257756923, -0.03387171295673776, 0.003384373367205634, 0.02040143610118662, 0.07380649102460997, -0.010311454247860839, 0.06824239404686679, 0.15120952380152136, 0.04781263791797194, 0.08238490497428314, 0.08303347797905102, 0.13789917707563643, -0.0070637162493027, 0.10498763725079285, 0.17209937815054244, 0.002689557022550884, 0.004825966970164376, -0.060791804905934485, -0.11187678524327165, 0.002882849963992629, 0.031880367782750496, -0.022128762832841282, 0.12539428572926287, 0.010528142737759422, -0.06996522033082506, 0.08616454714005112, 0.04009315236867708, -0.013798806210724237, 0.040752764186698986, -0.0905380515924073, -0.0833653517181982, 0.1124911639846281, 0.05054459350865762, -0.0621886851324064, 0.13541836686174852, 0.09379391428925592, -0.0173344321492212, -0.025871385904396898, -0.008918363017116262, 0.03602697477569352, 0.03506841833801708, 0.06238869603857073, -0.008799773670960397, -0.1691331849244406, -0.17473967095138646, -0.21795299744230826, -0.06356124069152977, -0.05413815203689587, -0.0073274262929715036, -0.17767140200022516, -0.2646027954308303, -0.15803148480336623, 0.06470828223373076, -0.0321250742367412, -0.0004104877095583923, -0.023018988954690688, -0.0351440646019674, -0.028503992452990415, 0.13291368554367933, 0.02754853230676753, 0.03240760364321832, -0.03399005733565095, -0.1334023616411693, -0.014769503812632024, -0.05846971219265692, -0.02054073525405688, -0.05719337337517094, -0.03999458824776218, -0.09167074490326572, -0.12318827119602596, 0.328341548476882, 0.2992786417881498, 0.29569427402900356, 0.2560524950339063, 0.18930156599549222, 0.27361049125584636, -0.24027896620281267, -0.2733012254166031, -0.32834336156873883, 0.12831409583656062, 0.09762965514777057, 0.07857426417812467, -0.0386243122013784, 0.028655728271734734, 0.04552058763968833, -0.09208319225707268, -0.012467619551741466, -0.07766140887455307, -0.1212912263546293, -0.06192619805808826, 0.08886654095144371, -0.8596522550322262, -0.04180130056239546, 0.6993511766950151, -0.549001333813133, -0.49715820761586055, -0.321521172836299, -0.6744909714427583, -0.5927979059617488, -0.6603752795077823, -0.10455494657873866, -0.16296665019376053, -0.2013582791641094, -0.09185702387531859, -0.2203002174373051, -0.19137539141501106, 0.09578462117009327, 0.07677218498870078, -0.030273054502358867, -0.05537280599294291, -0.017451398609596477, 0.025988804207830923, -0.1554778655265012, 0.025351780656271503, 0.14297658925984985, -0.7737973330025228, 0.046324180145987444, 0.9546191964165712, 0.20590379276203546, 0.2935841981891688, 0.49308898821645275, 0.3005079312910244, 0.1900861872578677, 0.2067410199638934, 0.3718293754311961, 0.3507545312501347, 0.29727923456812927, -0.0921870281361038, -0.004992892662750361, -0.06852481720568743, 0.05778987776069849, 0.010520449519558718, 0.03278662854204758, -0.03156681768259825, -0.09868614994156372, -0.011937815909038654, 0.06039261264174904, 0.1228664362748049, -0.005940127266422612, -0.07539421027389892, -0.006607350960691465, -0.005885892339590102, 0.26515670628735455, 0.20887593137335594, 0.2350780305466497, 0.30267997203787966, 0.3368667870475942, 0.16631684741084418, 0.1459397251234973, 0.13262889564204972, -0.024975948708738618, -0.022148862354034533, 0.034211284415658544, -0.02290913177432256, -0.0036405296695740594, 0.014552923732190247, 0.0038127200385217512, 0.10916557932579714, 0.1377435833901129, 0.03633898621535228, -0.013065868798356365, -0.05181940671455906, -0.07849948221511459, -0.007668841257251553, 0.0028109648070082007, -0.09737705672644596, 0.03764919109470321, 0.06367811011065466, -0.0028908140309788022, 0.003534863132414495, -0.005265197873303639, -0.07145327363557359, -0.059417906175685396, -0.037579010460020615, -0.01192976269475507, -0.07180102969164932, 0.005535616033996143, -0.05451093361368503, 0.029899710301438776, 0.10440385053413644, 0.02392065476980206], [0.19460951939750973, 0.1696430707149711, 0.010317503638497148, 0.1965523979201869, 0.1888426567425735, 0.016132245668023706, -0.018674433180222594, -0.11973969421872069, -0.09209030441619542, 0.09160421673914279, 0.04691081757916856, -0.03230047234838045, 0.07021935096849773, 0.03129993619880702, 0.010902767123566082, 0.16560602765939636, 0.0791777635341424, 0.03857598729359545, 0.13254362835518446, 0.19409626653787784, 0.013081439867200976, 0.22036737165760545, 0.11172006419542468, 0.12510323102077814, 0.17575526444415598, 0.1840882579288574, -0.012190331261332987, -0.04423694549530085, -0.026820860867911432, -0.06318254589262849, 0.11563729157125215, 0.06874483449700552, 0.04629236647322157, 0.009369275438817591, 0.08796525764175596, -0.009948105801446882, 0.017602076755932613, -0.0052599773169953136, -0.10656169462606033, -0.041029423226633804, -0.11613785375204724, -0.15907844224011689, 0.08544945147292411, 0.1173597963308105, -0.014363510173334046, 0.26441686024102273, 0.13901924025366522, 0.08766406954389788, -0.04571920694407534, -0.04852143420859121, -0.09157137012248677, 0.01813761329071568, -0.017485571929343195, -8.433424344295203e-05, -0.22552114440934906, -0.30597912361706014, -0.48439132335895596, 0.07275159601778378, -0.015586736543457791, -0.12393515075455801, -0.3003535780516907, -0.3439449478230221, -0.36091061760035037, -0.10516201914628358, -0.036550386985301296, -0.21811598577016797, -0.07369589958287595, -0.07462800611473151, -0.1744401844562989, 0.3178129307962056, 0.17730514716589724, 0.1797363771251647, -0.2046161346773546, -0.239192443458913, -0.16775340023709265, 0.046631011491878156, -0.013726079221035853, -0.060717154093656134, -0.24627284170605582, -0.22911781256636307, -0.2898480518800162, 0.7287498085903945, 0.5726279077573628, 0.5969524236517504, 0.4927110283521152, 0.41632977734192556, 0.32944460416780846, -0.31269812772697275, -0.5062358121465365, -0.6015138568810569, 0.2490100356332527, 0.20088074836216038, 0.24876610572772737, 0.08603108859804165, 0.025965937825858643, 0.04763805820857507, -0.04200660542158552, -0.06071772223231408, -0.08267453908590841, -0.25293594564585065, -0.13927561682058132, 0.09528365875236006, -1.3730660051224495, -0.18925644155197016, 1.1035673472419198, -0.9482306487677569, -0.8381619737762959, -0.5620675877162047, -1.074090590057087, -1.1424407333639768, -1.2033017501285372, -0.2705396984148572, -0.4101072802067834, -0.37905881265720814, -0.14032235615846228, -0.29102533166510963, -0.20962306463365926, 0.10958634782763334, 0.03654236202253019, -0.013348947517430619, -0.09104439192404774, -0.14558101285981223, -0.0520394211931578, -0.29298950649327865, 0.01759771868182025, 0.23837725119403527, -1.439003943494756, 0.08546218141889679, 1.7482066094759978, 0.37971262539712203, 0.6650074460210247, 0.9566162078635564, 0.645311900398984, 0.6666105679197676, 0.4815590281737297, 0.5385937758176861, 0.552557369229643, 0.5461473560832331, -0.05266373148061727, -0.055866229108221116, -0.05000965637000605, 0.03925986309549746, 0.0524172552043201, -0.05412067605522238, -0.0895113088773882, -0.08538526836372606, -0.21939490666048897, 0.2448459078175729, 0.109299014732238, 0.007082861694779417, -0.20727889156270465, -0.13220371561248484, 0.1583982047027372, 0.3429865245502935, 0.40016880819060224, 0.31167435718168196, 0.40653189270548656, 0.4280370651342575, 0.31161161809410337, 0.07772081913482497, 0.016815871254104293, -0.035464162138435965, -0.00724467943211854, -0.11487077631736399, -0.09855748526581709, 0.09046603179658536, 0.058768232533873865, 0.046648130608031496, 0.11603395152904304, 0.2077603759886866, 0.14095795471831613, -0.17925413416321145, -0.1945969912949231, -0.14811821992615568, -0.029447855483623605, -0.057837083065419126, -0.1906411404499128, 0.2335648204513826, 0.06481080268828703, 0.016374775915568154, 0.06314253054632255, -0.03892946146070784, -0.06562175944577502, 0.020181082716019733, -0.002610139672593899, -0.21286983540704268, -0.06031763774397293, -0.01676831283961756, -0.02012715403477909, 0.16507163932102617, 0.09659399180012965, 0.08296253690886016], [0.009240854591069865, -0.04915374589601354, 0.017063043128850625, 0.015278573661079377, 0.04695453057269848, -0.05464890736002542, 0.019254007520068925, -0.0732833506051044, 0.05817884000108591, -0.05910512615202808, -0.07006585291548571, -0.029315607678410797, -0.055494799290496104, 0.024475335005594567, -0.016827021538730884, 0.0431758091546237, 0.06394886051694944, 0.05592251812019947, 0.03432864005156206, -0.06230193701461737, -0.05249913971740992, -0.04447639167958795, -0.027294858959711572, 0.02151874312754267, -0.005430857491159394, -0.0348839174779075, -0.05617083371549931, 0.05281478284100565, -0.027169296186256443, -0.025861849164742042, 0.047134942966724845, 0.038085479773979296, 0.027237111323241674, 0.03393328921635951, 0.022689587038010918, -0.03800161758199133, -0.03698814386937389, 0.008243281257285436, -0.04017017654629021, 0.06320636681769624, -0.0312548090359977, -0.03361768279675996, -0.04719374771202721, 0.024670860713265377, -0.03147081698663816, -0.020487221134575625, 0.06583075496071548, 0.045827692337159914, -0.04543425076972862, -0.0661637717644954, 0.01319791443071035, -0.016797143492647347, 0.07144284094803202, 0.04565853111627094, 0.06619961622245568, 0.04413945678939102, -0.029698140052930148, -0.017717081198915925, 0.0438020150121818, -0.012119628349392564, -0.007912198148854792, -0.036439749924529176, -0.004097445918435076, -0.05369343641339793, -0.005737688563956052, 0.05230813901869939, 0.031641106496344946, -0.0495906022570885, 0.020895468753837264, 0.01893490343718751, -0.032417859408141916, 0.029932722884785105, -0.004756236459715225, 0.009040802426250015, -0.07647660565500367, -0.00767574763647187, 0.0362242346917751, -0.05407753155110728, 0.027955271919314482, -0.08617289861441593, -0.009855555403365074, 0.040253444403761614, -0.04468664649678205, 0.03119717325167549, 0.04545858435226713, -0.01841753730806276, -0.06007799542026771, 0.06918675151389672, -0.026203860258522317, 0.02160163504879546, 0.057231255035770076, -0.0637296696495988, 0.005537122438848903, 0.010627933273315644, 0.03683904797242744, 0.06701819887856914, 0.05451718701153833, -0.054411510307267846, 0.04726910786515336, -0.038204369819357355, 0.06683324625825254, 0.07672814082256524, -0.010702748024610914, 0.0012746801974000326, 0.06301486851219151, 0.06934860716932166, 0.06122863721688685, 0.05426654910045843, -0.07620927399123983, 0.003563691530283378, -0.06308473046790304, 0.06935204700096144, -0.03443884362717254, 0.0683484463707483, 0.005947451513807136, -0.004210918417465014, 0.06016457195147783, 0.05662204517955879, -0.0015598019181396407, -0.04125409628415797, -0.06915528850753375, -0.06383058501026935, -0.019356536827140773, -0.021753633099029817, -0.034675968909270966, 0.045009139423854115, 0.03830260068557967, -0.00029279965237734274, 0.024954092312720912, -0.03911717133015082, 0.05951524448307258, 0.06310089398291935, 0.0578165618495936, 0.011748977111365192, -0.052387294697209215, 0.02457896991707699, -0.04675043597083525, -0.05203726538900077, -0.028164661811145478, -0.0417437856465005, -0.04060289147460353, -0.03204325183492896, 0.042790251430743026, 0.0718300111541727, -0.04179343824183793, 0.01867208902778273, -0.08468428080358423, 0.02056044126775363, 0.02386117099075427, -0.06676162574535026, -0.048771095362004226, -0.02040145264006826, -0.007603045161661357, -0.016755989029781145, 0.04065148600546191, 0.009660774810556789, -0.05024139217968276, -0.08018064780166093, 0.03636000580641144, -0.03837312154842455, 0.0059787812932828545, -0.04934431679364265, -0.057025019827292606, -0.054762103382225064, 0.029060373245756336, 0.016955773019366113, -0.009184516877143084, 0.009146947472344255, -0.004318313926031412, 0.005306139986021136, 0.022601747066651027, -0.05009027410948032, -0.045654037210793134, 0.02878876377180085, 0.03898066853082642, -0.07758570914087588, -0.02536244276545004, 0.028070453014995552, -0.06214660473150534, 0.00334887882301819, -0.07354394799400012, -0.004356080817821046, -0.010305941550167553, 0.00910255227871147, -0.05403703804248668, -0.0299161480065961, -0.0013143669289384437, -0.0607341012368912, -0.045906577252605496, 0.006505174974156539, -0.06456872084876454, -0.0047563115795990225], [-0.01580198533534095, -0.08314853420697133, -0.06075574459273877, -0.08206067334826044, -0.12835534103375423, -0.09084988946479047, 0.014206064914890505, -0.0025363379247139222, -0.06594228705462626, 0.13512187324522973, 0.057334662281725055, -0.009710009517498378, -0.025696358639158874, -0.03208439700927493, -0.059291175222145574, 0.08935917333960187, 0.05417766961423486, -0.06602204324215614, 0.00833343159051795, -0.15487630323996915, -0.03796789488524013, -0.051982564550334565, -0.022443571285774577, 0.013803188175266231, -0.115548549632405, -0.10120323538795313, -0.06341313898721568, -0.08656824125355772, -0.05827831776512638, -0.008369496512008353, -0.05902049123619819, -0.09950747883405373, -0.1284698871619835, -0.13767818509329327, -0.18899534479397687, -0.28359015710828095, -0.15376632801462298, -0.11507767337472692, -0.12186266139294975, -0.0004929575086050942, -0.13568701231201813, -0.17401098381085128, -0.1408553868093262, -0.1630529657134966, -0.1276589200400854, -0.12648754568855283, -0.09156587470318107, -0.10354984313397489, -0.19585607623361567, -0.16542513440283932, -0.14303323459596437, 0.1004315073491068, -0.021771807822274836, -0.10173729059441279, -0.04821583170182855, -0.10615485824514263, -0.09516892706692927, -0.033340084489237136, -0.10381851980008522, -0.09106054033648697, -0.3125263453586239, -0.2268190846252175, -0.16053976991108862, 0.11082917880628862, 0.03785386418167969, 0.15794272919248745, 0.0204025560281094, -0.02119192438418711, -0.08845991725146635, 0.0026581765372777197, -0.10164915157909529, -0.06316224770701787, -0.09646875805996487, -0.05008700856210398, -0.016776006580569134, 0.07546718171673784, 0.09997781947779225, 0.07024209823138992, -0.07242131136815029, -0.10237882937910706, -0.14691424801552025, -0.0566838529453378, -0.06465093670609767, -0.03921948167795471, 0.03566682805253399, 0.3820216284021405, 0.34528734997667726, 0.04935224942410039, -0.0018317614311704937, -0.034696555256458816, -0.11280887080712428, -0.09171694842542072, -0.13207565789328324, 0.006699642850743571, 0.017445970550883576, -0.10551777792926446, -0.08725861326584283, -0.11284224853477795, -0.12074635485505655, 0.30483964145704934, 0.14235754091400907, 0.1715380454997527, 0.055050446436476455, -0.371033217734318, -0.4455283932637967, 0.09900760175991327, -0.04334411781047158, -0.012844719834606775, 0.07548909551623216, 0.09621095395851538, 0.09728818105902896, -0.08360104992002855, -0.24230479630262156, -0.23185576301852487, 0.17689470550272504, -0.2646416070172192, -0.17896431003043364, 0.027797605953125498, -0.014591716978042223, 0.0326595301327332, -0.0952723156828837, -0.025742028900733807, -0.16415817061512517, 0.19675400955654343, 0.121794863054365, 0.0418368159614579, 0.34082409088949384, 0.07069180623707344, -0.07103237855906482, 0.11138050123216703, -0.06265381555892316, 0.06055484238313265, 0.10825877193007043, -0.048137215307847196, 0.034924420928543864, 0.46427386323594794, 0.2796444388096703, 0.28656662899935736, 0.15597342524168797, 0.0708907701194305, -0.038116724019347216, -0.006412625629153015, -0.12939700065728518, -0.09453114925131458, -0.038614964723181044, -0.0756102297096913, -0.023385823214080784, 0.056625752729369865, 0.018085243834690873, 0.1444156107071005, -0.1542959282252843, -0.15917311010453847, -0.15955258137849776, -0.3422640827999186, -0.4253296174295, -0.42223345104348226, -0.868518674736948, -0.9864199241913765, -0.9600346761383919, 0.11879544057107108, -0.01785567085091461, -0.042464327123339515, -0.1964658961069711, -0.1691966637931062, -0.22819589068058482, 0.02101857994389269, -0.018631721413798222, 0.051810345027487985, -0.07585218593928618, -0.08798222522775326, 0.008834644667590296, 0.12087363955138596, 0.08250658132763915, 0.10969562027886369, 0.06327663612161401, 0.17538585548753247, 0.10351494002632601, -0.12527767511595753, -0.182268416599503, -0.12184105147511916, -0.29229080800299756, -0.291099661925393, -0.3355132046599058, -0.18470924832661345, -0.10071017169290213, -0.07497335409561047, 0.0702157617831303, 0.10133721224895967, 0.0791127695430622, 0.047490780497685056, -0.02728875773666065, 0.08823604514791564], [-0.06280485129842636, 0.008590999543837595, -0.010404918479957798, 0.023315538115847863, 0.0293295823948221, 0.02617381351829484, -0.014336767708972934, -0.012351946597924292, -0.07385263342765279, 0.0031611667847409623, -0.07635691699966633, 0.004551633426150394, -0.033721421893723964, 0.07075898963375987, -0.06616827438163068, 0.04664440883436395, 0.028935659670963502, 0.04668898412607143, 0.05512626774025055, -0.05901090173365166, -0.06593588836021491, -0.04445493961671826, -0.0397412769005904, 0.012539171957006942, 0.0557721260467356, -0.0293851817046459, -0.004722148081139063, -0.03622478698549995, -0.02835035820701624, -0.0084498445387282, 0.04851831425087389, -0.057913211738918974, 0.010571694888212748, -0.0005697857652250103, -0.024413575655854506, 0.008810393267483098, -0.006994910731222549, -0.1013365400842067, -0.05990281176128867, -0.06475130308631787, -0.1309231161934547, -0.13564329713276108, -0.06512686309366368, -0.011157134389306819, -0.019358146539981105, 0.031551564818736604, -0.004787613355684746, 0.03947860081060997, -0.06281044563003549, 8.726214915787437e-05, -0.07503302181987552, -0.02906726152096823, 0.06620412354933747, 0.06888900834069148, 0.07407948901331278, 0.017916495319691507, 0.027900118728914, 0.0414432643559062, 0.04012008680481288, -0.003544388257891953, -0.06328424628619105, 0.06172441749753715, -0.027509012418526196, 0.12458949086269408, 0.07632974354506934, 0.1063658946431703, 0.04805623264260276, 0.0069278789449897646, -0.038246728993870466, -0.06805774939213394, -0.0581577129177018, 0.02991973548993736, -0.012912451000639685, 0.05954352381499962, -0.022391008270553202, 0.03802546584501118, -0.0501802415413193, 0.07387862716866521, 0.0026680496929239093, -0.028369727930613965, 0.04132333147976924, -0.060401153465425274, -0.004050947802729261, 0.0603378404637071, -0.008000649511213964, 0.06151379783502149, 0.08720520036166932, -0.014371235652543106, 0.04304757265072337, -0.062456376605006435, -0.05207170345060162, 0.05844730109923195, -0.013432081277865344, -0.025060382726604068, 0.06609500336137585, -0.008856928724600817, 0.028132569055244968, 0.02608589700763681, -0.055615184719667615, 0.0220190089484294, 0.054668193138540024, 0.03883565403246018, -0.043428288453843916, -0.019269940710001866, 0.029472941950785213, -0.036648886417862556, -0.019860025028586522, -0.07920818541486073, -0.11799713185030879, -0.1404367202368595, -0.09334605878081059, -0.06454088197343229, -0.050543811439090626, -0.06828389025275194, -0.04070882037090426, 0.029264084579006512, 0.04243110224686576, -0.011857320952672395, -0.06514067309136216, -0.015437424041697843, -0.04380642279545759, 0.02627771419480581, -0.009556567776441224, -0.027150027397534054, -0.03668008220787596, -0.02695475141131801, -0.035854237061986094, 0.07778113394380452, 0.05238998530698538, -0.01109829442507209, -0.08136598767615322, -0.1371024136840549, -0.2003016122320525, -0.24716794585545188, -0.19826723389868162, -0.07002685673947469, -0.11731054675034713, -0.05840616044258091, 0.01852639267512639, 0.04468113203447498, -0.014296467216704831, -0.05473958813131822, -0.054483090291575, 0.0020887770604696688, 0.028273348237328615, -0.027897074640788645, -0.04158329887301961, -0.02460471519814053, 0.06709343370271935, -0.01737650385336609, -0.013294973861626046, 0.014113126222901675, -0.0520489467690126, -0.0037465073001118816, 0.06887851426352755, 0.0781126259515997, 0.09918676419758032, -0.012681182688088504, 0.015932346529700946, 0.05703521995752356, -0.04765368784441883, -0.028538670995520057, 0.055336069155726676, 0.05613280632491743, -0.039956567144642297, 0.02385038441401789, -0.0069951454599141505, 0.004408719629039226, -0.023249658537952272, -0.010870321999407614, 0.05284646462238224, 0.006177162005694199, -0.036070090260320035, 0.02456265394948004, 0.027116123887429972, 0.019584994296751135, 0.036198971424454496, -0.0029658543312223165, 0.0529334625018434, -0.012229787714698712, 0.014177222253920029, -0.020826200393756926, -0.04217529526810128, 0.020132507192294116, 0.04085147106757787, 0.03571145751140067, -0.0035860961561469, 0.009576461872798299, 0.025974314447656202, -0.03671807785983843, 0.022159576643168376, 0.028422059055017462], [0.026748335628898567, -0.07334971204697402, 0.06187305218420858, -0.014790645757059939, -0.0230676146817327, -0.0051255214244529616, 0.054765780598228356, 0.025249714515005458, 0.006319488654710663, 0.03464779694550423, -0.024352882002050248, 0.05560928772688034, -1.4936396655281599e-05, 0.018017754876163194, -0.05980189232086361, 0.029926175461673834, 0.017194941991759013, -0.023775300120314948, 0.008067769935977714, -0.07638202311220628, 0.06256136248021743, 0.010656981435225863, -0.026685873198732876, 0.02721560857310324, 0.05650493703599436, -0.016766470726214518, -0.07492841112822572, -0.0361085952006027, 0.003911314289959594, 0.007484813658420944, 0.01543648535104447, 0.018331070655614345, 0.0024832835295083826, -0.014381549705444288, 0.04382642121870573, 0.019514426349908583, 0.004394661010777877, -0.014848862565408657, -0.05901135775556718, -0.049616493104371405, -0.0009969270214313132, 0.0797634692384357, -0.05606537935346187, 0.06622601125295059, -0.046828757756689085, -0.042246718197619854, -0.018053008027807304, -0.05118339403336257, -0.00663120812271237, -0.004479656487503911, -0.006774140433915218, 0.02734204436677138, -0.024260514038001328, -0.024955750285075323, 0.04107247623263527, -0.056636874414922024, 0.05067118201654646, 0.017770223497965372, 0.02493450690124868, -0.04686197375661793, 0.06622535182452248, -0.03788093263926835, -0.04549890465792062, -0.05385743974691372, 0.006127777294995856, 0.06578207044863775, -0.03293494895206334, -0.005167659043262372, -0.03455909406206016, 0.013917778228839729, -0.01312605470318444, -0.06837669481608108, 0.015534576630442769, -0.04121105729365629, 0.018049554018302577, -0.015034800912207606, 0.03359143551578674, -0.03609466422756507, 0.02072711491603207, 0.029887765292930815, -0.07668384081726792, -0.07152591613479191, 0.042133994784327916, -0.05412587295745834, -0.03345808295742356, -0.011645173341660188, -0.03748886329334436, 0.03934014657519387, -0.007440625233523193, 0.009508640363357029, 0.00848367841907233, 0.01314746016469932, 0.01199808104391409, -0.019251140967670954, 0.05541876797938621, 0.025338668741422224, 0.04481899240443089, 0.0325842254336096, -0.023805317324253415, 0.009742058694102919, -0.06427161166207927, -0.054840777894991345, -0.06525156901951197, -0.035662846368528, -0.051197020340885975, 0.020135952952871117, -0.0026451544644537253, -0.013837618339651298, -0.060115501265880396, -0.02157516897420426, -0.04680535321790746, 0.00766386121856349, 0.019243805103251937, 0.014092999879386812, 0.06353627206800606, 0.002300801240222672, -0.004452805732899694, -0.0511632762885998, -0.02280587998341568, -0.0008342513177660414, -0.06572382918844544, -0.01751785833078686, -0.065804653778982, -0.054529812253410456, 0.046840412319999414, 0.07066821476875648, -0.011109603791942924, -0.010161897201971255, 0.019922522736047568, -0.005104615353688027, 0.06088088992130149, 0.011389001204126378, -0.05499866027439716, -0.05831040024259771, 0.04829742070738026, -0.04165590114629487, -0.041330778623731954, -0.0008549686398886865, -0.05153644584078209, -0.006211345249267136, 0.03729635968800182, 0.03923143034263129, 0.011085908941608871, -0.04979022783915005, -0.06452726433190233, 0.033947730461945005, 0.043730277705323665, -0.012449865710871668, 0.057253778037559815, -0.054082767887553576, 0.02383162782986361, 0.0020383909357447913, 0.06817313060490095, -0.0523151716191925, 0.05673370357406652, 0.04737059421199376, -0.02029552905404706, 0.08480823636630458, 0.007241324587252614, -0.027128221164636163, 0.04378462219671476, -0.007761963929234892, 0.0738417377160072, 0.04570118189118463, -0.02931704005517902, 0.03752591272770272, 0.00891596930397773, -0.02329124935776845, 0.015304877400100572, 0.007237247521818752, -0.057355690405626845, -0.058261148967347264, -0.045492824583670884, -0.0431280719753729, -0.05853013486914092, -0.01288927210136927, -0.020926598071034124, 0.013564846549082889, -0.014532733241582704, 0.042049812538226136, -0.024997751737603876, -0.025232840265998265, 0.06236192432138376, 0.0742889577850884, 0.03292340074718733, -0.0488369783936308, 0.0630714568154872, 0.04125126674377876, 0.062080960606267756, 0.05842862888994934, 0.04302841090250025, -0.06087583356282868], [0.08352883572730596, -0.006130838010912835, 0.04944087370984336, 0.06590079782568772, 0.05422590207292012, 0.0407435373273339, -0.04444497887937334, -0.02379193885764665, -0.06710753741256895, -0.0741195765565829, -0.06337958829428635, -0.023534324228250338, 0.011331668435177161, -0.09588795869597909, -0.03526160912732996, -0.08405166502712544, 0.017354502001104444, -0.06151399295604614, 0.05539575867799347, -0.03734365783233764, -0.09328539721280661, 0.05200823048813643, 0.04652518527720375, 0.04927542607337593, 0.015870091448657014, 0.05340137941741124, 0.008186222519389792, -0.12102247880162582, -0.04217077060708234, -0.08845176873249401, -0.09281135058331644, -0.10761128575647876, -0.09109591038290557, 0.05817419912352153, 0.00014362763952778214, 0.03838624518770794, 0.0013884126180461942, 0.0012252361998762087, -0.02112625381560791, -0.054592791654405844, -0.13336185481350707, -0.12457018067539692, 0.018479735156740756, -0.01682487928856241, -0.06281653965604585, 0.027093188630861294, -0.037773692310808425, -0.0944779384008629, 0.05733533889153963, -0.04910088362863677, 0.013243897722839309, -0.1001370559008553, -0.007629481929086794, -0.07839037182249349, 0.20446361491301843, 0.13081325021407283, 0.1914801632506326, 0.018164402176981644, 0.028789118785749447, 0.09991922974179322, -0.06599575970492855, -0.04076319710506875, -0.05563867389932863, 0.09223332117769487, 0.035713268444312746, 0.09904536339203233, 0.10102759943217376, 0.014176232712807206, 0.08535272925316996, -0.03836055429699848, -0.030054041301792865, 0.04016533796607413, -0.0732156471885573, 0.023187504612733136, 0.04309378940881538, 0.0664914210267557, -0.01787468993442104, -0.0501424597964233, 0.01146157989015294, 0.07483070971462208, 0.14116414875010602, -0.03879550189881693, -0.021644683385492056, 0.04580814569710977, -0.10505173195661875, -0.0518810783068125, -0.05285318301286588, -0.04484209883482639, 0.07793220030440114, -0.05589345042181651, 0.01986034042446745, -0.059043028936658436, 0.03157376552781096, 0.02736180249699345, 0.08207017849686049, 0.06690989574042197, -0.05392067236483046, -0.011525718173006098, 0.03251672947983377, -0.01248985798179626, -0.08640598918187457, -0.06068947803074601, 0.0007555512642840016, 0.07162920148240234, 0.11645896281261638, -0.05165035177506526, -0.12258995380148034, -0.13104289262286345, -0.16120464270648782, -0.20077697329699618, -0.12183649610601834, 0.02018212152803696, 0.04534734384632296, 0.07128278352253539, -0.0035489087195529115, 0.049918363162864424, 0.030020019908288897, -0.004078893695241904, 0.03656829312378118, 0.03221767906447904, 0.049887642032200745, -0.009591245382467676, -0.04764717889478298, 0.017919869453565638, 0.03601820835530308, -0.018336856421683763, -0.1415587564064487, -0.03360546981063404, 0.03003787625975242, -0.012831288036091154, 0.06180334247799594, 0.07466625450679482, 0.008830632895914988, -0.10755806863915744, 0.014363067086494723, -0.027077995695874546, -0.04210112074355859, 0.013433484352091478, 0.02458533864804922, 0.0724795373370082, 0.05889877456843117, -0.04353042138115956, -0.028819469553331634, -0.004746522875272314, -0.038899776876565366, -0.03682849944292078, 0.055982423191391385, 0.015345025471622746, 0.01968573303574585, 0.013457240891535084, -0.09260061433574074, -0.0311414108184369, -0.11411604894626048, 0.010089497474273469, 0.03538222655184286, -0.0036355153784965112, -0.0037410996914328176, 0.04490738386174957, 0.003105113406521011, 0.007730291826914846, -0.00510923484770028, -0.021879192397359234, 0.03743534564634869, 0.06449821083274739, 0.04809131595091809, -0.07031040692481069, 0.025162422645947334, 0.03176423440512829, 0.07544130892753556, -0.04300087625798999, -0.03671556939074061, 0.02084096878844327, 0.017390687995786667, 0.04140256143895997, 0.013584801669562654, 0.07192073889616865, 0.06886172726969902, -0.03145705447284668, 0.049629100305728174, 0.04955833995244391, -0.028390263594396538, 0.08622763027564649, 0.016934857106406288, 0.06319919343487414, 0.056004925381384095, -0.028477022277180287, -0.024276567352424023, 0.062478363235025036, -0.01057039255579577, 0.08222367091708638, 0.06381378545928713, -0.04978179637873364], [0.03542027594757313, -0.03995748932154679, -0.06819398924516994, 0.023030376485486632, 0.0053246084158488464, -0.06505027709915696, -0.00991501980583443, -0.021553018759492552, 0.00011706052948199812, 0.010356039103853024, -0.01628218862910584, -0.031033380196445085, -0.05805928911089238, 0.012022267554697921, 0.03482528302185971, -0.03843170303636806, 0.004101714148330811, -0.06148953524844133, 0.04749938799417537, -0.0398442389527584, -0.005508110005065646, -0.025408211596564822, -0.05743825258906745, 0.057017531272074574, 0.04262382344393886, 0.0006127986641260612, 0.05435393848420327, 0.035337948213546175, -0.008887861735461324, -0.02144492603261569, -0.00924388650495806, 0.03694520433057898, -0.026607998214713206, -0.060295617970934696, -0.015827605842940382, 0.00420807708222779, 0.054340404076103396, -0.04799865391081306, 0.04374142794481679, 0.06955142503941265, 0.06748700394057001, -0.058747309881185615, -0.00034326086805307003, -0.02469598446811435, 0.057526849566566673, -0.02783209407252594, 0.006688527629208563, -0.07058788256551625, -0.04871347583640123, 0.005671854817089744, -0.030313113683539297, 0.02072041931872966, -6.525640005725523e-05, 0.019611872880064888, -0.004288043479493237, 0.03768126821672505, -0.044570679486648265, 0.05015449823602995, 0.031231205799205273, -0.04204860030425152, -0.07792384320086729, -0.017985393334677833, -0.04180308760850019, -0.02808800166286418, 0.044467172640749425, 0.05106427495742087, 0.062240860946330856, -0.07334127059100536, 0.02241495160262254, 0.05340568392533906, 0.037801900686819406, -0.05080688922962725, 0.0010415884203370071, -0.039179953403360675, -0.0010270496036197336, -0.0638873270675956, 0.0731236777626066, 0.03344656321561625, -0.06775365799222716, 0.052916553227146536, 0.050694643657150526, -0.0045492980651623775, 0.0232865873838796, -0.022804907620423708, 0.061674151120793684, -0.06426892875546654, -0.061093725818767264, -0.06060940274736708, 0.03965733734437433, -0.06689157306706894, 0.0006720705382169961, -0.017065780080320815, 0.06050594195921099, -0.03520598962815333, -0.029549263846547782, -0.02036863363117062, 0.040038886073132454, 0.02757134870961872, 0.03407639023661665, -0.026685074221368694, -0.03173558029346002, -0.05866660511451524, -0.05185789488664463, 0.0331451605438102, 0.006497077138211786, -0.0535365531813733, -0.05031086047883506, -0.005366415547569862, -0.01663304176346826, 0.0038827394255586227, 0.06701540624710937, -0.04770247698348795, -0.03136343798650321, -0.03605263846869621, -0.06278240113558725, -0.055503039851154984, 0.022321004029367736, 0.04982628366623099, 0.032968980491000235, -0.06018572975440786, 0.04383351051621385, -0.027579340351586965, -0.060310892541820746, -0.03427263510808631, -0.016732483264358534, 0.0073006906769702475, 0.017312603241693182, -0.04095275146146956, 0.06608510054606627, -0.06443420744641076, -0.008235538085197907, -0.00033286808890097247, 0.03955295213353867, -0.030055461336133592, 0.0013213930834135158, 0.04474303186549651, -0.049131554001277666, -0.06609297683734147, 0.041275432728984186, 0.06511419828063966, -0.05626814832949444, 0.04974734987838216, -0.013103420604354786, 0.025146592472260892, 0.012808630544254587, 0.005503087205439308, -0.03939173383798484, 0.04664430433177946, -0.06541320359597758, -0.05799304804995628, 0.05763816648239958, -0.00644607776583592, -0.05055748681898783, 0.05929901382268084, 0.05055790916546971, -0.02003791859989624, -0.06597924082820333, -0.00364455942259482, -0.04478951055866429, 0.009960723426356174, 0.047897469121441785, -0.012336441909310611, -0.06670836364348084, 0.029809972839329534, -0.0426400938860366, -0.0421382208960509, -0.04408806591092275, -0.029359164479844015, 0.04656780455049843, -0.07418252266442374, 0.011836416965085009, -0.04276823568990823, -0.03364890268132045, -0.015367685189237886, 0.005239878128696261, -0.06339794292951634, -0.030638968525774714, -0.049991983361437224, -0.03901921541624303, 0.06097398678436127, 0.004153204016347378, 0.021250741379750335, 0.04709687947946733, 0.04428507381657908, 0.07423459821090302, 0.04550116534492574, -0.022899609318203465, 0.005884500703783235, -0.0014346325578924917, 0.05204690417703244, -0.0053054141142518515, -0.020277561792295763], [0.07086671773367931, 0.09684011468251982, 0.02653559249712927, 0.16234186918302534, 0.1365698890525276, -0.01015127082046445, -0.03936445300265486, -0.15034259303499684, -0.12151800386546038, -0.006388922584623784, -0.06378152057335948, -0.1887655116885872, -0.07294095314315165, -0.15135765112895813, -0.07104490456218437, 0.07931117784738588, -0.07368014530019235, 0.04390397183033168, 0.05898896123939948, 0.115689469270508, 0.0851715999463588, 0.11227713314028133, 0.1317758571195563, 0.09827540842866839, 0.056853100743683174, 0.09086238252760037, 0.09292846936897238, -0.18743548325613524, -0.20252050111580702, -0.3272663353791932, -0.14734907272847952, -0.11599932067571539, -0.15903402566016941, -0.18387025785281605, -0.2304956623796716, -0.13848890953462556, -0.16086645482453, -0.22981060569733544, -0.2655920925710489, -0.38859581546980154, -0.46851455975415146, -0.4491464651787238, -0.14075743084711353, -0.11116576654800044, -0.1867781821011873, 0.13661639721747867, 0.004403176540291057, -0.04247243235655885, -0.09616994181435243, -0.07261924371972106, -0.12165882604684855, 0.004366769764840881, -0.045612850629063374, 0.008539881421165178, 0.2737966063805772, 0.2760556863847369, 0.25762536421839055, 0.1989552822733915, 0.17138400895659534, 0.0909603090217652, 0.16827134917770462, 0.08379337151667618, 0.03257127621972912, 0.1860158498966214, 0.16173308166909126, 0.15605288680388701, 0.02803640863659766, 0.030612277921690103, 0.026680764381417917, 0.08269116325283504, -0.026024178115807085, 0.05986079258108962, -0.10487195591237602, -0.06561346974324282, -0.09814013724441417, 0.020984355743777425, 0.047279959867762934, -0.050752621154480315, 0.11020909300832474, 0.26707425755104064, 0.26420630014545293, 0.25940734491310125, 0.24218016382517704, 0.1890126916725973, 0.3577621533824112, 0.5045408809490094, 0.4688994051451895, -0.011298998241996216, 0.04298355798560012, 0.06113845573416984, -0.07905594372165257, -0.20821656601411734, -0.14131849536702804, 0.08113846002240283, -0.012860083320285215, 0.06250230891427554, -0.13673251320496613, -0.038165777674958296, -0.1638204904240379, -0.05191384770776284, -0.01527148891799692, 0.2215268765222045, -0.7706619791296208, 0.05717216767702672, 0.749177759865058, -0.9194974946749306, -0.8129104711109201, -0.6223638779108563, -1.1336449952177559, -1.2002368076349146, -1.1910004001985175, -0.11602081113487583, -0.024113780149972463, -0.002360890137304256, -0.036326494918774266, -0.05787202953872443, -0.07863089850637661, 0.06926076452865289, -0.010693827713050892, 0.016756405556467308, 0.012177943363946063, -0.008214750491836429, -0.0014838346211159222, -0.1379494977419565, -0.061654108043057855, 0.1109611583161509, -0.5114960726346719, 0.06435941394603263, 0.7117390178537951, -0.003816844514948447, 0.06395859666712336, 0.1768249525017447, -0.035831384121051205, -0.10449165754171372, -0.05695676492794625, 0.19417910041958678, 0.2948907819541474, 0.2746701805706727, 0.03909468757027783, -0.0018185346691393513, 0.12427377491226138, -0.04143970063733731, 0.05330518263808484, -0.093117172782075, 0.002119161865783565, -0.006103526577837222, -0.06099116542148679, 0.17574122436858006, 0.1365869021790454, 0.12046553395893769, -0.22973587905328346, -0.24167593136018045, -0.24553178337334775, 0.05015296992639524, 0.11220187255410184, 0.11576307012239614, 0.08407845337901074, 0.08083726074856935, 0.082954047466014, 0.010715967296763699, 0.04636620860976771, 0.01973470105021395, -0.042203112755818506, -0.08012384845976107, -0.044827796620179446, 0.051705571838801534, 0.014276072367225999, 0.10095049893499125, 0.07550771591522401, 0.08410700180794171, 0.06487530311356267, 0.055972699838434885, -0.04672158933609943, 0.004591428608892367, 0.14757582396300797, 0.22976745083185598, 0.11959830943874339, 0.154465476950377, 0.08459829309919478, 0.11171510422406893, 0.05449676684297576, 0.05381917460859003, 0.0002788156966513411, 0.09372487932442608, 0.11192469663379553, -0.013810725986957885, 0.03666145212072345, 0.05944474174259463, 0.09751077006351223, 0.1277065271932685, 0.10113456719384176, 0.11591485834460123], [0.11532760786833528, 0.07563231945950964, 0.05827403848610625, 0.1513008420729621, 0.0795205589877783, 0.10647944431651474, 0.05435452211151324, -0.034984717401774, 0.0665553633651475, 0.0887898603391985, 0.04352285343018137, 0.08618554730418033, 0.09069481198907746, 0.08009392182842213, 0.05651732387897422, 0.027485467890960062, 0.12763076842673482, 0.019670076714500426, 0.16929480597114505, 0.15854747967150165, 0.10320321082800216, 0.05619088130180064, 0.05781728782909311, 0.11787472829322242, 0.09262115368693798, 0.180131155012923, 0.08271511532926427, 0.07925477050692877, -0.0536906880212409, 0.05281852680628891, 0.10315633829056645, -0.04678967174685383, -0.008915671622947081, 0.01100731874141971, -0.006366227859257627, -0.031854709570981375, -0.025689658544371396, 0.03098155783135302, 0.005523438894609923, -0.015928619072075698, -0.06450781332651409, -0.08358298520600532, 0.10646513123435479, 0.03139641330079543, 0.08096258783921387, 0.15868908335306686, 0.1880579233676155, 0.1762351393637777, 0.06711730569219414, -0.012701666855082817, -0.01949784413313913, 0.010532914958703787, -0.00898378138438478, -0.013393380536204851, -0.06102162820674694, -0.05594547568968154, -0.07329625158507411, -0.05555789989903108, -0.050286667318666524, -0.0713329528673274, -0.0784352531899127, -0.10643144967036099, -0.20155227195566433, -0.07641034843969478, -0.16418708393133327, -0.18809835844610692, -0.048518275539129053, -0.02125885164902076, -0.05936548989330408, 0.10496018979784942, 0.17443954045671178, 0.08344330169261303, -0.04710972802900469, -0.0401531473920809, -0.009403941246308686, -0.02754080979162033, 0.06808475408270784, -0.057081288977136095, -0.16893342312530527, -0.2711637476165412, -0.2315871668687985, 0.37147344074130384, 0.3727883617593791, 0.3761066318226657, 0.13735955032982494, 0.028380651367476195, 0.09664841637286077, -0.12526540821418744, -0.18981920276697556, -0.22933636921662115, 0.1814827280094352, 0.12801617750491803, 0.11617312334763523, -0.05483635175105406, -0.04099229968831964, -0.09835029475729913, 0.053915909587500165, 0.042760512204436635, -0.10983141279270432, -0.12428261226352502, 0.009319965063752695, 0.10286048068861234, -0.6351909618681626, -0.13963721667340268, 0.43044888768594664, -0.5069694242809847, -0.4914641530378503, -0.3038651238253566, -0.5565932143147538, -0.5878592891746003, -0.6564626614922693, -0.27864309707686574, -0.23378021884736133, -0.20454119012096125, -0.09164531384765974, -0.01007174481058966, -0.043346657459885855, -0.02677264875850446, -0.06192528776758809, 0.02688733096014302, 0.04827845575077411, 0.011376604921846872, -0.05302514884295592, -0.10489009005318925, -0.04492810520128723, 0.12575234565725613, -0.5107146087715942, 0.12353372985283854, 0.7060183450875817, 0.09136402037601209, 0.17689616992433957, 0.36386886060041895, 0.04656938815913983, 0.1486191252177367, 0.12089189396803726, 0.07158237336000461, 0.26283663718380296, 0.2184002662858591, 0.03168465059033835, -0.006562298780082102, 0.02248238610666552, 0.02499745129050076, -0.062338209757638124, 0.018153364687731557, 0.026421445033576796, -0.026512222873338185, -0.05918666603400872, 0.009698723539928894, -0.0386963875366195, -0.005254579990962841, -0.0647179059644472, 0.032032203030011704, 0.04764751799725662, 0.13642216031096596, 0.17324334859134, 0.20235289719876828, 0.3213318724359468, 0.23064292118613716, 0.23578163137750022, 0.05828992819686149, -0.0033802313058261405, -0.054230959025987076, 0.07495807990746958, 0.19381989016010398, 0.12783333215202358, -0.013802187348349199, -0.0967520622172094, -0.060852701697837186, 0.1413992426929759, 0.04121575931773527, 0.005566213183184541, -0.02564348329297011, -0.020136387145534604, -0.06122639812140585, 0.049734282990854556, 0.0026061515807022, -0.015493321698610514, 0.07262962523961006, 0.053167101432430204, 0.02534677857419769, 0.14441598014066076, 0.03940613516931802, 0.035886704024005456, -0.031153486059974814, -0.07571900111133309, -0.008209692509563838, -0.1396551244254502, -0.20174905695285666, -0.11774725980051744, 0.037279028328603504, 0.045982178735749814, 0.07137708911886205], [0.16563002779700298, 0.12471430277098168, 0.059547640951717565, 0.14647365826574696, 0.1257045709776279, 0.15848994410292377, -0.01591416416693331, -0.03952916126589899, -0.02380372199007494, 0.040749249506095035, 0.1054037313258825, 0.09631193315085868, 0.015511362162606429, 0.08104646067495341, 0.05009826164879895, 0.041907359937940786, 0.057798572086892, 0.12004853531408882, 0.017590725216356018, 0.0785859706852312, 0.008663157378972119, 0.03403169214928061, 0.03592693066653984, 0.10903614100975316, 0.03406650799433483, 0.06144892099392337, 0.021769816203431255, 0.04216205241576334, -0.08884999502845393, 0.017597938272119702, 0.004300977211042652, 0.030590456053066782, -0.041525337938961696, -0.1986367503781892, -0.25047930172723737, -0.1530763103012324, -0.25180116798915325, -0.26478825426294406, -0.22554952783906326, -0.2494884400381012, -0.18288027429097703, -0.2390316538471056, -0.00450812449328273, 0.01643966137454108, 0.046844884721880205, 0.047324426903203425, 0.03809320812026297, -0.04578987258829115, -0.015402690488653418, -0.10473236117473358, -0.0934689092341, 0.15805771264887764, 0.04856324291110751, 0.12418234845514232, 0.2866178815790579, 0.38636433665544134, 0.3536713584422354, -0.5547331828622617, -0.5295580458924145, -0.5198800968503842, -0.4548139677727414, -0.5325335578780696, -0.559131223285444, 0.09308345819982251, 0.1631571258564275, 0.1683215181008723, 0.08236733394370042, 0.20242718819803446, 0.08317405857624516, 0.11403653965094648, 0.12838340470287063, 0.054201802292795045, -0.0009902956152557942, -0.07873392542948714, -0.1147480211150134, 0.0374791105534926, 0.07365953857218382, -0.016693056281042656, 0.18253953294988043, 0.142711418454708, 0.17201775317484308, 0.10577618154568832, 0.08991543726689014, 0.03805234775452829, 0.1430438733925234, 0.22428175585075527, 0.12770772535211034, 0.19100873148668868, 0.14318078026896255, 0.1264447009352729, 0.04959134970185229, 0.05115290952930627, -0.031149768777498164, -0.041913701983561195, 0.07275667084536197, -0.04516657898731435, 0.06174427201860945, 0.03459574550581222, -0.07727827589975506, 0.14409869519404742, 0.17238319827070278, 0.06047386576687376, 0.1067781871341499, 0.024925517483409612, 0.0007918349441637138, -0.35316319172148103, -0.21954132086450195, -0.24406621859469757, -0.44029138863193207, -0.5393536710903202, -0.45021220302860776, -0.20912097941625074, -0.13152397271416655, -0.07665990793846639, 0.10133977448422592, 0.09920028669587118, 0.1754510485055591, 0.04519372679105497, -0.02810599691474714, 0.038615662399162726, -0.03980089184444627, -0.12408705416868301, -0.03794113713586062, 0.08452439929541336, 0.20997035088005675, 0.07723089191321511, 0.3761684692477938, 0.22862266706307932, 0.13667944951289404, -0.5242794877140888, -0.63585122516564, -0.6019846067318652, -1.2480128957150394, -1.338315469042987, -1.2188865836847524, 0.27839120284221314, 0.2588946501970063, 0.21257253496946468, 0.1818051210614813, 0.12853567878437794, 0.22017307870511246, -0.07375329323720249, -0.11914182704779899, -0.005805270300999458, 0.04250841069954189, 0.011847116807332697, -0.012688586296249334, -0.13400981210490664, -0.16666150649662456, -0.08207547610294678, 0.2586469909187695, 0.1623894804231156, 0.2022032997837835, -0.37731736880826294, -0.29299123075867095, -0.39450553333758764, -0.7568339406963063, -0.8621630528711638, -0.7882144370013727, 0.012645076102348374, 0.056690858837937265, 0.13594706079726301, -0.21590076899319116, -0.13041951031732324, -0.23880351034623468, 0.02864911899505253, -0.08224046171740217, 0.040247384053302256, 0.1217417985391022, 0.028115532418450696, 0.05396858648068831, -0.004501682520633696, -0.0003769126929851892, 0.05185339564806793, -0.23931358910130554, -0.14305972803434283, -0.23643210926761413, -0.22425864107016938, -0.17349998784737206, -0.24411751179697105, -0.2768325660146935, -0.20586492496044106, -0.1936938128823599, -0.19558838480358007, -0.17525633649546116, -0.2893025598177148, -0.0023525921412667953, -0.1153478216101937, 0.026406588934642133, 0.02995008987475246, 0.03544223721243661, 0.05389886461781915], [0.030595736050207087, 0.014930293004410683, -0.05455150364843644, -0.028251211012897036, -0.0289541679229048, -0.07419252926947359, 0.019751782570681786, 0.044692899646171784, 0.06628031379998944, -0.05602260573026066, 0.06049937583538896, -0.05368117899857309, -0.01470979411977286, -0.06477499545658383, -0.03145400775634277, -0.0300296654657387, 0.02945476388018597, 0.02737338731582263, 0.027449677855875095, 0.0028414299702897317, 0.003402572545072473, 0.05578293254457141, 0.014293511693022263, -0.031241591159459216, -0.007578850825350927, 0.020389506665061195, -0.06475259862220525, 0.017054905565500326, -0.040247673618382315, -0.02389642751385003, 0.02680898921804689, -0.012129766491791009, 0.05522666687836901, 0.004363950472435045, 0.0694380870522245, -0.06278307678493827, 0.013376512740674522, -0.054565300278800244, 0.048362559802192624, 0.04624230172571108, 0.051661155148523624, -0.06145626491669435, -0.0011694959020353399, -0.03471918092280459, 0.07221094435704566, -0.07507425682840645, -0.04860771309074485, 0.015289287951884577, -0.02248628216789267, -0.04435491732036466, -0.01019205380878042, 0.04641723494580501, -0.001585010632655052, 0.05931952558952672, -0.011471991680324825, -0.05631310015872512, 3.834700816789225e-05, 0.004224804936655448, -0.07345568786924973, -0.026918326474532548, -0.002228243918754355, -0.08022069739081357, -0.06482065616483515, 0.010873034211092751, 0.015070681899706813, -0.0286953620318996, -0.007257199205684287, -0.04813636465005217, 0.020642045338237245, 0.06338979310092803, -0.018685486163349682, -0.061706262248620074, -0.0453253415619116, -0.009389569610456033, 0.007559762902384191, 0.012735275555144488, -0.0053098721316957205, 0.022904436705792317, 0.02295371538635064, -0.06172586583523032, 0.03290468067217011, -0.0521748599795176, -0.03240473762423864, 0.04095483369560525, 0.05272994132630275, -0.04112266543864802, -0.006166578182056886, 0.017761440969145538, -0.07514192568277206, -0.056377132521684845, -0.04915030752262524, 0.037108769742396346, 0.04011671930576378, -0.06615981839721674, 0.00935041532318246, -0.04989964292677341, 0.058729925927489296, -0.01667944395476872, -0.005774304301826717, 0.03517343953028677, 0.030591593621408508, -0.055177659222055, -0.019105700580577055, 0.05427268729840473, 0.03905011276966191, 0.006134809698299172, 0.03380935655214342, -0.01184079343800163, 0.015479466137498604, 0.060488405600517464, -0.055755416718866295, -0.014149713946719189, -0.006144769341916312, -0.07313810021810507, 0.06475111288686022, 0.056417702978642154, 0.006318503625371266, -0.006592036459463621, 0.05593446434305666, -0.04986435071951916, 0.0056829058784191415, 0.03060310669566524, -0.05409524766428605, -0.018298856294842895, 0.014445174457064365, 0.05585392931642044, -0.004878143203683735, -0.022012573923927935, 0.060634775342868985, 0.03142912633825006, 0.010041222146433524, -0.05697243310676069, 0.03807813957736895, 0.04135705484821406, -0.03035076230912533, -0.07303559205312524, -0.029265773312479034, 0.01451619090727422, 0.04291832979302754, -0.017226807517171892, 0.04325186662677638, 0.04047134802151633, 0.021463180666900745, 0.055876574014635846, 0.005004699518406181, -0.054586520687522413, 0.00870953695401754, -0.028978043508431865, -0.018931402214616613, 0.030352412246481573, 0.0654830702936962, 0.020499650332150045, 0.06687078675696753, -0.004676925192614099, 0.02553559792723315, -0.025492210465102878, -0.06563179648607559, -0.0297833683083643, -0.007834561437398335, 0.015428018671293932, 0.032560663104291426, -0.0012521898491919465, 0.03491305879459903, 0.05110792484155956, -0.02746370245387093, 0.03404715903198431, 0.030161092500590937, -0.00865477678836426, -0.08305177071251299, -0.06327709748011887, 0.014762056924534611, -0.06023431663163222, 0.02081920702172072, -0.06158400353061974, -0.033796542825613014, -0.03789882793619076, 0.04932647562198573, 0.014554348849045468, -0.03949286701216578, 0.028682138090202407, -0.0774589568151789, 0.037647783037368376, -0.06307353028997709, 0.040556142137441596, 0.024623371969139315, 0.0449244722363389, 0.015386525379865353, -0.009192361187423394, -0.053160688769874315, 0.027689548880602464, 0.03193297339895549, -0.03962316743749819], [0.022084839061035384, 0.07330863813217345, -0.017593983538393556, 0.07031323521720029, 0.07189587518662333, -0.023827885023075722, 0.05611073386792881, -0.031949141110206115, 0.00894997127477368, 0.06320453882681595, 0.10313848360122217, 0.11620538081573274, 0.09281413568531391, 0.1238767135027844, 0.07480225397397726, 0.05706168928996842, 0.07843133213818682, 0.053794948684549836, -0.003916593236372956, 0.03452202003802602, 0.03786425733706948, -0.021566925478975374, -0.04427909308839738, 0.023168280062903685, -0.04130112050296465, -0.04872072779743619, 0.00016567982907129175, 0.013570740773486413, 0.009511217626751875, 0.026214562000338473, -0.16652450968692384, -0.09975361901798274, -0.12304167250015721, -0.1460332871598835, -0.0945200034426781, -0.14997609956013783, -0.22577008639653337, -0.18786669297589245, -0.1989115629462842, -0.0795944367432863, -0.11126975349259362, -0.10219448459915832, 0.02623790873771254, 0.045244789246487574, 0.007696913530138797, 0.033990975552321646, -0.04629740045679844, -0.05369884311556184, -0.054231256798124974, -0.09809265420815039, -0.030546007925646164, -0.025027782948576285, 0.003092383718366601, -0.057314630081153235, -0.03188936140329808, -0.03806243903635295, -0.022977231634963773, -0.14122296745946078, -0.1724425813578241, -0.0894709035630087, -0.03770122104535487, 0.020629018804666725, -0.013176661308888948, -0.08640200547446451, -0.22027706982122708, -0.11789664506236563, -0.04349482700249192, 0.036896355343373766, -0.012817015062593147, 0.018795467665506296, 0.05662479692358219, 0.021870020159280235, -0.04842871732470501, 0.03125978622861691, 0.043196134178399063, -0.03708542437560021, -0.0016281028249164962, -0.03819859866351687, -0.044814727654942335, -0.0666041442993467, -0.12222679090378709, 0.30387249673778527, 0.25880351854801115, 0.2036815228977771, 0.08408070746706411, -0.10178408070346323, -0.04061824055593635, 0.12551588796875032, 0.008363273616063255, 0.1336129802990073, 0.10311597618421679, 0.05415781599101429, 0.09419408166701151, 0.035504049031280634, 0.048766664126011675, 0.06325598953084022, -0.029799786518033656, -0.06889508920613681, -0.006019661054427032, 0.03721609450045006, 0.10841140465581765, 0.11695388272660175, -0.269614153526773, 0.05323847441622547, 0.17646899039103567, -0.26271224441088153, -0.12864152816765398, -0.10877479755606778, -0.2575298562943327, -0.28582574284480183, -0.16614729336817408, -0.09517074108753862, 0.01251970059154033, -0.03406919150063345, -0.10763580931506746, 0.0097989390278409, 0.062016826704726066, 0.010379870509127712, -0.041792123361885015, 0.04979327407235611, -0.03512354636740619, -0.019556990526493255, -0.001964673320915889, 0.021343604330591227, 0.06746739435671749, 0.14228727282127626, -0.43761712326661933, 0.06335523875658765, 0.16957631529184491, -0.25874504610290344, -0.2609494056190134, -0.18816848957674975, -0.5868934191777931, -0.6540942212629102, -0.6112174860887037, -0.0886827030468621, -0.013021950631607262, 0.0011880826158321427, -0.09961421866156617, 0.04597111747026263, 0.13504884397269962, -0.010512020174137344, 0.06354278470715685, -0.05355490254092964, 0.02510892750312933, 0.07019716435479856, 0.05060610711084583, 0.08188295808258507, 0.02053633526142619, 0.11364861326437697, -0.1532533775291052, -0.12619507792546186, -0.13240258222487078, 0.2944663357871481, 0.3891472331907051, 0.385977804566541, 0.6599454205754183, 0.5812758208083699, 0.6426921767277797, 0.10453957563410358, 0.025448061740613686, 0.03881414312965814, 0.007163171854210658, -0.011056807237239561, -0.04547385278156933, -0.03728941030513737, 0.04652697838040944, -0.06310807202773487, -0.02809263264025357, 0.03865041584716602, 0.05750762154045889, 0.08895905736424357, 0.10490997744751188, 0.09077733154966426, 0.05140972429932062, 0.07714130047728657, 0.03134862296886534, -0.10170402509326631, -0.07295510455964818, 0.014183896197568208, -0.06305305223732173, -0.08485982970565213, -0.0967233238516954, 0.029528805443485448, -0.020072487527035176, 0.039228380433594626, 0.05593606813610805, -0.027078476819509575, -0.008844596814845293, 0.042643780536659265, -0.0317521780982187, 0.016979375161112614], [0.02991133802934462, -0.000884435637683441, -0.014070039354564577, 0.009752825788554671, -0.05730339167830372, -0.028403161303236984, -0.05801824179923431, 0.010549853137943972, -0.036686352305052475, 0.03070115188108873, -0.07266837440307425, 0.011254762638993464, 0.03258763151873465, -0.030474641193842963, -0.041513809183565495, -0.03246674048705735, -0.001998871875562477, -0.05566286473914602, 0.025045657993532276, 0.05776309755533285, 0.056584641766419586, -0.037389253472213516, 0.021008831855603507, -0.023589840103331768, 0.05190019189003323, -0.06556072268869269, -0.07080238128971356, -0.1060680628042605, -0.03661429506229719, -0.10637179628127504, -0.016104777227367494, -0.052764755047556, -0.02346358286731128, 0.05650222868921974, 0.002119890971540683, -0.003917703969483165, 0.06470396094017226, -0.010469509279211918, 0.031194788542497975, -0.06930852554038408, -0.08606291941971388, -0.007896294358590676, 0.006371744712903947, -0.06497280894820258, -0.04222335506374942, 0.010271195723002067, -0.004351635824288635, 0.005787454820458016, -0.0023830409547110232, 0.02297479755641721, 0.016653442175575562, -0.004681180991457576, -0.06879020733133669, -0.018753617058155318, 0.056793484682021646, 0.033558330189979356, 0.1486440284348334, 0.017539416101013738, 0.05940588780934911, 0.02325783982586685, -0.07964720406600152, -0.0974237588827244, -0.11686155608868826, 0.0620660050214984, 0.00592009211810848, 0.0596830727661106, -0.01910931496249724, 0.008868845218659462, 0.10360641470479355, -0.0006192614330890592, 0.014066613478392906, 0.006085016661488429, -0.09826215418543449, 0.033514483291028484, -0.062282468382774514, 0.05831960214248596, 0.02924461090325495, 0.06819596844156688, 0.020940285672863893, -0.07082555439427339, -0.03346335584336709, -0.061366828614474574, -0.0021468935920273993, -0.05181228816848022, 0.012874467940577916, 0.03189546893162199, -0.01694931363441645, -0.03723411739560894, 0.03418435352955089, -0.029234013363103564, -0.021496686114385453, 0.048453681935577315, -0.010359831622171892, 0.005785806192902547, 0.02436476730760385, 0.0024275237690898374, -0.07134133709571204, -0.07357994784759557, -0.0892593302595561, 0.0605680700521126, -0.008302426041611641, -0.014115554903418683, 0.0022797192523263364, 0.03123547859256259, -0.050255416655668496, -0.08668493097997114, -0.00786104064552343, -0.019306131705243763, -0.05755361118805684, -0.060694979864651916, -0.10028106719530357, -0.044970740735811324, 0.03005484009756072, -0.08639860756348935, -0.051613278240801176, 0.011934411561197449, -0.04642265765230794, 0.031838545469456934, -0.05957352231866425, 0.01720829162966141, -0.10364467121794063, -0.07406454888827195, -0.08850831270432492, 0.11399003451421881, 0.05871906409069845, 0.04859992588207666, -0.03538932607952757, 0.052665013890797946, 0.04285312730740777, -0.15821727685153308, -0.20634307553843934, -0.1367113338768681, 0.02294479284591861, -0.00801877067182617, -0.10222912858202088, 0.08669389387192827, 0.04780186931549602, 0.07138173374725067, 0.05964696983488192, -0.04051001996311226, 0.02789438551652285, -0.02768239842759977, 0.03993894968315557, -0.015834543152442218, -0.02271983204989495, -0.005716456513612444, -0.05866841127651384, -0.031859605356495145, -0.07879513429408276, -0.06209080738204733, 0.0777138545594063, 0.02984060787036763, 0.020053822287762407, -0.16078686992229482, -0.17385027346469348, -0.12389515258082145, -0.0724228030194745, -0.16366045904793186, -0.05394849908345784, 0.01017239202790289, -0.04439719481351924, 0.006827160901354838, -0.08627162393171753, -0.016985582829157003, 0.014393040713306021, 0.0718832069770007, 0.05255267626481219, 0.03601952827120577, 0.02086938319582467, 0.0017520189633797429, -0.05022555771562213, -0.000895850201129407, -0.05442057613142478, 0.03484573571950667, 0.0012917587338474553, -0.05833855871716455, -0.025264262543990206, 0.016598016325932226, 0.014957693498580515, -0.0019103997338898585, -0.10138064031633254, -0.10121481556647477, -0.050197230723919226, -0.05640158385529796, 0.028264520406593927, -0.05540965227502896, 0.06148628290069468, -0.013561515577881706, -0.039225498059702005, 0.05301500827176715, 0.05769014177310969, 0.022264900263601322], [-0.20195269140708744, -0.26305950855027876, -0.10335540585107127, -0.24136030066177064, -0.14547546789708257, -0.17375238785692435, -0.019080790492523727, 0.01054737051436905, -0.014711351522261674, 0.10777532336487322, -0.036486487141963224, 0.009953802574386031, -0.0020800311622906566, -0.016303324062935387, -0.025834851623295137, -0.04776245198477412, -0.07193220675100712, -0.044654064683916604, -0.17379510229818346, -0.15440266620759915, -0.1077702800986436, -0.10339593598251398, -0.1250968644343091, -0.12334556973849663, -0.03373916879255525, -0.06086877094264228, -0.10901282744964641, 0.059679550967848494, -0.06965187822097538, -0.02591884625424379, -0.09251336795989318, -0.0689127101046504, -0.010945387574207667, -0.2531318095862758, -0.21350873493918246, -0.20830524519951657, -0.14806462054184902, -0.2951222655536104, -0.1502553772428322, 0.04144381481862955, -0.013220769204382827, -0.04376717124628733, 0.06832004447818978, 0.0051686511066418046, -0.10015159239468964, -0.18140669107490745, -0.21834695669821147, -0.25242048267513284, -0.1966326765153626, -0.12644457986845734, -0.08635979146282625, 0.19538223224131687, 0.15375365409560363, 0.13508143254468682, -0.05599324168837579, -0.11522498274621712, -0.10675354461136145, -0.49289225982897106, -0.5700224477692694, -0.4361747257614418, 0.048710167540142624, 0.05498800531903774, 0.038740255121526415, 0.4459315989352393, 0.41873337682782924, 0.3970629689864362, 0.04785917960812863, -0.022213475447610844, 0.033466998717863065, -0.43422851618346897, -0.4264973708151117, -0.22836527784492797, -0.12945694741694017, -0.09592954751108668, -0.08234954617735468, 0.19834911414376044, 0.11186977282654811, 0.1315337123994372, -0.16397532968434264, 0.007519638007725073, 0.15835202382010177, 0.3031139939021185, 0.4414137086085585, 0.348545225837886, 1.2206186059315371, 1.846760917772287, 1.8543164293813317, -0.3319493068529754, -0.13350275536066047, -0.10287619193688154, -0.7876150327310603, -0.7141513832013693, -0.8239782139453599, -0.040436367415910154, -0.04368138650397069, 0.06657207242119884, -0.24605324132115605, -0.15793537233871358, -0.09110564889942854, 0.28959467011076695, 0.25293866395802106, 0.2681979198055083, -0.6372483742840179, -0.30627199035125685, 0.01927086248726686, 0.4644678142504793, 0.6096183925186046, 0.6568951421100726, 0.2634352140249711, 0.4684455017291955, 0.3053163397625608, -0.12287226495429973, -0.06905740176091546, 0.01686109798380552, -0.0618653427069767, 0.03273972806731347, -0.056829436934886964, -0.056943490276679214, 0.015497504987718352, 0.008911856940335982, -0.11317717178047655, 0.06612014070526773, -0.02845643401327498, 0.004006765852977768, 0.11781750086176648, 0.16420503706018658, -0.44562085807857754, 0.24721197489932126, 0.6367414935665642, -0.14415083639958765, 0.1278211393815206, 0.2574410142928845, 0.2231696641524415, 0.2624390935048145, 0.23704767869903903, 0.6087006715008103, 0.5926398052353851, 0.6188828966601282, -0.06327294565208201, -0.022671473365054203, -0.007157693013121179, -0.007211799292452025, -0.0055222194546944966, -0.11560472732122044, 0.023569921860164267, 0.16759257104761424, 0.17484741110192387, -0.04135372590152888, 0.13509054508926174, 0.03392496990413718, 0.09709551262088399, -0.026627158427970685, 0.08985711204789984, 0.8614614430268233, 0.9115810527774394, 0.9416376835437339, 0.7640343387586767, 0.7590224226166209, 0.7086181428919286, 0.5817454139260412, 0.5653118720378214, 0.4501193440940022, -0.05515754514571691, -0.05420416618949097, -0.060896545794974444, 0.20999277252600262, 0.10057834818906024, 0.16941077635718363, -0.2086011437510506, -0.21594103878669071, -0.08094746358121484, 0.0444664342644284, 0.18054978980594966, 0.1473820762120327, 0.33213535876132827, 0.36271569763822187, 0.29830370695739733, 0.16225414912262479, 0.13889427559952652, 0.16246075121669487, 0.2299136067029737, 0.11100873517799378, 0.20902337979539504, 0.22047834504827885, 0.3009202359545128, 0.3030800236220823, 0.2169109608210467, 0.3096277722169155, 0.15466092417334243, -0.011142546242581052, -0.08294250670221416, 0.02190323608714621], [0.06202594281880434, 0.0582864589384018, 0.0106594278575441, 0.13027261602138263, 0.029423982347112253, 0.03432276126909583, -0.07938825356582523, 0.004141311850049153, 0.00993158193779842, -0.15545106004526812, -0.13914572585906546, 0.03625316204746234, -0.1402343374795677, -0.003720385798642337, -0.07519080163070835, -0.1651642759056454, 0.02089624968129291, -0.031738511357908714, 0.058163119420135516, 0.10879513700058101, 0.04077631296911247, -0.009340077629080396, 0.0635357760313402, 0.10573430442570164, 0.061346865353388645, 0.1503768552232571, 0.09021415542494578, -0.0015174093083629265, 0.037135261340680244, 0.03855800877218848, -0.2095776137140448, -0.13280241402444573, -0.07662862709169722, 0.12599851976837748, 0.2552941708812716, 0.23426812063770774, 0.03636523497036726, 0.12133430237737412, 0.22646310006477513, -0.10172290539180781, -0.11117213803058489, 0.009911452160891046, -0.18548510709274726, -0.192891304510388, -0.06095706183807442, -0.032832676968021404, -0.010806275066013723, 0.015191356142491836, 0.17088902076304716, 0.2113569082363127, 0.07728590614161503, -0.30094435986101686, -0.11310789292813096, -0.16285496211717673, 0.24545559995457683, 0.39044668016626394, 0.33655357687709025, 0.5957550818469326, 0.5549192652859929, 0.5747336143011984, 0.18415120414907654, 0.12613476148771868, 0.09303915473836177, -0.0764597907071583, -0.0564107865040694, -0.08336748969608088, 0.16345158612084673, 0.16010378197689126, 0.21791894769035708, -0.016528275952588475, -0.06847259622233544, -0.05057137604410463, 0.12337034969627513, 0.024384954328165145, -0.0022395967260830083, -0.09703315868965301, 0.05511475374000079, 0.09325396934699873, 0.26260477813012373, 0.1798101103996865, 0.06328422859096396, -0.5984180580221574, -0.6984628445404418, -0.6968246032837807, -0.8266443140927874, -1.427018760966588, -1.4577696735939634, 0.3050834654532325, 0.37080956468782644, 0.20854224926648113, 0.22355435623051437, 0.19591219277025373, 0.32868121384959736, 0.04533524696823787, 0.040530381208520934, 0.053050696868260694, 0.016369603313040635, 0.07775393474041524, 0.022526406582657216, -0.18204461794379126, -0.167221516336361, -0.045895266704727225, 0.3433931380433716, 0.33351139321586887, 0.271007047173188, 0.05664543448142832, 0.06741493135212294, -0.0340746150059014, 0.16412222817665223, 0.15284296807742168, 0.1891466981571449, 0.2947179444743946, 0.47406301583170535, 0.4760660966808132, -0.1900787988734571, -0.031035244651523703, 0.003059791205471897, 0.08296685277786651, 0.13632724388313594, 0.12927871594130497, 0.02859526107104958, 0.07107870178761788, 0.03330723117792264, -0.07520125901884155, -0.0434240012513749, -0.011855901025989431, -0.4556696997060801, -0.39009820190702066, -0.5415916960274921, -0.35560616324036504, -0.3623517491588889, -0.4920563872294773, -0.21269644329695497, -0.16638323728408824, -0.17429227352525076, -1.0630443272938093, -0.9000614539158089, -0.8744298056183175, -0.1742863953591058, -0.10403199655616092, 0.017566633781585524, 0.047204037276467894, 0.1338557168433473, 0.1263370859172565, 0.0004488046458407992, 0.09148698432549872, 0.016234532824898604, 0.04059656786959084, -0.0434093274045627, 0.020836001530193465, -0.38651160116866135, -0.15398068771719925, -0.1381130784146769, 0.024832880479743417, 0.0615139150444946, 0.06976047826123362, 0.4607043663460451, 0.6075526253543585, 0.5781484829980335, -0.3236705701216378, -0.2524445171955626, -0.20700914827972394, 0.2055764823657168, 0.24101805744562105, 0.24413623865581202, -0.12035260157147386, -0.15952141470250106, -0.21522864065328015, 0.05596859957345457, 0.10280179267390444, 0.014269400070263468, -0.0138609398226008, -0.007139587776694525, 0.06908260787729649, 0.008620617137686918, -0.07544677099185222, -0.11368757038027771, -0.03751181268362276, -0.01319911021392432, -0.03279911277284686, 0.03310799675673101, 0.08110356158177842, -0.05460737820859384, 0.033600821333592906, -0.04620817292264373, 0.06402646112902718, 0.02897577417521551, -0.15809399786740638, -0.016771235928914205, -0.04605746913349658, 0.023055778625162414, -0.07936311719131325], [0.10002580209341215, 0.09163161818457488, 0.08989509755255926, 0.00899470884041473, 0.06461366477045145, -0.012367061398089256, 0.031216269995389276, 0.013500047916314529, 0.03485038751621592, -0.012636485438585032, 0.06468710891901186, 0.09450612288164928, 0.0678070247381126, 0.1581642323915185, 0.09106804976971708, 0.060125567886498046, 0.03380386320678913, 0.03199644575241795, 0.08903287865054692, -0.017372698937212543, 0.11289599642788145, 0.009562278091744234, 0.0037252035290132597, 0.08003603869234067, -0.06284317405827039, 0.09583165720376649, 0.07294038824018523, -0.10553056731239996, -0.08880242183404677, 0.0066240458796071695, 0.05170225980284386, 0.021698262311958618, 0.03867703127115387, -0.029802878481165692, 0.07330361278646752, -0.044033652603080876, -0.05559813235065134, 0.10131357277810339, 0.055133469215033405, -0.04653846645249284, -0.042495737075689155, -0.07068291177174935, -0.04025881871378401, -0.05407013887514887, 0.039538342395740785, 0.11494571404596189, 0.15352972200104167, 0.10197002627948122, -0.06115982870254857, 0.03282278493747128, 0.02367659804143156, 0.008396311781370862, -0.06053534677209949, -0.03440651091053398, -0.04433396322343917, -0.05387558886660838, -0.08058778294810852, 0.27949374322428217, 0.25789057755451866, 0.1882316624109091, -0.02192132887578902, -0.06747625470961839, -0.11717748209959448, -0.2438565228234777, -0.2817219226518922, -0.28498952552883133, -0.07095965419692044, 0.001437264983807606, -0.10117553689083662, 0.0938296790600433, 0.15354064854851557, 0.18307349688780625, -0.05974342389593753, -0.00202036613497947, 0.01315057703684116, 0.02939000911185841, 0.00410911325604923, 0.0025866849681090622, -0.10516144434958674, -0.19254188513269022, -0.20926697062452532, -0.10325980573355834, -0.00994007598690552, -0.04237786660073228, -0.42246706561765, -0.6484401228802292, -0.5132324261778276, 0.10239568561583114, 0.0064296845025552714, 0.050044164580041475, 0.2642677214844445, 0.2192001141025309, 0.2027242557507678, -0.09442540413355824, -0.0765457218458463, -0.07395755579952203, 0.03360550856976642, -0.026768867068157124, -0.00997333517087939, -0.01169870103541934, 0.02313063644696506, -0.06102328566589176, 0.4956364561332927, -0.01612404635843505, -0.09067212734560345, -0.14590241145396662, -0.17154078056001074, -0.288311706471996, -0.016941304063467912, -0.026916631236201416, -0.03203616609156782, 0.037835310456596834, -0.061368377914150486, -0.14394814074352896, 0.10092395732751026, -0.01779777141138612, -0.07879881856971027, 0.02767394551229375, -0.06928008630360319, -0.021635250171597196, -0.0021532650392137634, -0.13232145030571227, -0.04268093777825169, -0.03733029232586371, -0.016950416493094735, 0.0037997091529165935, 0.36710991400731763, -0.023194968220025477, -0.23195902454322162, 0.02318242404098925, -0.09758716146724568, -0.1732557746896143, -0.08125086425192557, -0.053231402068071025, 0.05135662943946829, -0.01656925866945281, -0.2052809827450962, -0.10206632289491469, 0.10161246776475115, -0.047590629038615086, -0.018727371726690333, -0.11430130364881473, -0.05474374255430271, -0.10172869344381541, -0.01631085272795116, -0.08936016285162485, -0.13010292833081097, -0.027711628661814553, -0.12557902166693527, -0.06396320892242703, 0.02760087593250718, 0.09979648344167337, -0.048402575582870484, -0.4334443292122617, -0.41305491366471425, -0.3888726779088166, -0.5405949325391529, -0.4263956391173, -0.48018201905721825, -0.05353736451187025, -0.04290955225551822, 0.06850755267387255, -0.1577638686743655, -0.12723583332059832, -0.09056347060948321, -0.06561005229936967, -0.011471096331993114, -0.02589165168178577, 0.040350115141982106, 0.008405383694410466, 0.06780616067449355, -0.008382785125398893, -0.12072193566346362, 0.009617941534360882, -0.15288410292459917, -0.16146027213536768, -0.1177488328343068, -0.1318011344124033, -0.17721210031787882, -0.2066677036744448, -0.16951699692794955, -0.2696020864405275, 